{"learner":{"attributes":{"scikit_learn":"{\"_estimator_type\": \"classifier\"}"},"feature_names":[],"feature_types":[],"gradient_booster":{"model":{"cats":{"enc":[],"feature_segments":[],"sorted_idx":[]},"gbtree_model_param":{"num_parallel_tree":"1","num_trees":"100"},"iteration_indptr":[0,1,2,3,4,5,6,7,8,9,10,11,12,13,14,15,16,17,18,19,20,21,22,23,24,25,26,27,28,29,30,31,32,33,34,35,36,37,38,39,40,41,42,43,44,45,46,47,48,49,50,51,52,53,54,55,56,57,58,59,60,61,62,63,64,65,66,67,68,69,70,71,72,73,74,75,76,77,78,79,80,81,82,83,84,85,86,87,88,89,90,91,92,93,94,95,96,97,98,99,100],"tree_info":[0,0,0,0,0,0,0,0,0,0,0,0,0,0,0,0,0,0,0,0,0,0,0,0,0,0,0,0,0,0,0,0,0,0,0,0,0,0,0,0,0,0,0,0,0,0,0,0,0,0,0,0,0,0,0,0,0,0,0,0,0,0,0,0,0,0,0,0,0,0,0,0,0,0,0,0,0,0,0,0,0,0,0,0,0,0,0,0,0,0,0,0,0,0,0,0,0,0,0,0],"trees":[{"base_weights":[7.983469E-2,7.3090965E-1,-5.602299E-1,1.3435344E0,-5.8485635E-2,-1.2398781E-1,3.447601E-1,1.5628102E-1,4.7611594E-2,7.377121E-2,-1.0252755E-2],"categories":[],"categories_nodes":[],"categories_segments":[],"categories_sizes":[],"default_left":[0,0,0,0,0,0,0,0,0,0,0],"id":0,"left_children":[1,3,5,7,-1,-1,9,-1,-1,-1,-1],"loss_changes":[6.11876E0,6.6101074E0,5.024904E0,2.513342E-1,0E0,0E0,7.7662635E-1,0E0,0E0,0E0,0E0],"parents":[2147483647,0,0,1,1,2,2,3,3,6,6],"right_children":[2,4,6,8,-1,-1,10,-1,-1,-1,-1],"split_conditions":[8.461539E-2,3.5488495E-1,1.520678E-1,1.9773936E-1,-5.8485635E-2,-1.2398781E-1,2.9382482E-1,1.5628102E-1,4.7611594E-2,7.377121E-2,-1.0252755E-2],"split_indices":[8,0,2,3,0,0,3,0,0,0,0],"split_type":[0,0,0,0,0,0,0,0,0,0,0],"sum_hessian":[1.2700194E1,6.2255855E0,6.474609E0,4.233398E0,1.9921874E0,3.486328E0,2.988281E0,2.7392576E0,1.4941405E0,1.2451171E0,1.743164E0],"tree_param":{"num_deleted":"0","num_feature":"12","num_nodes":"11","size_leaf_vector":"1"}},{"base_weights":[5.4611742E-2,-1.834128E-1,7.0445865E-1,1.64471E-1,-8.534049E-1,-1.5356875E-2,1.19251706E-1,8.7622136E-2,-5.4713555E-2,-1.4518536E-2,-1.1475887E-1],"categories":[],"categories_nodes":[],"categories_segments":[],"categories_sizes":[],"default_left":[0,0,0,0,0,0,0,0,0,0,0],"id":1,"left_children":[1,3,5,7,9,-1,-1,-1,-1,-1,-1],"loss_changes":[2.1690738E0,2.5750396E0,1.7501588E0,4.3864717E0,6.1086535E-1,0E0,0E0,0E0,0E0,0E0,0E0],"parents":[2147483647,0,0,1,1,2,2,3,3,4,4],"right_children":[2,4,6,8,10,-1,-1,-1,-1,-1,-1],"split_conditions":[2.37E2,1.2569686E-2,3.220752E-1,3.367329E-1,6.3430864E-1,-1.5356875E-2,1.19251706E-1,8.7622136E-2,-5.4713555E-2,-1.4518536E-2,-1.1475887E-1],"split_indices":[6,10,1,1,4,0,0,0,0,0,0],"split_type":[0,0,0,0,0,0,0,0,0,0,0],"sum_hessian":[1.2187701E1,9.445707E0,2.7419937E0,6.714051E0,2.7316568E0,1.2426717E0,1.4993219E0,3.2410336E0,3.473017E0,1.2399983E0,1.4916584E0],"tree_param":{"num_deleted":"0","num_feature":"12","num_nodes":"11","size_leaf_vector":"1"}},{"base_weights":[-2.6117386E-2,-4.5028234E-1,7.3552006E-1,8.747424E-2,-7.6046264E-1,1.0723742E-1,-1.2011356E-2,6.064662E-2,-5.868038E-2,-1.232423E-1,-1.356626E-2],"categories":[],"categories_nodes":[],"categories_segments":[],"categories_sizes":[],"default_left":[0,0,0,0,0,0,0,0,0,0,0],"id":2,"left_children":[1,3,5,7,9,-1,-1,-1,-1,-1,-1],"loss_changes":[4.2551293E0,1.4712756E0,1.4905033E0,1.7478005E0,1.4381855E0,0E0,0E0,0E0,0E0,0E0,0E0],"parents":[2147483647,0,0,1,1,2,2,3,3,4,4],"right_children":[2,4,6,8,10,-1,-1,-1,-1,-1,-1],"split_conditions":[1.52E2,-4.6703853E-3,1.9773936E-1,2.6815492E-1,2.2749369E-1,1.0723742E-1,-1.2011356E-2,6.064662E-2,-5.868038E-2,-1.232423E-1,-1.356626E-2],"split_indices":[6,10,3,3,3,0,0,0,0,0,0],"split_type":[0,0,0,0,0,0,0,0,0,0,0],"sum_hessian":[1.114616E1,7.4217153E0,3.7244446E0,2.9775515E0,4.4441633E0,2.4906077E0,1.2338369E0,1.739346E0,1.2382056E0,1.9777253E0,2.4664383E0],"tree_param":{"num_deleted":"0","num_feature":"12","num_nodes":"11","size_leaf_vector":"1"}},{"base_weights":[-4.156503E-2,3.0306226E-1,-8.453226E-1,6.4523053E-1,-8.540588E-2,4.730173E-3,-1.274427E-1,1.1335971E-1,-1.9976139E-2],"categories":[],"categories_nodes":[],"categories_segments":[],"categories_sizes":[],"default_left":[0,0,0,0,0,0,0,0,0],"id":3,"left_children":[1,3,5,7,-1,-1,-1,-1,-1],"loss_changes":[4.3667173E0,4.9547567E0,1.8671207E0,4.0038614E0,0E0,0E0,0E0,0E0,0E0],"parents":[2147483647,0,0,1,1,2,2,3,3],"right_children":[2,4,6,8,-1,-1,-1,-1,-1],"split_conditions":[1.9398903E-2,3.5488495E-1,3.975791E-2,1.282572E-1,-8.540588E-2,4.730173E-3,-1.274427E-1,1.1335971E-1,-1.9976139E-2],"split_indices":[9,0,5,2,0,0,0,0,0],"split_type":[0,0,0,0,0,0,0,0,0],"sum_hessian":[1.3839637E1,1.0122397E1,3.717239E0,8.153683E0,1.9687147E0,1.495682E0,2.2215571E0,4.9507995E0,3.202883E0],"tree_param":{"num_deleted":"0","num_feature":"12","num_nodes":"9","size_leaf_vector":"1"}},{"base_weights":[-2.1246663E-1,2.574586E-1,-5.8637375E-1,-6.1312415E-2,7.2700125E-1,-9.80705E-1,4.1681655E-2,2.344459E-2,1.1227911E-1,-4.0678527E-2,-1.2527713E-1],"categories":[],"categories_nodes":[],"categories_segments":[],"categories_sizes":[],"default_left":[0,0,0,0,0,0,0,0,0,0,0],"id":4,"left_children":[1,3,5,-1,7,9,-1,-1,-1,-1,-1],"loss_changes":[2.6118042E0,3.2665787E0,3.6148424E0,0E0,6.9988894E-1,4.4536543E-1,0E0,0E0,0E0,0E0,0E0],"parents":[2147483647,0,0,1,1,2,2,4,4,5,5],"right_children":[2,4,6,-1,8,10,-1,-1,-1,-1,-1],"split_conditions":[1.10073835E-1,3.7037037E-2,1.6951767E-1,-6.1312415E-2,1.3543354E-2,1.1666667E-1,4.1681655E-2,2.344459E-2,1.1227911E-1,-4.0678527E-2,-1.2527713E-1],"split_indices":[2,8,2,0,11,8,0,0,0,0,0],"split_type":[0,0,0,0,0,0,0,0,0,0,0],"sum_hessian":[1.3005234E1,5.900696E0,7.104538E0,1.9602994E0,3.9403965E0,5.115978E0,1.9885603E0,2.4650378E0,1.4753588E0,2.447719E0,2.6682584E0],"tree_param":{"num_deleted":"0","num_feature":"12","num_nodes":"11","size_leaf_vector":"1"}},{"base_weights":[-7.7369576E-3,3.1158137E-1,-6.924047E-1,5.7716227E-1,-7.213768E-2,2.3398487E-2,-1.049064E-1,1.0633308E-1,-2.4250115E-3],"categories":[],"categories_nodes":[],"categories_segments":[],"categories_sizes":[],"default_left":[0,0,0,0,0,0,0,0,0],"id":5,"left_children":[1,3,5,7,-1,-1,-1,-1,-1],"loss_changes":[3.5254135E0,3.437677E0,1.9388382E0,2.749778E0,0E0,0E0,0E0,0E0,0E0],"parents":[2147483647,0,0,1,1,2,2,3,3],"right_children":[2,4,6,8,-1,-1,-1,-1,-1],"split_conditions":[1.9398903E-2,3.678161E-1,5.594519E-3,6.4465344E-1,-7.213768E-2,2.3398487E-2,-1.049064E-1,1.0633308E-1,-2.4250115E-3],"split_indices":[9,7,5,4,0,0,0,0,0],"split_type":[0,0,0,0,0,0,0,0,0],"sum_hessian":[1.413845E1,1.0013313E1,4.1251364E0,8.316368E0,1.6969444E0,1.2423085E0,2.882828E0,4.174079E0,4.1422896E0],"tree_param":{"num_deleted":"0","num_feature":"12","num_nodes":"9","size_leaf_vector":"1"}},{"base_weights":[5.0133877E-2,-3.73487E-1,4.3034118E-1,1.46706E-1,-7.747714E-1,6.9505244E-1,-4.9090035E-2,-3.5830677E-2,6.414539E-2,-1.08714E-1,-4.3047694E-3,1.09519176E-1,-1.0875059E-2],"categories":[],"categories_nodes":[],"categories_segments":[],"categories_sizes":[],"default_left":[0,0,0,0,0,0,0,0,0,0,0,0,0],"id":6,"left_children":[1,3,5,7,9,11,-1,-1,-1,-1,-1,-1,-1],"loss_changes":[2.2359803E0,1.4975948E0,2.110406E0,1.161272E0,8.450353E-1,2.0648246E0,0E0,0E0,0E0,0E0,0E0,0E0,0E0],"parents":[2147483647,0,0,1,1,2,2,3,3,4,4,5,5],"right_children":[2,4,6,8,10,12,-1,-1,-1,-1,-1,-1,-1],"split_conditions":[2.4731183E-1,1.2569686E-2,2.7285483E-1,1.2874268E-2,4.8425887E-2,9.7222224E-2,-4.9090035E-2,-3.5830677E-2,6.414539E-2,-1.08714E-1,-4.3047694E-3,1.09519176E-1,-1.0875059E-2],"split_indices":[7,10,5,11,10,8,0,0,0,0,0,0,0],"split_type":[0,0,0,0,0,0,0,0,0,0,0,0,0],"sum_hessian":[1.188467E1,5.629759E0,6.2549114E0,2.7279158E0,2.901843E0,5.0495043E0,1.2054074E0,1.4864275E0,1.2414882E0,1.6932709E0,1.2085721E0,3.1292346E0,1.9202696E0],"tree_param":{"num_deleted":"0","num_feature":"12","num_nodes":"13","size_leaf_vector":"1"}},{"base_weights":[6.2753774E-2,-6.836021E-1,5.167552E-1,3.1254373E-2,-1.0374414E-1,1.2210758E-1,-8.3399594E-2,4.280091E-2,-9.654271E-2],"categories":[],"categories_nodes":[],"categories_segments":[],"categories_sizes":[],"default_left":[0,0,0,0,0,0,0,0,0],"id":7,"left_children":[1,3,5,-1,-1,-1,7,-1,-1],"loss_changes":[4.9076104E0,2.2678273E0,3.875151E0,0E0,0E0,0E0,3.0095217E0,0E0,0E0],"parents":[2147483647,0,0,1,1,2,2,6,6],"right_children":[2,4,6,-1,-1,-1,8,-1,-1],"split_conditions":[7.9E1,3.155172E-1,7.8094155E-3,3.1254373E-2,-1.0374414E-1,1.2210758E-1,1.9398903E-2,4.280091E-2,-9.654271E-2],"split_indices":[6,1,10,0,0,0,9,0,0],"split_type":[0,0,0,0,0,0,0,0,0],"sum_hessian":[1.2440757E1,4.51409E0,7.9266667E0,1.2137597E0,3.3003302E0,3.1708581E0,4.7558084E0,3.336193E0,1.4196154E0],"tree_param":{"num_deleted":"0","num_feature":"12","num_nodes":"9","size_leaf_vector":"1"}},{"base_weights":[-1.3054278E-1,-4.7066686E-1,9.270626E-2,2.641894E-1,-7.301006E-1,-3.7769258E-2,7.6076224E-2,-3.576885E-2,-1.15418874E-1],"categories":[],"categories_nodes":[],"categories_segments":[],"categories_sizes":[],"default_left":[0,0,0,0,0,0,0,0,0],"id":8,"left_children":[1,3,-1,5,7,-1,-1,-1,-1],"loss_changes":[4.8793607E0,2.1010842E0,0E0,1.3538113E0,7.97451E-1,0E0,0E0,0E0,0E0],"parents":[2147483647,0,0,1,1,3,3,4,4],"right_children":[2,4,-1,6,8,-1,-1,-1,-1],"split_conditions":[2.37E2,7.3E1,9.270626E-2,6.3E1,1.282572E-1,-3.7769258E-2,7.6076224E-2,-3.576885E-2,-1.15418874E-1],"split_indices":[6,6,0,6,2,0,0,0,0],"split_type":[0,0,0,0,0,0,0,0,0],"sum_hessian":[1.1351438E1,9.009097E0,2.3423407E0,2.3459034E0,6.6631937E0,1.1276618E0,1.2182415E0,4.529262E0,2.1339316E0],"tree_param":{"num_deleted":"0","num_feature":"12","num_nodes":"9","size_leaf_vector":"1"}},{"base_weights":[-6.3376136E-2,-7.41454E-1,2.9398105E-1,-1.3524869E-2,-1.0699514E-1,-3.15316E-1,6.399094E-1,-6.2313285E-2,2.3346711E-2,1.2842505E-1,-2.1343542E-2],"categories":[],"categories_nodes":[],"categories_segments":[],"categories_sizes":[],"default_left":[0,0,0,0,0,0,0,0,0,0,0],"id":9,"left_children":[1,3,5,-1,-1,7,9,-1,-1,-1,-1],"loss_changes":[3.4895792E0,8.3974886E-1,2.216296E0,0E0,0E0,8.433404E-1,3.8077323E0,0E0,0E0,0E0,0E0],"parents":[2147483647,0,0,1,1,2,2,5,5,6,6],"right_children":[2,4,6,-1,-1,8,10,-1,-1,-1,-1],"split_conditions":[7.9E1,7.3E1,1.2627023E-2,-1.3524869E-2,-1.0699514E-1,1.1431495E-1,1.9398903E-2,-6.2313285E-2,2.3346711E-2,1.2842505E-1,-2.1343542E-2],"split_indices":[6,6,9,0,0,2,9,0,0,0,0],"split_type":[0,0,0,0,0,0,0,0,0,0,0],"sum_hessian":[1.2501403E1,3.9436266E0,8.557776E0,1.8821142E0,2.0615125E0,3.1311872E0,5.426589E0,1.9192076E0,1.2119797E0,2.8042235E0,2.6223652E0],"tree_param":{"num_deleted":"0","num_feature":"12","num_nodes":"11","size_leaf_vector":"1"}},{"base_weights":[-1.7035013E-2,4.0268388E-1,-3.4310442E-1,-3.2747418E-1,1.16060846E-1,-6.9596595E-1,7.0598595E-2,2.7074134E-2,-8.054555E-2,-8.279093E-2,-1.3806605E-3],"categories":[],"categories_nodes":[],"categories_segments":[],"categories_sizes":[],"default_left":[0,0,0,0,0,0,0,0,0,0,0],"id":10,"left_children":[1,3,5,7,-1,9,-1,-1,-1,-1,-1],"loss_changes":[2.1972082E0,4.2749457E0,3.8256426E0,1.4660686E0,0E0,6.405482E-1,0E0,0E0,0E0,0E0,0E0],"parents":[2147483647,0,0,1,1,2,2,3,3,5,5],"right_children":[2,4,6,8,-1,10,-1,-1,-1,-1,-1],"split_conditions":[3.1744E-1,2.973764E-1,2.37E2,1.0574841E-2,1.16060846E-1,3.7322524E-1,7.0598595E-2,2.7074134E-2,-8.054555E-2,-8.279093E-2,-1.3806605E-3],"split_indices":[1,1,6,11,0,0,0,0,0,0,0],"split_type":[0,0,0,0,0,0,0,0,0,0,0],"sum_hessian":[1.4045179E1,6.0380254E0,8.0071535E0,3.3646102E0,2.6734152E0,6.2436895E0,1.7634641E0,1.6869227E0,1.6776876E0,5.05273E0,1.1909597E0],"tree_param":{"num_deleted":"0","num_feature":"12","num_nodes":"11","size_leaf_vector":"1"}},{"base_weights":[-1.2527203E-2,2.8005037E-1,-7.247009E-1,-9.561897E-2,1.0619861E-1,-2.5209095E-3,-1.0036947E-1,-8.508238E-2,1.7862251E-2],"categories":[],"categories_nodes":[],"categories_segments":[],"categories_sizes":[],"default_left":[0,0,0,0,0,0,0,0,0],"id":11,"left_children":[1,3,5,7,-1,-1,-1,-1,-1],"loss_changes":[2.8207257E0,2.9292476E0,7.4303675E-1,1.6886603E0,0E0,0E0,0E0,0E0,0E0],"parents":[2147483647,0,0,1,1,2,2,3,3],"right_children":[2,4,6,8,-1,-1,-1,-1,-1],"split_conditions":[1.9398903E-2,2.37E2,-2.9299043E-2,7.130153E-2,1.0619861E-1,-2.5209095E-3,-1.0036947E-1,-8.508238E-2,1.7862251E-2],"split_indices":[9,6,10,5,0,0,0,0,0],"split_type":[0,0,0,0,0,0,0,0,0],"sum_hessian":[1.1563337E1,8.626243E0,2.9370947E0,6.419706E0,2.2065365E0,1.1483399E0,1.7887548E0,1.150101E0,5.269605E0],"tree_param":{"num_deleted":"0","num_feature":"12","num_nodes":"9","size_leaf_vector":"1"}},{"base_weights":[4.4778675E-2,3.674796E-1,-2.2203276E-1,8.7380946E-2,-2.56597E-1,-9.086963E-2,3.704078E-1,3.5814025E-2,-8.308885E-2,7.53749E-2,-4.4947445E-2],"categories":[],"categories_nodes":[],"categories_segments":[],"categories_sizes":[],"default_left":[0,0,0,0,0,0,0,0,0,0,0],"id":12,"left_children":[1,3,5,-1,7,-1,9,-1,-1,-1,-1],"loss_changes":[1.1939607E0,2.1909106E0,3.4671772E0,0E0,1.5546813E0,0E0,1.8604825E0,0E0,0E0,0E0,0E0],"parents":[2147483647,0,0,1,1,2,2,4,4,6,6],"right_children":[2,4,6,-1,8,-1,10,-1,-1,-1,-1],"split_conditions":[3.1744E-1,6.773205E-1,1.6336986E-1,8.7380946E-2,9E1,-9.086963E-2,2.7285483E-1,3.5814025E-2,-8.308885E-2,7.53749E-2,-4.4947445E-2],"split_indices":[1,4,5,0,6,0,5,0,0,0,0],"split_type":[0,0,0,0,0,0,0,0,0,0,0],"sum_hessian":[1.1919446E1,5.2239385E0,6.695507E0,2.6631172E0,2.5608213E0,2.8538992E0,3.841608E0,1.4186447E0,1.1421766E0,2.6726537E0,1.1689545E0],"tree_param":{"num_deleted":"0","num_feature":"12","num_nodes":"11","size_leaf_vector":"1"}},{"base_weights":[6.821973E-2,-1.2418945E-1,5.6626236E-1,-5.227749E-1,1.7952286E-1,9.789516E-2,-2.6992438E-2,-8.99901E-2,3.2104507E-2,5.8242656E-2,-3.4266334E-2],"categories":[],"categories_nodes":[],"categories_segments":[],"categories_sizes":[],"default_left":[0,0,0,0,0,0,0,0,0,0,0],"id":13,"left_children":[1,3,5,7,9,-1,-1,-1,-1,-1,-1],"loss_changes":[1.3194255E0,1.3313416E0,1.5798123E0,1.7770662E0,1.5768197E0,0E0,0E0,0E0,0E0,0E0,0E0],"parents":[2147483647,0,0,1,1,2,2,3,3,4,4],"right_children":[2,4,6,8,10,-1,-1,-1,-1,-1,-1],"split_conditions":[2.37E2,-4.292264E-3,1.3802717E-2,2.6336077E-1,1.3128522E-1,9.789516E-2,-2.6992438E-2,-8.99901E-2,3.2104507E-2,5.8242656E-2,-3.4266334E-2],"split_indices":[6,11,11,3,2,0,0,0,0,0,0],"split_type":[0,0,0,0,0,0,0,0,0,0,0],"sum_hessian":[1.2034834E1,9.222531E0,2.8123026E0,3.676409E0,5.546122E0,1.7686665E0,1.043636E0,2.4949064E0,1.1815026E0,3.0655055E0,2.4806168E0],"tree_param":{"num_deleted":"0","num_feature":"12","num_nodes":"11","size_leaf_vector":"1"}},{"base_weights":[-5.9088044E-2,3.1971622E-1,-4.7184247E-1,-2.6294896E-1,6.837101E-1,3.8394175E-2,-7.696879E-1,-5.8356922E-2,1.2814097E-2,8.889421E-3,1.1119814E-1,-9.800285E-2,-7.839191E-3],"categories":[],"categories_nodes":[],"categories_segments":[],"categories_sizes":[],"default_left":[0,0,0,0,0,0,0,0,0,0,0,0,0],"id":14,"left_children":[1,3,5,7,9,-1,11,-1,-1,-1,-1,-1,-1],"loss_changes":[2.1594744E0,1.7269378E0,1.9654996E0,5.170549E-1,1.1157053E0,0E0,6.782787E-1,0E0,0E0,0E0,0E0,0E0,0E0],"parents":[2147483647,0,0,1,1,2,2,3,3,4,4,6,6],"right_children":[2,4,6,8,10,-1,12,-1,-1,-1,-1,-1,-1],"split_conditions":[6.7499815E-3,2.3130657E-1,1.8936884E-1,7.263969E-3,7.9E1,3.8394175E-2,8.7E1,-5.8356922E-2,1.2814097E-2,8.889421E-3,1.1119814E-1,-9.800285E-2,-7.839191E-3],"split_indices":[11,3,0,9,6,0,6,0,0,0,0,0,0],"split_type":[0,0,0,0,0,0,0,0,0,0,0,0,0],"sum_hessian":[1.1846681E1,6.294932E0,5.5517488E0,2.5271628E0,3.7677693E0,1.3587259E0,4.1930227E0,1.1182483E0,1.4089146E0,2.0827093E0,1.68506E0,2.894611E0,1.2984118E0],"tree_param":{"num_deleted":"0","num_feature":"12","num_nodes":"13","size_leaf_vector":"1"}},{"base_weights":[2.5157029E-2,2.5878745E-1,-6.0688484E-1,-2.637231E-1,6.7396325E-1,-7.939591E-2,-2.359815E-2,4.5991864E-2,-9.844011E-2,9.0125546E-2,6.8250927E-3],"categories":[],"categories_nodes":[],"categories_segments":[],"categories_sizes":[],"default_left":[0,0,0,0,0,0,0,0,0,0,0],"id":15,"left_children":[1,3,5,7,9,-1,-1,-1,-1,-1,-1],"loss_changes":[2.0705955E0,2.382317E0,7.605147E-2,3.1741743E0,7.568357E-1,0E0,0E0,0E0,0E0,0E0,0E0],"parents":[2147483647,0,0,1,1,2,2,3,3,4,4],"right_children":[2,4,6,8,10,-1,-1,-1,-1,-1,-1],"split_conditions":[2.3641659E-2,7.9E1,4.8425887E-2,7.3E1,6.401104E-3,-7.939591E-2,-2.359815E-2,4.5991864E-2,-9.844011E-2,9.0125546E-2,6.8250927E-3],"split_indices":[10,6,10,6,10,0,0,0,0,0,0],"split_type":[0,0,0,0,0,0,0,0,0,0,0],"sum_hessian":[1.1958736E1,9.162447E0,2.7962892E0,4.218339E0,4.944108E0,1.1005771E0,1.6957121E0,2.2853827E0,1.9329561E0,3.2402754E0,1.7038326E0],"tree_param":{"num_deleted":"0","num_feature":"12","num_nodes":"11","size_leaf_vector":"1"}},{"base_weights":[5.5151206E-2,4.5101622E-1,-4.9154016E-1,-3.9550275E-2,7.4737126E-1,3.9098393E-2,-8.242672E-1,9.3670316E-2,-3.8723778E-3,-1.9477231E-2,-9.961731E-2],"categories":[],"categories_nodes":[],"categories_segments":[],"categories_sizes":[],"default_left":[0,0,0,0,0,0,0,0,0,0,0],"id":16,"left_children":[1,3,5,-1,7,-1,9,-1,-1,-1,-1],"loss_changes":[2.7496274E0,2.126069E0,1.9033417E0,0E0,8.9214325E-1,0E0,2.6392388E-1,0E0,0E0,0E0,0E0],"parents":[2147483647,0,0,1,1,2,2,4,4,6,6],"right_children":[2,4,6,-1,8,-1,10,-1,-1,-1,-1],"split_conditions":[1.282572E-1,7.125159E-2,5.576712E-1,-3.9550275E-2,2.99198E-2,3.9098393E-2,-5.4377536E-3,9.3670316E-2,-3.8723778E-3,-1.9477231E-2,-9.961731E-2],"split_indices":[2,2,4,0,10,0,5,0,0,0,0],"split_type":[0,0,0,0,0,0,0,0,0,0,0],"sum_hessian":[1.0680906E1,6.29653E0,4.3843765E0,1.5459805E0,4.7505493E0,1.1524727E0,3.2319038E0,3.6740582E0,1.0764912E0,1.1508118E0,2.081092E0],"tree_param":{"num_deleted":"0","num_feature":"12","num_nodes":"11","size_leaf_vector":"1"}},{"base_weights":[5.8010933E-3,-4.166549E-1,2.814022E-1,1.310497E-1,-9.354729E-2,5.350352E-1,-4.0148083E-2,6.773062E-2,-4.7128193E-2,7.191115E-2,2.7739755E-3],"categories":[],"categories_nodes":[],"categories_segments":[],"categories_sizes":[],"default_left":[0,0,0,0,0,0,0,0,0,0,0],"id":17,"left_children":[1,3,5,7,-1,9,-1,-1,-1,-1,-1],"loss_changes":[1.5637459E0,1.6309652E0,1.620448E0,1.457419E0,0E0,5.7268596E-1,0E0,0E0,0E0,0E0,0E0],"parents":[2147483647,0,0,1,1,2,2,3,3,5,5],"right_children":[2,4,6,8,-1,10,-1,-1,-1,-1,-1],"split_conditions":[7.9E1,7.3E1,2.99198E-2,1.4357601E-2,-9.354729E-2,2.6666668E-1,-4.0148083E-2,6.773062E-2,-4.7128193E-2,7.191115E-2,2.7739755E-3],"split_indices":[6,6,10,9,0,7,0,0,0,0,0],"split_type":[0,0,0,0,0,0,0,0,0,0,0],"sum_hessian":[1.1423829E1,4.308195E0,7.115634E0,2.459336E0,1.848859E0,5.346404E0,1.7692295E0,1.2244262E0,1.2349099E0,3.6165645E0,1.7298397E0],"tree_param":{"num_deleted":"0","num_feature":"12","num_nodes":"11","size_leaf_vector":"1"}},{"base_weights":[-1.1900889E-1,2.666314E-1,-6.116831E-1,5.3822535E-1,-5.2814692E-2,-1.0499231E-1,2.367176E-3,8.4727205E-2,-4.2605232E-2,4.5710824E-2,-4.4094674E-2],"categories":[],"categories_nodes":[],"categories_segments":[],"categories_sizes":[],"default_left":[0,0,0,0,0,0,0,0,0,0,0],"id":18,"left_children":[1,3,5,7,-1,-1,9,-1,-1,-1,-1],"loss_changes":[2.383484E0,1.8496125E0,1.464992E0,2.1192555E0,0E0,0E0,8.5898244E-1,0E0,0E0,0E0,0E0],"parents":[2147483647,0,0,1,1,2,2,3,3,6,6],"right_children":[2,4,6,8,-1,-1,10,-1,-1,-1,-1],"split_conditions":[1.3128522E-1,2.7285483E-1,1.4632078E-3,1.8771838E-2,-5.2814692E-2,-1.0499231E-1,5.839143E-1,8.4727205E-2,-4.2605232E-2,4.5710824E-2,-4.4094674E-2],"split_indices":[2,5,10,9,0,0,4,0,0,0,0],"split_type":[0,0,0,0,0,0,0,0,0,0,0],"sum_hessian":[1.0686571E1,6.2517934E0,4.434778E0,4.900111E0,1.3516823E0,2.173643E0,2.2611349E0,3.8027022E0,1.0974088E0,1.1008215E0,1.1603135E0],"tree_param":{"num_deleted":"0","num_feature":"12","num_nodes":"11","size_leaf_vector":"1"}},{"base_weights":[-1.503878E-1,-3.408197E-1,4.8026215E-2,-5.841465E-1,4.3157928E-2,-9.186908E-2,-9.281504E-3],"categories":[],"categories_nodes":[],"categories_segments":[],"categories_sizes":[],"default_left":[0,0,0,0,0,0,0],"id":19,"left_children":[1,3,-1,5,-1,-1,-1],"loss_changes":[1.5665221E0,2.048254E0,0E0,1.1791222E0,0E0,0E0,0E0],"parents":[2147483647,0,0,1,1,3,3],"right_children":[2,4,-1,6,-1,-1,-1],"split_conditions":[1.520678E-1,2.37E2,4.8026215E-2,1.3792954E-2,4.3157928E-2,-9.186908E-2,-9.281504E-3],"split_indices":[2,6,0,9,0,0,0],"split_type":[0,0,0,0,0,0,0],"sum_hessian":[1.0680996E1,8.55676E0,2.1242363E0,6.692244E0,1.8645155E0,3.4638994E0,3.2283447E0],"tree_param":{"num_deleted":"0","num_feature":"12","num_nodes":"7","size_leaf_vector":"1"}},{"base_weights":[-3.780666E-2,2.9065493E-1,-3.6831313E-1,-3.6986458E-1,7.484212E-1,2.0807241E-1,-8.610453E-2,-6.868938E-2,1.8313002E-2,2.6113888E-2,9.296881E-2,-3.96895E-2,5.7209134E-2],"categories":[],"categories_nodes":[],"categories_segments":[],"categories_sizes":[],"default_left":[0,0,0,0,0,0,0,0,0,0,0,0,0],"id":20,"left_children":[1,3,5,7,9,11,-1,-1,-1,-1,-1,-1,-1],"loss_changes":[1.4806187E0,2.3646154E0,2.0955663E0,7.38653E-1,1.4667559E-1,1.0892855E0,0E0,0E0,0E0,0E0,0E0,0E0,0E0],"parents":[2147483647,0,0,1,1,2,2,3,3,4,4,5,5],"right_children":[2,4,6,8,10,12,-1,-1,-1,-1,-1,-1,-1],"split_conditions":[6.7499815E-3,2.3130657E-1,2.0481108E-1,3.4201974E-1,2.1055451E-1,1.3918787E-2,-8.610453E-2,-6.868938E-2,1.8313002E-2,2.6113888E-2,9.296881E-2,-3.96895E-2,5.7209134E-2],"split_indices":[11,3,3,1,0,9,0,0,0,0,0,0,0],"split_type":[0,0,0,0,0,0,0,0,0,0,0,0,0],"sum_hessian":[1.1652758E1,5.904935E0,5.7478228E0,2.495768E0,3.4091668E0,2.915298E0,2.8325248E0,1.4324285E0,1.0633395E0,1.5860832E0,1.8230836E0,1.0612612E0,1.8540367E0],"tree_param":{"num_deleted":"0","num_feature":"12","num_nodes":"13","size_leaf_vector":"1"}},{"base_weights":[5.1623743E-2,-6.734093E-2,2.1999155E-1,-6.73938E-2,7.3215276E-1,3.5212975E-2,-4.3257426E-2,8.8534E-2,1.6284402E-2],"categories":[],"categories_nodes":[],"categories_segments":[],"categories_sizes":[],"default_left":[0,0,0,0,0,0,0,0,0],"id":21,"left_children":[1,-1,3,5,7,-1,-1,-1,-1],"loss_changes":[1.6071261E0,0E0,1.5879169E0,1.3184375E0,1.9085002E-1,0E0,0E0,0E0,0E0],"parents":[2147483647,0,0,2,2,3,3,4,4],"right_children":[2,-1,4,6,8,-1,-1,-1,-1],"split_conditions":[3.7037037E-2,-6.734093E-2,1.52E2,3.1744E-1,1.9431965E-2,3.5212975E-2,-4.3257426E-2,8.8534E-2,1.6284402E-2],"split_indices":[8,0,6,1,10,0,0,0,0],"split_type":[0,0,0,0,0,0,0,0,0],"sum_hessian":[1.0951792E1,1.4986417E0,9.453151E0,6.611628E0,2.8415225E0,3.093508E0,3.51812E0,1.8016326E0,1.0398898E0],"tree_param":{"num_deleted":"0","num_feature":"12","num_nodes":"9","size_leaf_vector":"1"}},{"base_weights":[5.2683115E-2,-3.3125395E-1,2.7376276E-1,2.4214996E-1,-8.622892E-2,8.471216E-2,-8.853764E-2,5.3690205E-4,3.5427924E-2,-4.0937345E-2,3.6643777E-2],"categories":[],"categories_nodes":[],"categories_segments":[],"categories_sizes":[],"default_left":[0,0,0,0,0,0,0,0,0,0,0],"id":22,"left_children":[1,3,5,7,-1,-1,9,-1,-1,-1,-1],"loss_changes":[1.1317319E0,1.7112525E0,1.8055104E0,8.1815585E-2,0E0,0E0,1.0273439E0,0E0,0E0,0E0,0E0],"parents":[2147483647,0,0,1,1,2,2,3,3,6,6],"right_children":[2,4,6,8,-1,-1,10,-1,-1,-1,-1],"split_conditions":[7.9E1,7.3E1,-2.119268E-3,-4.214539E-3,-8.622892E-2,8.471216E-2,2.3130657E-1,5.3690205E-4,3.5427924E-2,-4.0937345E-2,3.6643777E-2],"split_indices":[6,6,10,10,0,0,3,0,0,0,0],"split_type":[0,0,0,0,0,0,0,0,0,0,0],"sum_hessian":[1.1264829E1,3.9341888E0,7.33064E0,2.1531997E0,1.7809889E0,2.3203666E0,5.010273E0,1.0287318E0,1.124468E0,2.9970603E0,2.0132127E0],"tree_param":{"num_deleted":"0","num_feature":"12","num_nodes":"11","size_leaf_vector":"1"}},{"base_weights":[-1.0012192E-1,-5.3832376E-1,1.16217256E-1,-8.071412E-2,-1.2225201E-2,6.168564E-1,-2.2467533E-1,8.95149E-2,1.1512945E-2,2.2757057E-2,-7.072973E-2],"categories":[],"categories_nodes":[],"categories_segments":[],"categories_sizes":[],"default_left":[0,0,0,0,0,0,0,0,0,0,0],"id":23,"left_children":[1,3,5,-1,-1,7,9,-1,-1,-1,-1],"loss_changes":[1.2092744E0,3.6835063E-1,1.6610068E0,0E0,0E0,4.3877316E-1,1.4792657E0,0E0,0E0,0E0,0E0],"parents":[2147483647,0,0,1,1,2,2,5,5,6,6],"right_children":[2,4,6,-1,-1,8,10,-1,-1,-1,-1],"split_conditions":[-4.292264E-3,7.9E1,1.0574841E-2,-8.071412E-2,-1.2225201E-2,3.367329E-1,1.10073835E-1,8.95149E-2,1.1512945E-2,2.2757057E-2,-7.072973E-2],"split_indices":[11,6,11,0,0,1,2,0,0,0,0],"split_type":[0,0,0,0,0,0,0,0,0,0,0],"sum_hessian":[1.1096087E1,3.175559E0,7.920528E0,1.3581629E0,1.8173962E0,2.8805633E0,5.0399647E0,1.3484714E0,1.532092E0,2.8746834E0,2.1652813E0],"tree_param":{"num_deleted":"0","num_feature":"12","num_nodes":"11","size_leaf_vector":"1"}},{"base_weights":[1.4049996E-1,4.5703435E-1,-1.7743897E-1,-2.549672E-2,8.728904E-2,-6.2183386E-1,3.452782E-1,-8.853673E-3,-8.654794E-2,-1.0675075E-2,7.0821874E-2],"categories":[],"categories_nodes":[],"categories_segments":[],"categories_sizes":[],"default_left":[0,0,0,0,0,0,0,0,0,0,0],"id":24,"left_children":[1,3,5,-1,-1,7,9,-1,-1,-1,-1],"loss_changes":[1.1720016E0,1.9137009E0,1.6382557E0,0E0,0E0,4.0014517E-1,6.4307797E-1,0E0,0E0,0E0,0E0],"parents":[2147483647,0,0,1,1,2,2,5,5,6,6],"right_children":[2,4,6,-1,-1,8,10,-1,-1,-1,-1],"split_conditions":[3.1744E-1,2.9649982E-1,3.4323367E-1,-2.549672E-2,8.728904E-2,6.401104E-3,9.0083085E-2,-8.853673E-3,-8.654794E-2,-1.0675075E-2,7.0821874E-2],"split_indices":[1,1,1,0,0,10,2,0,0,0,0],"split_type":[0,0,0,0,0,0,0,0,0,0,0],"sum_hessian":[9.839835E0,4.7115793E0,5.128256E0,1.8798717E0,2.8317075E0,2.6692986E0,2.4589574E0,1.26463E0,1.4046687E0,1.4094331E0,1.0495242E0],"tree_param":{"num_deleted":"0","num_feature":"12","num_nodes":"11","size_leaf_vector":"1"}},{"base_weights":[1.9600866E-2,1.9155562E-1,-7.724579E-2,4.5892516E-1,-1.634636E-1,-6.2888847E-3,7.64164E-2,-5.5767383E-2,3.256259E-2],"categories":[],"categories_nodes":[],"categories_segments":[],"categories_sizes":[],"default_left":[0,0,0,0,0,0,0,0,0],"id":25,"left_children":[1,3,-1,5,7,-1,-1,-1,-1],"loss_changes":[1.6554828E0,1.0143104E0,0E0,9.889376E-1,1.143362E0,0E0,0E0,0E0,0E0],"parents":[2147483647,0,0,1,1,3,3,4,4],"right_children":[2,4,-1,6,8,-1,-1,-1,-1],"split_conditions":[3.678161E-1,6.7499815E-3,-7.724579E-2,2.0987654E-1,8.7E1,-6.2888847E-3,7.64164E-2,-5.5767383E-2,3.256259E-2],"split_indices":[7,11,0,7,6,0,0,0,0],"split_type":[0,0,0,0,0,0,0,0,0],"sum_hessian":[1.0068528E1,8.895486E0,1.1730419E0,4.907162E0,3.9883237E0,2.104106E0,2.8030565E0,2.1307185E0,1.8576052E0],"tree_param":{"num_deleted":"0","num_feature":"12","num_nodes":"9","size_leaf_vector":"1"}},{"base_weights":[-7.086641E-2,-2.8840917E-1,5.651273E-1,2.5061932E-1,-7.549507E-2,6.884627E-2,1.5630167E-2,-3.3606388E-2,8.112144E-2],"categories":[],"categories_nodes":[],"categories_segments":[],"categories_sizes":[],"default_left":[0,0,0,0,0,0,0,0,0],"id":26,"left_children":[1,3,5,7,-1,-1,-1,-1,-1],"loss_changes":[1.6984097E0,2.4352295E0,5.20494E-2,1.8823764E0,0E0,0E0,0E0,0E0,0E0],"parents":[2147483647,0,0,1,1,2,2,3,3],"right_children":[2,4,6,8,-1,-1,-1,-1,-1],"split_conditions":[2.37E2,3.1744E-1,1.5127236E-2,1.9200438E-1,-7.549507E-2,6.884627E-2,1.5630167E-2,-3.3606388E-2,8.112144E-2],"split_indices":[6,1,9,0,0,0,0,0,0],"split_type":[0,0,0,0,0,0,0,0,0],"sum_hessian":[1.00976305E1,7.931254E0,2.166377E0,3.894489E0,4.0367646E0,1.138816E0,1.0275611E0,2.0986733E0,1.7958157E0],"tree_param":{"num_deleted":"0","num_feature":"12","num_nodes":"9","size_leaf_vector":"1"}},{"base_weights":[4.9255032E-2,4.823829E-1,-2.4096854E-1,-1.4684353E-3,6.416621E-2,1.14337794E-1,-7.275366E-2,-3.710865E-2,6.711103E-2],"categories":[],"categories_nodes":[],"categories_segments":[],"categories_sizes":[],"default_left":[0,0,0,0,0,0,0,0,0],"id":27,"left_children":[1,3,5,-1,-1,7,-1,-1,-1],"loss_changes":[1.5352638E0,3.9438748E-1,1.3670434E0,0E0,0E0,1.6426264E0,0E0,0E0,0E0],"parents":[2147483647,0,0,1,1,2,2,5,5],"right_children":[2,4,6,-1,-1,8,-1,-1,-1],"split_conditions":[1.1212374E-1,-4.292264E-3,1.0574841E-2,-1.4684353E-3,6.416621E-2,-6.027265E-3,-7.275366E-2,-3.710865E-2,6.711103E-2],"split_indices":[2,11,11,0,0,11,0,0,0],"split_type":[0,0,0,0,0,0,0,0,0],"sum_hessian":[1.0288629E1,3.8623595E0,6.426269E0,1.1576028E0,2.7047567E0,4.156258E0,2.270011E0,2.3985646E0,1.7576935E0],"tree_param":{"num_deleted":"0","num_feature":"12","num_nodes":"9","size_leaf_vector":"1"}},{"base_weights":[-6.991092E-2,5.949254E-2,-3.1433958E-1,-8.561388E-2,2.7669458E-2,6.164837E-2,-3.0659987E-2],"categories":[],"categories_nodes":[],"categories_segments":[],"categories_sizes":[],"default_left":[0,0,0,0,0,0,0],"id":28,"left_children":[1,-1,3,-1,5,-1,-1],"loss_changes":[1.805938E0,0E0,1.4947042E0,0E0,1.3375218E0,0E0,0E0],"parents":[2147483647,0,0,2,2,4,4],"right_children":[2,-1,4,-1,6,-1,-1],"split_conditions":[1.9178082E-1,5.949254E-2,2.4731183E-1,-8.561388E-2,2.768575E-1,6.164837E-2,-3.0659987E-2],"split_indices":[7,0,7,0,0,0,0],"split_type":[0,0,0,0,0,0,0],"sum_hessian":[8.962333E0,2.023782E0,6.9385505E0,2.1033037E0,4.8352466E0,1.4452214E0,3.3900251E0],"tree_param":{"num_deleted":"0","num_feature":"12","num_nodes":"7","size_leaf_vector":"1"}},{"base_weights":[-6.677637E-2,1.2118917E-1,-7.826573E-2,-2.1198751E-1,5.7142836E-1,4.234241E-2,-4.290509E-2,7.81772E-2,-4.5417016E-3],"categories":[],"categories_nodes":[],"categories_segments":[],"categories_sizes":[],"default_left":[0,0,0,0,0,0,0,0,0],"id":29,"left_children":[1,3,-1,5,7,-1,-1,-1,-1],"loss_changes":[1.5762745E0,1.5590822E0,0E0,1.0421054E0,5.9956276E-1,0E0,0E0,0E0,0E0],"parents":[2147483647,0,0,1,1,3,3,4,4],"right_children":[2,4,-1,6,8,-1,-1,-1,-1],"split_conditions":[2.99198E-2,8.7E1,-7.826573E-2,5.342949E-1,1.8129818E-1,4.234241E-2,-4.290509E-2,7.81772E-2,-4.5417016E-3],"split_indices":[10,6,0,4,5,0,0,0,0],"split_type":[0,0,0,0,0,0,0,0,0],"sum_hessian":[1.0009323E1,8.585723E0,1.4236003E0,5.2384443E0,3.3472784E0,1.0917783E0,4.146666E0,2.2967262E0,1.0505522E0],"tree_param":{"num_deleted":"0","num_feature":"12","num_nodes":"9","size_leaf_vector":"1"}},{"base_weights":[1.6815995E-1,3.2152602E-1,-2.131447E-1,5.233949E-1,-7.685622E-2,2.8800828E-2,-6.838678E-2,8.0192134E-2,-1.6085023E-2,-3.4533713E-2,2.0901425E-2],"categories":[],"categories_nodes":[],"categories_segments":[],"categories_sizes":[],"default_left":[0,0,0,0,0,0,0,0,0,0,0],"id":30,"left_children":[1,3,5,7,9,-1,-1,-1,-1,-1,-1],"loss_changes":[6.6243833E-1,6.5475327E-1,1.0260408E0,1.1199247E0,3.3634207E-1,0E0,0E0,0E0,0E0,0E0,0E0],"parents":[2147483647,0,0,1,1,2,2,3,3,4,4],"right_children":[2,4,6,8,10,-1,-1,-1,-1,-1,-1],"split_conditions":[1.9398903E-2,6.4465344E-1,2.4590433E-1,3.5488495E-1,1.9200438E-1,2.8800828E-2,-6.838678E-2,8.0192134E-2,-1.6085023E-2,-3.4533713E-2,2.0901425E-2],"split_indices":[9,4,0,0,0,0,0,0,0,0,0],"split_type":[0,0,0,0,0,0,0,0,0,0,0],"sum_hessian":[9.155863E0,6.641381E0,2.5144825E0,4.1995683E0,2.4418123E0,1.4058785E0,1.108604E0,2.8624215E0,1.3371469E0,1.1519324E0,1.2898798E0],"tree_param":{"num_deleted":"0","num_feature":"12","num_nodes":"11","size_leaf_vector":"1"}},{"base_weights":[9.083755E-3,-1.6523843E-1,5.981297E-2,3.112554E-1,-5.255568E-1,-3.405355E-2,9.448701E-2,-6.648614E-2,3.6799528E-3],"categories":[],"categories_nodes":[],"categories_segments":[],"categories_sizes":[],"default_left":[0,0,0,0,0,0,0,0,0],"id":31,"left_children":[1,3,-1,5,7,-1,-1,-1,-1],"loss_changes":[1.2490255E0,1.782085E0,0E0,2.2574732E0,4.7411454E-1,0E0,0E0,0E0,0E0],"parents":[2147483647,0,0,1,1,3,3,4,4],"right_children":[2,4,-1,6,8,-1,-1,-1,-1],"split_conditions":[2.37E2,3.1744E-1,5.981297E-2,1.920293E-1,3.7322524E-1,-3.405355E-2,9.448701E-2,-6.648614E-2,3.6799528E-3],"split_indices":[6,1,0,0,0,0,0,0,0],"split_type":[0,0,0,0,0,0,0,0,0],"sum_hessian":[1.0201296E1,8.426916E0,1.7743795E0,3.6871305E0,4.739786E0,2.0455017E0,1.6416289E0,3.652681E0,1.0871049E0],"tree_param":{"num_deleted":"0","num_feature":"12","num_nodes":"9","size_leaf_vector":"1"}},{"base_weights":[7.3902294E-2,3.5668147E-1,-2.0512684E-1,-3.8107216E-2,6.5621233E-1,2.164233E-1,-8.021676E-2,1.573749E-2,8.969661E-2,-3.8362604E-2,6.808401E-2],"categories":[],"categories_nodes":[],"categories_segments":[],"categories_sizes":[],"default_left":[0,0,0,0,0,0,0,0,0,0,0],"id":32,"left_children":[1,3,5,-1,7,9,-1,-1,-1,-1,-1],"loss_changes":[8.6838365E-1,1.436873E0,1.6101351E0,0E0,3.617077E-1,1.4129591E0,0E0,0E0,0E0,0E0,0E0],"parents":[2147483647,0,0,1,1,2,2,4,4,5,5],"right_children":[2,4,6,-1,8,10,-1,-1,-1,-1,-1],"split_conditions":[1.1212374E-1,1.4153743E-1,1.0574841E-2,-3.8107216E-2,1.16284285E-2,1.5181454E-1,-8.021676E-2,1.573749E-2,8.969661E-2,-3.8362604E-2,6.808401E-2],"split_indices":[2,3,11,0,11,2,0,0,0,0,0],"split_type":[0,0,0,0,0,0,0,0,0,0,0],"sum_hessian":[9.078355E0,4.3706603E0,4.7076945E0,1.183481E0,3.1871793E0,3.1330566E0,1.5746381E0,1.5758085E0,1.6113708E0,1.4428216E0,1.6902349E0],"tree_param":{"num_deleted":"0","num_feature":"12","num_nodes":"11","size_leaf_vector":"1"}},{"base_weights":[-4.199503E-2,-5.9167814E-2,8.6695135E-2,3.7581545E-1,-1.657709E-1,-4.905168E-2,7.5411774E-2,-6.4400926E-2,2.5397254E-2],"categories":[],"categories_nodes":[],"categories_segments":[],"categories_sizes":[],"default_left":[0,0,0,0,0,0,0,0,0],"id":33,"left_children":[1,-1,3,5,7,-1,-1,-1,-1],"loss_changes":[8.0926865E-1,0E0,7.597186E-1,1.9299474E0,1.3267416E0,0E0,0E0,0E0,0E0],"parents":[2147483647,0,0,2,2,3,3,4,4],"right_children":[2,-1,4,6,8,-1,-1,-1,-1],"split_conditions":[3.7037037E-2,-5.9167814E-2,1.2249174E-1,7.263969E-3,1.5204827E-1,-4.905168E-2,7.5411774E-2,-6.4400926E-2,2.5397254E-2],"split_indices":[8,0,2,9,2,0,0,0,0],"split_type":[0,0,0,0,0,0,0,0,0],"sum_hessian":[9.715094E0,1.1604954E0,8.554598E0,3.7600584E0,4.79454E0,1.052698E0,2.7073603E0,1.9913665E0,2.8031735E0],"tree_param":{"num_deleted":"0","num_feature":"12","num_nodes":"9","size_leaf_vector":"1"}},{"base_weights":[-9.821536E-2,-3.164309E-1,3.7916368E-1,5.805962E-2,-5.7815754E-1,6.893032E-2,-8.030493E-3,-4.543225E-2,6.1463494E-2,-7.766704E-2,-1.6949009E-3],"categories":[],"categories_nodes":[],"categories_segments":[],"categories_sizes":[],"default_left":[0,0,0,0,0,0,0,0,0,0,0],"id":34,"left_children":[1,3,5,7,9,-1,-1,-1,-1,-1,-1],"loss_changes":[1.1227667E0,7.345184E-1,5.505091E-1,1.3773918E0,4.6597517E-1,0E0,0E0,0E0,0E0,0E0,0E0],"parents":[2147483647,0,0,1,1,2,2,3,3,4,4],"right_children":[2,4,6,8,10,-1,-1,-1,-1,-1,-1],"split_conditions":[1.52E2,3.1744E-1,2.99198E-2,2.973764E-1,3.7815893E-1,6.893032E-2,-8.030493E-3,-4.543225E-2,6.1463494E-2,-7.766704E-2,-1.6949009E-3],"split_indices":[6,1,10,1,1,0,0,0,0,0,0],"split_type":[0,0,0,0,0,0,0,0,0,0,0],"sum_hessian":[8.626311E0,6.1515265E0,2.474785E0,2.8507335E0,3.3007932E0,1.1788486E0,1.2959365E0,1.5799513E0,1.2707821E0,2.1546998E0,1.1460932E0],"tree_param":{"num_deleted":"0","num_feature":"12","num_nodes":"11","size_leaf_vector":"1"}},{"base_weights":[5.5975743E-2,2.1986973E-1,-6.865602E-2,5.3643286E-1,-1.2904523E-1,-1.6405203E-3,7.423308E-2,1.4140653E-2,-5.6671467E-2],"categories":[],"categories_nodes":[],"categories_segments":[],"categories_sizes":[],"default_left":[0,0,0,0,0,0,0,0,0],"id":35,"left_children":[1,3,-1,5,7,-1,-1,-1,-1],"loss_changes":[1.366261E0,1.0564699E0,0E0,5.6768525E-1,6.788302E-1,0E0,0E0,0E0,0E0],"parents":[2147483647,0,0,1,1,3,3,4,4],"right_children":[2,4,-1,6,8,-1,-1,-1,-1],"split_conditions":[3.678161E-1,1.5127236E-2,-6.865602E-2,7.1504023E-3,2.4590433E-1,-1.6405203E-3,7.423308E-2,1.4140653E-2,-5.6671467E-2],"split_indices":[7,9,0,9,0,0,0,0,0],"split_type":[0,0,0,0,0,0,0,0,0],"sum_hessian":[8.986322E0,7.9381022E0,1.0482202E0,3.880225E0,4.057877E0,1.3027228E0,2.577502E0,2.9264362E0,1.1314409E0],"tree_param":{"num_deleted":"0","num_feature":"12","num_nodes":"9","size_leaf_vector":"1"}},{"base_weights":[1.5718676E-1,4.6313316E-1,-6.0705703E-2,7.767395E-2,1.6739477E-1,-3.954938E-2,4.8772562E-2],"categories":[],"categories_nodes":[],"categories_segments":[],"categories_sizes":[],"default_left":[0,0,0,0,0,0,0],"id":36,"left_children":[1,3,-1,-1,5,-1,-1],"loss_changes":[2.3670707E0,5.1344645E-1,0E0,0E0,1.0665767E0,0E0,0E0],"parents":[2147483647,0,0,1,1,4,4],"right_children":[2,4,-1,-1,6,-1,-1],"split_conditions":[1.9398903E-2,1.9773936E-1,-6.0705703E-2,7.767395E-2,2.3130657E-1,-3.954938E-2,4.8772562E-2],"split_indices":[9,3,0,0,3,0,0],"split_type":[0,0,0,0,0,0,0],"sum_hessian":[7.92115E0,5.9380107E0,1.9831396E0,2.0925703E0,3.8454404E0,1.3095843E0,2.5358562E0],"tree_param":{"num_deleted":"0","num_feature":"12","num_nodes":"7","size_leaf_vector":"1"}},{"base_weights":[1.070179E-1,2.3847479E-1,-3.349296E-2,-3.6643762E-2,4.1739985E-1,-2.0179546E-2,6.821874E-2],"categories":[],"categories_nodes":[],"categories_segments":[],"categories_sizes":[],"default_left":[0,0,0,0,0,0,0],"id":37,"left_children":[1,3,-1,-1,5,-1,-1],"loss_changes":[6.6435134E-1,1.0554152E0,0E0,0E0,1.2693233E0,0E0,0E0],"parents":[2147483647,0,0,1,1,4,4],"right_children":[2,4,-1,-1,6,-1,-1],"split_conditions":[3.5488495E-1,1.4942528E-1,-3.349296E-2,-3.6643762E-2,7.9E1,-2.0179546E-2,6.821874E-2],"split_indices":[0,7,0,0,6,0,0],"split_type":[0,0,0,0,0,0,0],"sum_hessian":[9.060392E0,7.3380857E0,1.7223068E0,1.4358269E0,5.902259E0,1.8392175E0,4.063041E0],"tree_param":{"num_deleted":"0","num_feature":"12","num_nodes":"7","size_leaf_vector":"1"}},{"base_weights":[4.0824365E-2,2.2787212E-1,-3.6636278E-1,3.8746753E-1,-3.3021268E-2,4.3147034E-3,-6.549199E-2,4.150518E-3,6.417145E-2],"categories":[],"categories_nodes":[],"categories_segments":[],"categories_sizes":[],"default_left":[0,0,0,0,0,0,0,0,0],"id":38,"left_children":[1,3,5,7,-1,-1,-1,-1,-1],"loss_changes":[8.0200225E-1,7.586279E-1,4.2447013E-1,4.9816883E-1,0E0,0E0,0E0,0E0,0E0],"parents":[2147483647,0,0,1,1,2,2,3,3],"right_children":[2,4,6,8,-1,-1,-1,-1,-1],"split_conditions":[1.8811086E-2,3.678161E-1,4.0222113E-3,6.666752E-3,-3.3021268E-2,4.3147034E-3,-6.549199E-2,4.150518E-3,6.417145E-2],"split_indices":[9,7,10,10,0,0,0,0,0],"split_type":[0,0,0,0,0,0,0,0,0],"sum_hessian":[8.433901E0,6.0809135E0,2.3529873E0,4.966394E0,1.1145196E0,1.3242013E0,1.028786E0,2.5964987E0,2.3698952E0],"tree_param":{"num_deleted":"0","num_feature":"12","num_nodes":"9","size_leaf_vector":"1"}},{"base_weights":[-1.2664595E-1,8.369954E-2,-7.8610085E-2,-4.472229E-1,3.6914948E-1,-1.1896242E-2,-5.661878E-2,6.7455366E-2,-1.2808888E-2],"categories":[],"categories_nodes":[],"categories_segments":[],"categories_sizes":[],"default_left":[0,0,0,0,0,0,0,0,0],"id":39,"left_children":[1,3,-1,5,7,-1,-1,-1,-1],"loss_changes":[1.3649004E0,1.378159E0,0E0,5.9599042E-2,9.601013E-1,0E0,0E0,0E0,0E0],"parents":[2147483647,0,0,1,1,3,3,4,4],"right_children":[2,4,-1,6,8,-1,-1,-1,-1],"split_conditions":[3.5488495E-1,1.920293E-1,-7.8610085E-2,1.2986545E-1,6.7499815E-3,-1.1896242E-2,-5.661878E-2,6.7455366E-2,-1.2808888E-2],"split_indices":[0,0,0,2,11,0,0,0,0],"split_type":[0,0,0,0,0,0,0,0,0],"sum_hessian":[8.365385E0,7.0043077E0,1.3610775E0,2.2509415E0,4.7533665E0,1.1307728E0,1.1201686E0,2.7238042E0,2.0295625E0],"tree_param":{"num_deleted":"0","num_feature":"12","num_nodes":"9","size_leaf_vector":"1"}},{"base_weights":[7.04316E-2,2.0244695E-1,-2.8854383E-2,4.2137262E-1,-4.1557524E-2,-1.8785667E-2,6.973283E-2,3.5880588E-2,-3.223264E-2],"categories":[],"categories_nodes":[],"categories_segments":[],"categories_sizes":[],"default_left":[0,0,0,0,0,0,0,0,0],"id":40,"left_children":[1,3,-1,5,7,-1,-1,-1,-1],"loss_changes":[4.9529815E-1,4.0895367E-1,0E0,7.954354E-1,6.0751635E-1,0E0,0E0,0E0,0E0],"parents":[2147483647,0,0,1,1,3,3,4,4],"right_children":[2,4,-1,6,8,-1,-1,-1,-1],"split_conditions":[2.5002161E-2,3.1744E-1,-2.8854383E-2,2.9613855E-1,7.3880577E-3,-1.8785667E-2,6.973283E-2,3.5880588E-2,-3.223264E-2],"split_indices":[9,1,0,1,9,0,0,0,0],"split_type":[0,0,0,0,0,0,0,0,0],"sum_hessian":[8.218841E0,6.3277974E0,1.891043E0,2.9521575E0,3.37564E0,1.0198587E0,1.9322989E0,1.2768996E0,2.09874E0],"tree_param":{"num_deleted":"0","num_feature":"12","num_nodes":"9","size_leaf_vector":"1"}},{"base_weights":[-9.37168E-2,-3.558802E-1,2.0359719E-1,-5.1505005E-1,1.3113684E-2,5.4582443E-2,-3.5923243E-2,4.4277287E-3,-7.1402E-2,-4.002056E-2,3.449355E-2],"categories":[],"categories_nodes":[],"categories_segments":[],"categories_sizes":[],"default_left":[0,0,0,0,0,0,0,0,0,0,0],"id":41,"left_children":[1,3,5,7,-1,-1,9,-1,-1,-1,-1],"loss_changes":[7.804738E-1,4.699434E-1,4.206506E-1,4.8960543E-1,0E0,0E0,6.6753286E-1,0E0,0E0,0E0,0E0],"parents":[2147483647,0,0,1,1,2,2,3,3,6,6],"right_children":[2,4,6,8,-1,-1,10,-1,-1,-1,-1],"split_conditions":[2.3130657E-1,1.96E2,1.3128522E-1,1.48226E-1,1.3113684E-2,5.4582443E-2,1.3768116E-1,4.4277287E-3,-7.1402E-2,-4.002056E-2,3.449355E-2],"split_indices":[3,6,2,3,0,0,8,0,0,0,0],"split_type":[0,0,0,0,0,0,0,0,0,0,0],"sum_hessian":[8.083572E0,4.1910415E0,3.892531E0,3.1153147E0,1.0757267E0,1.076131E0,2.8163998E0,1.0214286E0,2.0938861E0,1.4135627E0,1.4028372E0],"tree_param":{"num_deleted":"0","num_feature":"12","num_nodes":"11","size_leaf_vector":"1"}},{"base_weights":[-7.9870276E-2,3.7504975E-2,-4.8273966E-2,-2.9395816E-1,2.3684354E-1,2.2395998E-2,-6.5343656E-2,6.2346574E-2,-4.7165225E-3],"categories":[],"categories_nodes":[],"categories_segments":[],"categories_sizes":[],"default_left":[0,0,0,0,0,0,0,0,0],"id":42,"left_children":[1,3,-1,5,7,-1,-1,-1,-1],"loss_changes":[4.91467E-1,6.431276E-1,0E0,8.362989E-1,6.853736E-1,0E0,0E0,0E0,0E0],"parents":[2147483647,0,0,1,1,3,3,4,4],"right_children":[2,4,-1,6,8,-1,-1,-1,-1],"split_conditions":[3.5488495E-1,2.973764E-1,-4.8273966E-2,2.775057E-3,1.9773936E-1,2.2395998E-2,-6.5343656E-2,6.2346574E-2,-4.7165225E-3],"split_indices":[0,1,0,10,3,0,0,0,0],"split_type":[0,0,0,0,0,0,0,0,0],"sum_hessian":[9.010424E0,7.6798263E0,1.3305976E0,2.7058427E0,4.9739833E0,1.2630668E0,1.442776E0,1.600281E0,3.3737025E0],"tree_param":{"num_deleted":"0","num_feature":"12","num_nodes":"9","size_leaf_vector":"1"}},{"base_weights":[-8.58348E-2,1.845105E-1,-4.1108045E-1,5.408539E-1,-1.8569663E-1,-6.957925E-2,2.286308E-2,8.321911E-3,7.868422E-2,9.994182E-3,-4.1757323E-2],"categories":[],"categories_nodes":[],"categories_segments":[],"categories_sizes":[],"default_left":[0,0,0,0,0,0,0,0,0,0,0],"id":43,"left_children":[1,3,5,7,9,-1,-1,-1,-1,-1,-1],"loss_changes":[9.2787004E-1,8.8955426E-1,1.0165924E0,3.0640846E-1,2.8535235E-1,0E0,0E0,0E0,0E0,0E0,0E0],"parents":[2147483647,0,0,1,1,2,2,3,3,4,4],"right_children":[2,4,6,8,10,-1,-1,-1,-1,-1,-1],"split_conditions":[1.3128522E-1,6.401104E-3,2.0508488E-1,-5.4217777E-3,1.6561258E-1,-6.957925E-2,2.286308E-2,8.321911E-3,7.868422E-2,9.994182E-3,-4.1757323E-2],"split_indices":[2,10,2,10,3,0,0,0,0,0,0],"split_type":[0,0,0,0,0,0,0,0,0,0,0],"sum_hessian":[8.689919E0,4.9817643E0,3.7081552E0,2.3035395E0,2.6782248E0,2.5054185E0,1.2027366E0,1.2731974E0,1.0303421E0,1.4549382E0,1.2232867E0],"tree_param":{"num_deleted":"0","num_feature":"12","num_nodes":"11","size_leaf_vector":"1"}},{"base_weights":[-5.145625E-2,-2.6794615E-1,2.2877167E-1,-6.0003407E-2,1.6237972E-2,4.470504E-1,-2.0619294E-2,-4.642948E-2,5.8584064E-2,5.7281847E-3,6.497988E-2],"categories":[],"categories_nodes":[],"categories_segments":[],"categories_sizes":[],"default_left":[0,0,0,0,0,0,0,0,0,0,0],"id":44,"left_children":[1,3,5,-1,7,9,-1,-1,-1,-1,-1],"loss_changes":[5.92432E-1,5.1934123E-1,5.056772E-1,0E0,1.3349386E0,2.168892E-1,0E0,0E0,0E0,0E0,0E0],"parents":[2147483647,0,0,1,1,2,2,4,4,5,5],"right_children":[2,4,6,-1,8,10,-1,-1,-1,-1,-1],"split_conditions":[8.7E1,-5.4217777E-3,1.9398903E-2,-6.0003407E-2,1.3792954E-2,9.251044E-3,-2.0619294E-2,-4.642948E-2,5.8584064E-2,5.7281847E-3,6.497988E-2],"split_indices":[6,10,9,0,9,9,0,0,0,0,0],"split_type":[0,0,0,0,0,0,0,0,0,0,0],"sum_hessian":[7.7549706E0,4.399764E0,3.3552067E0,1.5163647E0,2.8833992E0,2.2155764E0,1.1396304E0,1.6642612E0,1.2191379E0,1.1969866E0,1.0185897E0],"tree_param":{"num_deleted":"0","num_feature":"12","num_nodes":"11","size_leaf_vector":"1"}},{"base_weights":[-3.9781234E-3,3.642094E-1,-3.5437033E-1,-2.9090432E-2,6.487445E-1,-7.69401E-2,7.54012E-2,6.3654343E-3,8.605611E-2,4.822446E-2,-3.8870078E-2],"categories":[],"categories_nodes":[],"categories_segments":[],"categories_sizes":[],"default_left":[0,0,0,0,0,0,0,0,0,0,0],"id":45,"left_children":[1,3,5,-1,7,-1,9,-1,-1,-1,-1],"loss_changes":[1.2920734E0,1.1000392E0,9.7231287E-1,0E0,4.0601563E-1,0E0,8.348976E-1,0E0,0E0,0E0,0E0],"parents":[2147483647,0,0,1,1,2,2,4,4,6,6],"right_children":[2,4,6,-1,8,-1,10,-1,-1,-1,-1],"split_conditions":[1.2249174E-1,1.4153743E-1,1.520678E-1,-2.9090432E-2,1.38086295E-2,-7.69401E-2,1.0574841E-2,6.3654343E-3,8.605611E-2,4.822446E-2,-3.8870078E-2],"split_indices":[2,3,2,0,9,0,11,0,0,0,0],"split_type":[0,0,0,0,0,0,0,0,0,0,0],"sum_hessian":[8.014868E0,3.8889632E0,4.125905E0,1.1708388E0,2.7181244E0,1.6969265E0,2.4289784E0,1.0681485E0,1.6499758E0,1.2735025E0,1.155476E0],"tree_param":{"num_deleted":"0","num_feature":"12","num_nodes":"11","size_leaf_vector":"1"}},{"base_weights":[1.7267965E-1,-4.365742E-2,3.3206087E-1,6.790677E-1,-6.983575E-2,7.758568E-2,2.2695756E-2,-4.482539E-2,3.0549651E-2],"categories":[],"categories_nodes":[],"categories_segments":[],"categories_sizes":[],"default_left":[0,0,0,0,0,0,0,0,0],"id":46,"left_children":[1,-1,3,5,7,-1,-1,-1,-1],"loss_changes":[1.0189062E0,0E0,1.121525E0,8.858442E-3,7.725939E-1,0E0,0E0,0E0,0E0],"parents":[2147483647,0,0,2,2,3,3,4,4],"right_children":[2,-1,4,6,8,-1,-1,-1,-1],"split_conditions":[3.7037037E-2,-4.365742E-2,1.3128522E-1,1.2569686E-2,1.4942528E-1,7.758568E-2,2.2695756E-2,-4.482539E-2,3.0549651E-2],"split_indices":[8,0,2,10,8,0,0,0,0],"split_type":[0,0,0,0,0,0,0,0,0],"sum_hessian":[8.000047E0,1.298229E0,6.7018175E0,3.2264063E0,3.475411E0,2.0676734E0,1.158733E0,1.6338462E0,1.8415647E0],"tree_param":{"num_deleted":"0","num_feature":"12","num_nodes":"9","size_leaf_vector":"1"}},{"base_weights":[-4.1902453E-2,5.307985E-1,-3.170888E-1,3.4252263E-3,7.414233E-2,-5.4915076E-1,2.8523108E-2,-7.0702925E-2,-2.9063975E-3],"categories":[],"categories_nodes":[],"categories_segments":[],"categories_sizes":[],"default_left":[0,0,0,0,0,0,0,0,0],"id":47,"left_children":[1,3,5,-1,-1,7,-1,-1,-1],"loss_changes":[1.5507829E0,3.114723E-1,1.0723138E0,0E0,0E0,3.9582515E-1,0E0,0E0,0E0],"parents":[2147483647,0,0,1,1,2,2,5,5],"right_children":[2,4,6,-1,-1,8,-1,-1,-1],"split_conditions":[-4.394735E-3,6.215858E-1,1.5204827E-1,3.4252263E-3,7.414233E-2,1.16284285E-2,2.8523108E-2,-7.0702925E-2,-2.9063975E-3],"split_indices":[10,4,2,0,0,11,0,0,0],"split_type":[0,0,0,0,0,0,0,0,0],"sum_hessian":[7.772063E0,2.2209952E0,5.551068E0,1.0077814E0,1.2132138E0,4.0709033E0,1.4801645E0,2.8471675E0,1.2237358E0],"tree_param":{"num_deleted":"0","num_feature":"12","num_nodes":"9","size_leaf_vector":"1"}},{"base_weights":[-1.8715622E-2,-1.9856237E-1,3.220972E-2,1.4621365E-1,-5.272284E-2,-5.48245E-2,7.70509E-2],"categories":[],"categories_nodes":[],"categories_segments":[],"categories_sizes":[],"default_left":[0,0,0,0,0,0,0],"id":48,"left_children":[1,3,-1,5,-1,-1,-1],"loss_changes":[5.3256226E-1,7.142676E-1,0E0,1.9516104E0,0E0,0E0,0E0],"parents":[2147483647,0,0,1,1,3,3],"right_children":[2,4,-1,6,-1,-1,-1],"split_conditions":[1.38E2,3.1744E-1,3.220972E-2,2.973764E-1,-5.272284E-2,-5.48245E-2,7.70509E-2],"split_indices":[6,1,0,1,0,0,0],"split_type":[0,0,0,0,0,0,0],"sum_hessian":[6.645207E0,4.623025E0,2.022182E0,2.5271418E0,2.095883E0,1.2540119E0,1.2731299E0],"tree_param":{"num_deleted":"0","num_feature":"12","num_nodes":"7","size_leaf_vector":"1"}},{"base_weights":[-9.821149E-2,3.585934E-2,-2.0085464E-1,-7.61509E-2,-5.430714E-2,-2.820774E-2,3.0123893E-2],"categories":[],"categories_nodes":[],"categories_segments":[],"categories_sizes":[],"default_left":[0,0,0,0,0,0,0],"id":49,"left_children":[1,-1,3,5,-1,-1,-1],"loss_changes":[5.06433E-1,0E0,3.088398E-1,6.4276344E-1,0E0,0E0,0E0],"parents":[2147483647,0,0,2,2,3,3],"right_children":[2,-1,4,6,-1,-1,-1],"split_conditions":[5.302382E-1,3.585934E-2,3.6125016E-1,2.4731183E-1,-5.430714E-2,-2.820774E-2,3.0123893E-2],"split_indices":[4,0,1,7,0,0,0],"split_type":[0,0,0,0,0,0,0],"sum_hessian":[8.264821E0,1.0588598E0,7.205961E0,6.177429E0,1.0285318E0,4.1600266E0,2.0174026E0],"tree_param":{"num_deleted":"0","num_feature":"12","num_nodes":"7","size_leaf_vector":"1"}},{"base_weights":[1.2871426E-1,4.065058E-1,-1.4499134E-1,7.330556E-2,4.7219377E-2,-5.5206683E-2,9.353258E-2,-2.1749882E-2,2.598388E-2,-3.9435577E-2,5.501443E-2],"categories":[],"categories_nodes":[],"categories_segments":[],"categories_sizes":[],"default_left":[0,0,0,0,0,0,0,0,0,0,0],"id":50,"left_children":[1,3,5,-1,7,-1,9,-1,-1,-1,-1],"loss_changes":[7.630207E-1,5.354317E-1,5.761062E-1,0E0,2.4688134E-1,0E0,1.1661934E0,0E0,0E0,0E0,0E0],"parents":[2147483647,0,0,1,1,2,2,4,4,6,6],"right_children":[2,4,6,-1,8,-1,10,-1,-1,-1,-1],"split_conditions":[8.461539E-2,-2.119268E-3,1.5916666E-1,7.330556E-2,7.8094155E-3,-5.5206683E-2,1.520678E-1,-2.1749882E-2,2.598388E-2,-3.9435577E-2,5.501443E-2],"split_indices":[8,10,7,0,10,0,2,0,0,0,0],"split_type":[0,0,0,0,0,0,0,0,0,0,0],"sum_hessian":[8.260189E0,3.858696E0,4.401493E0,1.4764572E0,2.3822386E0,1.1405191E0,3.2609737E0,1.0508931E0,1.3313457E0,1.6424086E0,1.6185652E0],"tree_param":{"num_deleted":"0","num_feature":"12","num_nodes":"11","size_leaf_vector":"1"}},{"base_weights":[-6.271051E-2,-2.9416615E-1,1.5740484E-1,-5.2637E-1,1.32026E-2,4.474426E-1,-1.6947435E-1,-6.727295E-2,-1.6207902E-2,7.056116E-2,-5.2097207E-3,-4.888734E-2,2.196703E-2],"categories":[],"categories_nodes":[],"categories_segments":[],"categories_sizes":[],"default_left":[0,0,0,0,0,0,0,0,0,0,0,0,0],"id":51,"left_children":[1,3,5,7,-1,9,11,-1,-1,-1,-1,-1,-1],"loss_changes":[5.4022956E-1,5.7166433E-1,6.08706E-1,7.678735E-2,0E0,4.5626646E-1,5.2597934E-1,0E0,0E0,0E0,0E0,0E0,0E0],"parents":[2147483647,0,0,1,1,2,2,3,3,5,5,6,6],"right_children":[2,4,6,8,-1,10,12,-1,-1,-1,-1,-1,-1],"split_conditions":[1.3792954E-2,2.3130657E-1,1.2249174E-1,6.3147E-1,1.32026E-2,1.8811086E-2,1.6951767E-1,-6.727295E-2,-1.6207902E-2,7.056116E-2,-5.2097207E-3,-4.888734E-2,2.196703E-2],"split_indices":[9,3,2,4,0,9,2,0,0,0,0,0,0],"split_type":[0,0,0,0,0,0,0,0,0,0,0,0,0],"sum_hessian":[8.694917E0,4.074296E0,4.620621E0,2.4852142E0,1.5890819E0,2.2528503E0,2.367771E0,1.1689063E0,1.3163079E0,1.2132847E0,1.0395654E0,1.1596696E0,1.2081012E0],"tree_param":{"num_deleted":"0","num_feature":"12","num_nodes":"13","size_leaf_vector":"1"}},{"base_weights":[3.1496122E-2,1.6021104E-1,-3.1268027E-2,-6.470587E-2,3.9579862E-1,-3.8397327E-2,3.8753815E-2,6.406125E-2,-1.4763124E-3],"categories":[],"categories_nodes":[],"categories_segments":[],"categories_sizes":[],"default_left":[0,0,0,0,0,0,0,0,0],"id":52,"left_children":[1,3,-1,5,7,-1,-1,-1,-1],"loss_changes":[4.1952255E-1,3.822447E-1,0E0,7.700612E-1,3.5398877E-1,0E0,0E0,0E0,0E0],"parents":[2147483647,0,0,1,1,3,3,4,4],"right_children":[2,4,-1,6,8,-1,-1,-1,-1],"split_conditions":[2.99198E-2,3.4562824E-3,-3.1268027E-2,6.5212816E-1,1.2569686E-2,-3.8397327E-2,3.8753815E-2,6.406125E-2,-1.4763124E-3],"split_indices":[10,10,0,4,10,0,0,0,0],"split_type":[0,0,0,0,0,0,0,0,0],"sum_hessian":[7.3391056E0,5.7305183E0,1.6085875E0,3.302727E0,2.4277914E0,2.0244796E0,1.2782471E0,1.1698751E0,1.2579162E0],"tree_param":{"num_deleted":"0","num_feature":"12","num_nodes":"9","size_leaf_vector":"1"}},{"base_weights":[-4.6671096E-2,2.9734755E-1,-3.1443453E-1,-1.8153274E-2,6.355001E-2,1.1242754E-2,-4.5666558E-1,-6.1554875E-2,6.8190595E-4],"categories":[],"categories_nodes":[],"categories_segments":[],"categories_sizes":[],"default_left":[0,0,0,0,0,0,0,0,0],"id":53,"left_children":[1,3,5,-1,-1,-1,7,-1,-1],"loss_changes":[8.545456E-1,7.841557E-1,3.629138E-1,0E0,0E0,0E0,3.022068E-1,0E0,0E0],"parents":[2147483647,0,0,1,1,2,2,6,6],"right_children":[2,4,6,-1,-1,-1,8,-1,-1],"split_conditions":[3.1744E-1,1.5916666E-1,5.617756E-3,-1.8153274E-2,6.355001E-2,1.1242754E-2,1.7298063E-2,-6.1554875E-2,6.8190595E-4],"split_indices":[1,7,9,0,0,0,11,0,0],"split_type":[0,0,0,0,0,0,0,0,0],"sum_hessian":[7.261892E0,3.1300113E0,4.1318803E0,1.4871387E0,1.6428727E0,1.0850335E0,3.0468466E0,2.024691E0,1.0221556E0],"tree_param":{"num_deleted":"0","num_feature":"12","num_nodes":"9","size_leaf_vector":"1"}},{"base_weights":[1.1135041E-4,3.9965E-2,-1.4967182E-1,2.5239214E-2,-3.2104734E-1,1.3289596E-2,-5.5412084E-2],"categories":[],"categories_nodes":[],"categories_segments":[],"categories_sizes":[],"default_left":[0,0,0,0,0,0,0],"id":54,"left_children":[1,-1,3,-1,5,-1,-1],"loss_changes":[5.716182E-1,0E0,5.5976343E-1,0E0,6.356171E-1,0E0,0E0],"parents":[2147483647,0,0,2,2,4,4],"right_children":[2,-1,4,-1,6,-1,-1],"split_conditions":[7.3E1,3.9965E-2,-2.119268E-3,2.5239214E-2,6.273686E-1,1.3289596E-2,-5.5412084E-2],"split_indices":[6,0,10,0,4,0,0],"split_type":[0,0,0,0,0,0,0],"sum_hessian":[7.552244E0,1.6044009E0,5.9478436E0,1.6362636E0,4.31158E0,1.608538E0,2.703042E0],"tree_param":{"num_deleted":"0","num_feature":"12","num_nodes":"7","size_leaf_vector":"1"}},{"base_weights":[-1.7218783E-1,2.2381289E-2,-3.645629E-1,-2.2821869E-1,4.58551E-2,-6.698003E-2,1.3406602E-3,5.30816E-3,-4.3823358E-2],"categories":[],"categories_nodes":[],"categories_segments":[],"categories_sizes":[],"default_left":[0,0,0,0,0,0,0,0,0],"id":55,"left_children":[1,3,5,7,-1,-1,-1,-1,-1],"loss_changes":[3.1378418E-1,6.513455E-1,4.893338E-1,2.5036842E-1,0E0,0E0,0E0,0E0,0E0],"parents":[2147483647,0,0,1,1,2,2,3,3],"right_children":[2,4,6,8,-1,-1,-1,-1,-1],"split_conditions":[1.2249174E-1,1.07329234E-1,1.520678E-1,1.6561258E-1,4.58551E-2,-6.698003E-2,1.3406602E-3,5.30816E-3,-4.3823358E-2],"split_indices":[2,2,2,3,0,0,0,0,0],"split_type":[0,0,0,0,0,0,0,0,0],"sum_hessian":[7.1651826E0,4.001601E0,3.1635816E0,2.844226E0,1.1573751E0,1.3230352E0,1.8405464E0,1.535192E0,1.309034E0],"tree_param":{"num_deleted":"0","num_feature":"12","num_nodes":"9","size_leaf_vector":"1"}},{"base_weights":[4.8602387E-2,2.0866388E-1,-2.4986184E-1,-1.6407123E-1,6.685706E-2,-7.5613596E-3,-2.9893953E-2,-4.6724454E-2,2.6786873E-2],"categories":[],"categories_nodes":[],"categories_segments":[],"categories_sizes":[],"default_left":[0,0,0,0,0,0,0,0,0],"id":56,"left_children":[1,3,5,7,-1,-1,-1,-1,-1],"loss_changes":[4.018085E-1,1.019838E0,3.1380206E-3,6.143397E-1,0E0,0E0,0E0,0E0,0E0],"parents":[2147483647,0,0,1,1,2,2,3,3],"right_children":[2,4,6,8,-1,-1,-1,-1,-1],"split_conditions":[1.9398903E-2,1.3748816E-2,2.3964596E-1,2.3130657E-1,6.685706E-2,-7.5613596E-3,-2.9893953E-2,-4.6724454E-2,2.6786873E-2],"split_indices":[9,9,0,3,0,0,0,0,0],"split_type":[0,0,0,0,0,0,0,0,0],"sum_hessian":[6.3194914E0,4.309338E0,2.010153E0,2.735545E0,1.5737933E0,1.0000852E0,1.0100679E0,1.5593333E0,1.1762115E0],"tree_param":{"num_deleted":"0","num_feature":"12","num_nodes":"9","size_leaf_vector":"1"}},{"base_weights":[-9.425389E-2,1.06921494E-1,-3.5903856E-1,-1.4147629E-1,4.5606222E-2,-4.7625057E-2,-4.787834E-3,2.141531E-2,-5.4066986E-2],"categories":[],"categories_nodes":[],"categories_segments":[],"categories_sizes":[],"default_left":[0,0,0,0,0,0,0,0,0],"id":57,"left_children":[1,3,5,7,-1,-1,-1,-1,-1],"loss_changes":[4.8997346E-1,5.4914284E-1,1.1905843E-1,6.8765986E-1,0E0,0E0,0E0,0E0,0E0],"parents":[2147483647,0,0,1,1,2,2,3,3],"right_children":[2,4,6,8,-1,-1,-1,-1,-1],"split_conditions":[1.2569686E-2,3.4562824E-3,2.3758258E-1,-4.394735E-3,4.5606222E-2,-4.7625057E-2,-4.787834E-3,2.141531E-2,-5.4066986E-2],"split_indices":[10,10,3,10,0,0,0,0,0],"split_type":[0,0,0,0,0,0,0,0,0],"sum_hessian":[7.4775696E0,4.5879664E0,2.8896034E0,3.028274E0,1.5596923E0,1.7135549E0,1.1760484E0,1.8466687E0,1.1816052E0],"tree_param":{"num_deleted":"0","num_feature":"12","num_nodes":"9","size_leaf_vector":"1"}},{"base_weights":[-1.7733072E-1,5.551928E-2,-4.8304832E-1,-2.9817611E-2,2.0805705E-1,-1.1105499E-3,-6.65199E-2,-3.0365516E-2,4.4622526E-2],"categories":[],"categories_nodes":[],"categories_segments":[],"categories_sizes":[],"default_left":[0,0,0,0,0,0,0,0,0],"id":58,"left_children":[1,3,5,-1,7,-1,-1,-1,-1],"loss_changes":[6.2034315E-1,3.657738E-1,3.1135768E-1,0E0,6.866613E-1,0E0,0E0,0E0,0E0],"parents":[2147483647,0,0,1,1,2,2,4,4],"right_children":[2,4,6,-1,8,-1,-1,-1,-1],"split_conditions":[1.3128522E-1,3.7037037E-2,1.7489092E-1,-2.9817611E-2,-8.37394E-3,-1.1105499E-3,-6.65199E-2,-3.0365516E-2,4.4622526E-2],"split_indices":[2,8,0,0,11,0,0,0,0],"split_type":[0,0,0,0,0,0,0,0,0],"sum_hessian":[7.33762E0,4.6297584E0,2.7078614E0,1.1073449E0,3.5224135E0,1.0495363E0,1.6583252E0,1.0314178E0,2.490996E0],"tree_param":{"num_deleted":"0","num_feature":"12","num_nodes":"9","size_leaf_vector":"1"}},{"base_weights":[1.1208776E-2,-1.9869752E-1,2.2771305E-1,3.0423382E-2,-4.3216246E-1,4.2540765E-1,-2.1680662E-2,-6.128591E-2,-1.7280497E-3,6.1157603E-2,3.1044814E-4],"categories":[],"categories_nodes":[],"categories_segments":[],"categories_sizes":[],"default_left":[0,0,0,0,0,0,0,0,0,0,0],"id":59,"left_children":[1,3,5,-1,7,9,-1,-1,-1,-1,-1],"loss_changes":[4.0631855E-1,6.678469E-1,4.7688589E-1,0E0,2.5426763E-1,2.6283425E-1,0E0,0E0,0E0,0E0,0E0],"parents":[2147483647,0,0,1,1,2,2,4,4,5,5],"right_children":[2,4,6,-1,8,10,-1,-1,-1,-1,-1],"split_conditions":[8.7E1,5.4787385E-1,6.818689E-1,3.0423382E-2,6.5212816E-1,2.711535E-1,-2.1680662E-2,-6.128591E-2,-1.7280497E-3,6.1157603E-2,3.1044814E-4],"split_indices":[6,4,4,0,4,0,0,0,0,0,0],"split_type":[0,0,0,0,0,0,0,0,0,0,0],"sum_hessian":[6.9451585E0,3.5680711E0,3.3770874E0,1.0351094E0,2.5329616E0,2.3672688E0,1.0098187E0,1.432058E0,1.1009037E0,1.3319149E0,1.0353539E0],"tree_param":{"num_deleted":"0","num_feature":"12","num_nodes":"11","size_leaf_vector":"1"}},{"base_weights":[-1.0661626E-1,3.8326707E-2,-2.4190861E-1,2.1784533E-2,-4.5238757E-1,-1.2687065E-2,-7.373543E-2],"categories":[],"categories_nodes":[],"categories_segments":[],"categories_sizes":[],"default_left":[0,0,0,0,0,0,0],"id":60,"left_children":[1,-1,3,-1,5,-1,-1],"loss_changes":[5.9654194E-1,0E0,7.3429596E-1,0E0,3.546402E-1,0E0,0E0],"parents":[2147483647,0,0,2,2,4,4],"right_children":[2,-1,4,-1,6,-1,-1],"split_conditions":[-2.8528333E-2,3.8326707E-2,1.8433718E-1,2.1784533E-2,1.0574841E-2,-1.2687065E-2,-7.373543E-2],"split_indices":[10,0,3,0,11,0,0],"split_type":[0,0,0,0,0,0,0],"sum_hessian":[6.601775E0,1.0320219E0,5.569753E0,1.7381264E0,3.8316267E0,2.4631672E0,1.3684593E0],"tree_param":{"num_deleted":"0","num_feature":"12","num_nodes":"7","size_leaf_vector":"1"}},{"base_weights":[-1.3558252E-1,1.6485259E-1,-5.1514775E-1,-2.2240527E-2,4.721305E-1,-3.1945535E-3,-7.3922314E-2,7.7358643E-3,6.4578004E-2],"categories":[],"categories_nodes":[],"categories_segments":[],"categories_sizes":[],"default_left":[0,0,0,0,0,0,0,0,0],"id":61,"left_children":[1,3,5,-1,7,-1,-1,-1,-1],"loss_changes":[9.7069806E-1,7.1108687E-1,3.7421256E-1,0E0,1.6667706E-1,0E0,0E0,0E0,0E0],"parents":[2147483647,0,0,1,1,2,2,4,4],"right_children":[2,4,6,-1,8,-1,-1,-1,-1],"split_conditions":[1.0574841E-2,2.3130657E-1,1.9773936E-1,-2.2240527E-2,7.9E1,-3.1945535E-3,-7.3922314E-2,7.7358643E-3,6.4578004E-2],"split_indices":[11,3,3,0,6,0,0,0,0],"split_type":[0,0,0,0,0,0,0,0,0],"sum_hessian":[6.7675867E0,4.0933113E0,2.6742754E0,1.9331716E0,2.1601398E0,1.2092284E0,1.4650469E0,1.1014986E0,1.0586412E0],"tree_param":{"num_deleted":"0","num_feature":"12","num_nodes":"9","size_leaf_vector":"1"}},{"base_weights":[-2.7181735E-2,1.5485936E-1,-3.9822698E-2,-1.719877E-2,3.3082268E-1,5.2794106E-2,-6.224816E-3],"categories":[],"categories_nodes":[],"categories_segments":[],"categories_sizes":[],"default_left":[0,0,0,0,0,0,0],"id":62,"left_children":[1,3,-1,-1,5,-1,-1],"loss_changes":[5.664721E-1,3.8666153E-1,0E0,0E0,3.4815133E-1,0E0,0E0],"parents":[2147483647,0,0,1,1,4,4],"right_children":[2,4,-1,-1,6,-1,-1],"split_conditions":[1.9398903E-2,7.263969E-3,-3.9822698E-2,-1.719877E-2,1.2249174E-1,5.2794106E-2,-6.224816E-3],"split_indices":[9,9,0,0,2,0,0],"split_type":[0,0,0,0,0,0,0],"sum_hessian":[6.473526E0,4.7337217E0,1.7398041E0,1.6645181E0,3.0692036E0,1.8155946E0,1.2536092E0],"tree_param":{"num_deleted":"0","num_feature":"12","num_nodes":"7","size_leaf_vector":"1"}},{"base_weights":[1.303654E-1,2.3522128E-1,-2.7789338E-2,-8.716755E-3,3.4328726E-1,6.3387476E-2,6.994909E-3],"categories":[],"categories_nodes":[],"categories_segments":[],"categories_sizes":[],"default_left":[0,0,0,0,0,0,0],"id":63,"left_children":[1,3,-1,-1,5,-1,-1],"loss_changes":[3.896811E-1,2.5879613E-1,0E0,0E0,3.6254543E-1,0E0,0E0],"parents":[2147483647,0,0,1,1,4,4],"right_children":[2,4,-1,-1,6,-1,-1],"split_conditions":[2.99198E-2,-4.292264E-3,-2.7789338E-2,-8.716755E-3,1.0574841E-2,6.3387476E-2,6.994909E-3],"split_indices":[10,11,0,0,11,0,0],"split_type":[0,0,0,0,0,0,0],"sum_hessian":[6.575969E0,5.569388E0,1.0065812E0,1.4467484E0,4.1226397E0,1.3589346E0,2.7637048E0],"tree_param":{"num_deleted":"0","num_feature":"12","num_nodes":"7","size_leaf_vector":"1"}},{"base_weights":[7.917425E-2,4.2167243E-2,-5.38147E-2,-3.3230695E-1,2.4812114E-1,-6.245907E-2,7.308149E-3,-2.5002254E-2,5.491051E-2],"categories":[],"categories_nodes":[],"categories_segments":[],"categories_sizes":[],"default_left":[0,0,0,0,0,0,0,0,0],"id":64,"left_children":[1,-1,3,5,7,-1,-1,-1,-1],"loss_changes":[3.943404E-1,0E0,6.5122557E-1,5.132183E-1,7.097307E-1,0E0,0E0,0E0,0E0],"parents":[2147483647,0,0,2,2,3,3,4,4],"right_children":[2,-1,4,6,8,-1,-1,-1,-1],"split_conditions":[7.3E1,4.2167243E-2,1.3792954E-2,8.7E1,2.9649982E-1,-6.245907E-2,7.308149E-3,-2.5002254E-2,5.491051E-2],"split_indices":[6,0,9,6,1,0,0,0,0],"split_type":[0,0,0,0,0,0,0,0,0],"sum_hessian":[7.159401E0,1.3952804E0,5.7641206E0,2.946142E0,2.8179789E0,1.3976903E0,1.5484515E0,1.1251367E0,1.692842E0],"tree_param":{"num_deleted":"0","num_feature":"12","num_nodes":"9","size_leaf_vector":"1"}},{"base_weights":[8.432631E-2,-4.694019E-2,2.3461853E-1,3.8550413E-1,-8.0680266E-2,6.4857624E-2,-9.675837E-3,-2.7186204E-2,1.5535587E-2],"categories":[],"categories_nodes":[],"categories_segments":[],"categories_sizes":[],"default_left":[0,0,0,0,0,0,0,0,0],"id":65,"left_children":[1,-1,3,5,7,-1,-1,-1,-1],"loss_changes":[7.7430314E-1,0E0,3.6144957E-1,6.8054295E-1,1.8096952E-1,0E0,0E0,0E0,0E0],"parents":[2147483647,0,0,2,2,3,3,4,4],"right_children":[2,-1,4,6,8,-1,-1,-1,-1],"split_conditions":[3.7037037E-2,-4.694019E-2,1.2569686E-2,2.9166666E-1,2.0987654E-1,6.4857624E-2,-9.675837E-3,-2.7186204E-2,1.5535587E-2],"split_indices":[8,0,10,7,7,0,0,0,0],"split_type":[0,0,0,0,0,0,0,0,0],"sum_hessian":[6.980828E0,1.0369791E0,5.9438486E0,3.8694625E0,2.0743861E0,2.2805636E0,1.5888989E0,1.0622312E0,1.0121549E0],"tree_param":{"num_deleted":"0","num_feature":"12","num_nodes":"9","size_leaf_vector":"1"}},{"base_weights":[6.701337E-2,2.298789E-1,-2.7645534E-2,5.530376E-2,-2.2951134E-2,-2.2139657E-2,2.1855665E-2],"categories":[],"categories_nodes":[],"categories_segments":[],"categories_sizes":[],"default_left":[0,0,0,0,0,0,0],"id":66,"left_children":[1,3,-1,-1,5,-1,-1],"loss_changes":[4.689899E-1,4.5900398E-1,0E0,0E0,2.4128571E-1,0E0,0E0],"parents":[2147483647,0,0,1,1,4,4],"right_children":[2,4,-1,-1,6,-1,-1],"split_conditions":[1.1666667E-1,3.155172E-1,-2.7645534E-2,5.530376E-2,1.3748816E-2,-2.2139657E-2,2.1855665E-2],"split_indices":[8,1,0,0,9,0,0],"split_type":[0,0,0,0,0,0,0],"sum_hessian":[6.2478433E0,4.4625235E0,1.7853197E0,1.4376192E0,3.024904E0,1.706202E0,1.3187021E0],"tree_param":{"num_deleted":"0","num_feature":"12","num_nodes":"7","size_leaf_vector":"1"}},{"base_weights":[3.2169595E-2,-8.869205E-2,3.9418813E-2,1.4876269E-1,-4.622876E-2,-1.4222148E-2,4.5098245E-2],"categories":[],"categories_nodes":[],"categories_segments":[],"categories_sizes":[],"default_left":[0,0,0,0,0,0,0],"id":67,"left_children":[1,3,-1,5,-1,-1,-1],"loss_changes":[4.0614858E-1,7.0540816E-1,0E0,5.1652783E-1,0E0,0E0,0E0],"parents":[2147483647,0,0,1,1,3,3],"right_children":[2,4,-1,6,-1,-1,-1],"split_conditions":[1.7298063E-2,1.0574841E-2,3.9418813E-2,-4.292264E-3,-4.622876E-2,-1.4222148E-2,4.5098245E-2],"split_indices":[11,11,0,11,0,0,0],"split_type":[0,0,0,0,0,0,0],"sum_hessian":[7.4834743E0,6.176445E0,1.3070292E0,4.1442175E0,2.0322275E0,2.3810744E0,1.763143E0],"tree_param":{"num_deleted":"0","num_feature":"12","num_nodes":"7","size_leaf_vector":"1"}},{"base_weights":[1.1445609E-2,2.258147E-1,-2.1213472E-1,-2.1332512E-2,4.3188965E-1,1.38833495E-2,-4.923924E-2,1.4181612E-3,6.0855627E-2],"categories":[],"categories_nodes":[],"categories_segments":[],"categories_sizes":[],"default_left":[0,0,0,0,0,0,0,0,0],"id":68,"left_children":[1,3,5,-1,7,-1,-1,-1,-1],"loss_changes":[4.159609E-1,4.907465E-1,4.8880672E-1,0E0,2.370013E-1,0E0,0E0,0E0,0E0],"parents":[2147483647,0,0,1,1,2,2,4,4],"right_children":[2,4,6,-1,8,-1,-1,-1,-1],"split_conditions":[8.461539E-2,7.1504023E-3,5.0093655E-2,-2.1332512E-2,4.4871796E-2,1.38833495E-2,-4.923924E-2,1.4181612E-3,6.0855627E-2],"split_indices":[8,9,5,0,8,0,0,0,0],"split_type":[0,0,0,0,0,0,0,0,0],"sum_hessian":[6.6792755E0,3.4047775E0,3.2744982E0,1.0762141E0,2.3285635E0,1.6778897E0,1.5966085E0,1.0132122E0,1.3153511E0],"tree_param":{"num_deleted":"0","num_feature":"12","num_nodes":"9","size_leaf_vector":"1"}},{"base_weights":[-1.3546021E-1,-2.544555E-1,2.9044563E-2,9.624567E-2,-4.7795886E-1,-2.904651E-2,4.9035814E-2,-6.832164E-2,-2.0040963E-2],"categories":[],"categories_nodes":[],"categories_segments":[],"categories_sizes":[],"default_left":[0,0,0,0,0,0,0,0,0],"id":69,"left_children":[1,3,-1,5,7,-1,-1,-1,-1],"loss_changes":[4.6782595E-1,5.639737E-1,0E0,6.613143E-1,1.02555454E-1,0E0,0E0,0E0,0E0],"parents":[2147483647,0,0,1,1,3,3,4,4],"right_children":[2,4,-1,6,8,-1,-1,-1,-1],"split_conditions":[2.37E2,-4.394735E-3,2.9044563E-2,6.250797E-1,1.1966747E-1,-2.904651E-2,4.9035814E-2,-6.832164E-2,-2.0040963E-2],"split_indices":[6,10,0,4,5,0,0,0,0],"split_type":[0,0,0,0,0,0,0,0,0],"sum_hessian":[6.772579E0,5.608231E0,1.1643484E0,2.404572E0,3.203659E0,1.346424E0,1.0581479E0,1.0014482E0,2.202211E0],"tree_param":{"num_deleted":"0","num_feature":"12","num_nodes":"9","size_leaf_vector":"1"}},{"base_weights":[1.2754601E-1,-2.6618307E-2,2.4945329E-1,-2.24398E-2,5.4476004E-2],"categories":[],"categories_nodes":[],"categories_segments":[],"categories_sizes":[],"default_left":[0,0,0,0,0],"id":70,"left_children":[1,-1,3,-1,-1],"loss_changes":[3.9848948E-1,0E0,9.3373847E-1,0E0,0E0],"parents":[2147483647,0,0,2,2],"right_children":[2,-1,4,-1,-1],"split_conditions":[3.7037037E-2,-2.6618307E-2,-6.027265E-3,-2.24398E-2,5.4476004E-2],"split_indices":[8,0,11,0,0],"split_type":[0,0,0,0,0],"sum_hessian":[5.91875E0,1.1195155E0,4.7992344E0,1.9347845E0,2.86445E0],"tree_param":{"num_deleted":"0","num_feature":"12","num_nodes":"5","size_leaf_vector":"1"}},{"base_weights":[-1.1521159E-1,-4.422791E-2,6.2078696E-2,2.802038E-1,-4.055281E-2,-1.817829E-2,4.905194E-2],"categories":[],"categories_nodes":[],"categories_segments":[],"categories_sizes":[],"default_left":[0,0,0,0,0,0,0],"id":71,"left_children":[1,-1,3,5,-1,-1,-1],"loss_changes":[4.5369428E-1,0E0,6.892733E-1,5.2056146E-1,0E0,0E0,0E0],"parents":[2147483647,0,0,2,2,3,3],"right_children":[2,-1,4,6,-1,-1,-1],"split_conditions":[2.973764E-1,-4.422791E-2,3.5488495E-1,-2.0546732E-2,-4.055281E-2,-1.817829E-2,4.905194E-2],"split_indices":[1,0,0,11,0,0,0],"split_type":[0,0,0,0,0,0,0],"sum_hessian":[6.3507233E0,1.7069882E0,4.643735E0,3.439894E0,1.203841E0,1.1185386E0,2.3213553E0],"tree_param":{"num_deleted":"0","num_feature":"12","num_nodes":"7","size_leaf_vector":"1"}},{"base_weights":[-3.8402714E-2,8.4730685E-2,-3.2628812E-2,-1.562451E-1,3.6616076E-2,-4.6886597E-2,2.0100018E-2],"categories":[],"categories_nodes":[],"categories_segments":[],"categories_sizes":[],"default_left":[0,0,0,0,0,0,0],"id":72,"left_children":[1,3,-1,5,-1,-1,-1],"loss_changes":[2.8766787E-1,4.5947784E-1,0E0,5.293978E-1,0E0,0E0,0E0],"parents":[2147483647,0,0,1,1,3,3],"right_children":[2,4,-1,6,-1,-1,-1],"split_conditions":[2.99198E-2,6.3147E-1,-3.2628812E-2,3.801349E-4,3.6616076E-2,-4.6886597E-2,2.0100018E-2],"split_indices":[10,4,0,10,0,0,0],"split_type":[0,0,0,0,0,0,0],"sum_hessian":[6.335224E0,4.931583E0,1.4036415E0,2.8963702E0,2.0352128E0,1.3780272E0,1.5183429E0],"tree_param":{"num_deleted":"0","num_feature":"12","num_nodes":"7","size_leaf_vector":"1"}},{"base_weights":[-1.0975318E-1,2.1725316E-1,-3.8058224E-1,4.6625834E-2,-1.535889E-2,-6.003777E-2,1.2631779E-2],"categories":[],"categories_nodes":[],"categories_segments":[],"categories_sizes":[],"default_left":[0,0,0,0,0,0,0],"id":73,"left_children":[1,3,5,-1,-1,-1,-1],"loss_changes":[7.055321E-1,4.2459673E-1,5.4492134E-1,0E0,0E0,0E0,0E0],"parents":[2147483647,0,0,1,1,2,2],"right_children":[2,4,6,-1,-1,-1,-1],"split_conditions":[3.155172E-1,1.8771838E-2,1.52E2,4.6625834E-2,-1.535889E-2,-6.003777E-2,1.2631779E-2],"split_indices":[1,9,6,0,0,0,0],"split_type":[0,0,0,0,0,0,0],"sum_hessian":[6.0328546E0,2.8225965E0,3.2102578E0,1.5347673E0,1.2878294E0,2.1106532E0,1.0996045E0],"tree_param":{"num_deleted":"0","num_feature":"12","num_nodes":"7","size_leaf_vector":"1"}},{"base_weights":[1.1558111E-1,-7.300198E-2,4.8232745E-2,3.8046245E-2,-3.6784276E-1,-6.1724335E-2,9.189575E-4],"categories":[],"categories_nodes":[],"categories_segments":[],"categories_sizes":[],"default_left":[0,0,0,0,0,0,0],"id":74,"left_children":[1,3,-1,-1,5,-1,-1],"loss_changes":[4.792735E-1,8.2299405E-1,0E0,0E0,3.4459186E-1,0E0,0E0],"parents":[2147483647,0,0,1,1,4,4],"right_children":[2,4,-1,-1,6,-1,-1],"split_conditions":[2.792827E-1,-2.119268E-3,4.8232745E-2,3.8046245E-2,2.4731183E-1,-6.1724335E-2,9.189575E-4],"split_indices":[3,10,0,0,7,0,0],"split_type":[0,0,0,0,0,0,0],"sum_hessian":[5.420601E0,4.108786E0,1.3118147E0,1.5044879E0,2.6042984E0,1.1839955E0,1.4203029E0],"tree_param":{"num_deleted":"0","num_feature":"12","num_nodes":"7","size_leaf_vector":"1"}},{"base_weights":[-2.3713388E-2,2.769418E-1,-3.0821556E-1,-1.07385805E-2,4.4473994E-1,-5.646734E-1,2.1892594E-2,7.6720812E-3,6.1504375E-2,-7.138947E-2,-1.6373083E-2],"categories":[],"categories_nodes":[],"categories_segments":[],"categories_sizes":[],"default_left":[0,0,0,0,0,0,0,0,0,0,0],"id":75,"left_children":[1,3,5,-1,7,9,-1,-1,-1,-1,-1],"loss_changes":[7.361181E-1,3.2027078E-1,7.160564E-1,0E0,1.4935839E-1,7.620633E-2,0E0,0E0,0E0,0E0,0E0],"parents":[2147483647,0,0,1,1,2,2,4,4,5,5],"right_children":[2,4,6,-1,8,10,-1,-1,-1,-1,-1],"split_conditions":[1.0574841E-2,7.9E1,2.1743586E-2,-1.07385805E-2,2.3130657E-1,8.7E1,2.1892594E-2,7.6720812E-3,6.1504375E-2,-7.138947E-2,-1.6373083E-2],"split_indices":[11,6,11,0,3,6,0,0,0,0,0],"split_type":[0,0,0,0,0,0,0,0,0,0,0],"sum_hessian":[6.6079335E0,3.2256825E0,3.3822513E0,1.0897442E0,2.1359382E0,2.2274048E0,1.1548464E0,1.1346033E0,1.0013349E0,1.0544305E0,1.1729745E0],"tree_param":{"num_deleted":"0","num_feature":"12","num_nodes":"11","size_leaf_vector":"1"}},{"base_weights":[-6.7375384E-2,2.870549E-1,-3.470623E-1,-2.1951862E-3,4.3624416E-2,-6.3129435E-3,-5.842672E-2],"categories":[],"categories_nodes":[],"categories_segments":[],"categories_sizes":[],"default_left":[0,0,0,0,0,0,0],"id":76,"left_children":[1,3,5,-1,-1,-1,-1],"loss_changes":[7.18787E-1,1.6180938E-1,2.2873029E-1,0E0,0E0,0E0,0E0],"parents":[2147483647,0,0,1,1,2,2],"right_children":[2,4,6,-1,-1,-1,-1],"split_conditions":[3.1744E-1,2.9691485E-1,1.282572E-1,-2.1951862E-3,4.3624416E-2,-6.3129435E-3,-5.842672E-2],"split_indices":[1,1,2,0,0,0,0],"split_type":[0,0,0,0,0,0,0],"sum_hessian":[5.245982E0,2.3021998E0,2.943782E0,1.0272915E0,1.2749083E0,1.9162186E0,1.0275636E0],"tree_param":{"num_deleted":"0","num_feature":"12","num_nodes":"7","size_leaf_vector":"1"}},{"base_weights":[-1.2582357E-1,2.156825E-1,-3.2427242E-1,-1.4197901E-2,4.688642E-2,-5.4489344E-1,1.9047936E-2,-7.288738E-2,-5.4821353E-3],"categories":[],"categories_nodes":[],"categories_segments":[],"categories_sizes":[],"default_left":[0,0,0,0,0,0,0,0,0],"id":77,"left_children":[1,3,5,-1,-1,7,-1,-1,-1],"loss_changes":[5.452298E-1,3.5435444E-1,6.528832E-1,0E0,0E0,2.8855324E-1,0E0,0E0,0E0],"parents":[2147483647,0,0,1,1,2,2,5,5],"right_children":[2,4,6,-1,-1,8,-1,-1,-1],"split_conditions":[-4.394735E-3,6.250797E-1,2.37E2,-1.4197901E-2,4.688642E-2,2.4864969E-1,1.9047936E-2,-7.288738E-2,-5.4821353E-3],"split_indices":[10,4,6,0,0,3,0,0,0],"split_type":[0,0,0,0,0,0,0,0,0],"sum_hessian":[6.0131245E0,2.178078E0,3.8350465E0,1.0848155E0,1.0932624E0,2.6434965E0,1.19155E0,1.567685E0,1.0758115E0],"tree_param":{"num_deleted":"0","num_feature":"12","num_nodes":"9","size_leaf_vector":"1"}},{"base_weights":[3.260831E-2,-2.7762163E-2,1.967318E-1,5.3630024E-2,-4.7236703E-2,2.3246573E-2,-2.2553997E-2],"categories":[],"categories_nodes":[],"categories_segments":[],"categories_sizes":[],"default_left":[0,0,0,0,0,0,0],"id":78,"left_children":[1,-1,3,-1,5,-1,-1],"loss_changes":[4.146183E-1,0E0,4.5690113E-1,0E0,2.4944803E-1,0E0,0E0],"parents":[2147483647,0,0,2,2,4,4],"right_children":[2,-1,4,-1,6,-1,-1],"split_conditions":[2.973764E-1,-2.7762163E-2,3.1744E-1,5.3630024E-2,5.507428E-1,2.3246573E-2,-2.2553997E-2],"split_indices":[1,0,1,0,4,0,0],"split_type":[0,0,0,0,0,0,0],"sum_hessian":[6.070492E0,1.8610853E0,4.2094064E0,1.2589278E0,2.9504786E0,1.0303748E0,1.9201038E0],"tree_param":{"num_deleted":"0","num_feature":"12","num_nodes":"7","size_leaf_vector":"1"}},{"base_weights":[-5.408521E-3,-3.5890438E-2,1.4322338E-1,4.3795392E-2,-3.6398795E-2,-4.2176217E-2,2.0330286E-2],"categories":[],"categories_nodes":[],"categories_segments":[],"categories_sizes":[],"default_left":[0,0,0,0,0,0,0],"id":79,"left_children":[1,-1,3,-1,5,-1,-1],"loss_changes":[4.4659385E-1,0E0,3.34108E-1,0E0,5.15963E-1,0E0,0E0],"parents":[2147483647,0,0,2,2,4,4],"right_children":[2,-1,4,-1,6,-1,-1],"split_conditions":[2.973764E-1,-3.5890438E-2,3.1744E-1,4.3795392E-2,1.6336986E-1,-4.2176217E-2,2.0330286E-2],"split_indices":[1,0,1,0,5,0,0],"split_type":[0,0,0,0,0,0,0],"sum_hessian":[6.5215955E0,1.5116566E0,5.009939E0,1.352505E0,3.6574342E0,1.1112963E0,2.5461378E0],"tree_param":{"num_deleted":"0","num_feature":"12","num_nodes":"7","size_leaf_vector":"1"}},{"base_weights":[-1.2414357E-1,-2.9786992E-1,2.2567734E-2,1.5650885E-2,-4.7005913E-1,-6.549106E-2,-1.1190232E-2],"categories":[],"categories_nodes":[],"categories_segments":[],"categories_sizes":[],"default_left":[0,0,0,0,0,0,0],"id":80,"left_children":[1,3,-1,-1,5,-1,-1],"loss_changes":[4.760666E-1,4.5898387E-1,0E0,0E0,1.7976224E-1,0E0,0E0],"parents":[2147483647,0,0,1,1,4,4],"right_children":[2,4,-1,-1,6,-1,-1],"split_conditions":[3.4323367E-1,-4.394735E-3,2.2567734E-2,1.5650885E-2,1.9803565E-2,-6.549106E-2,-1.1190232E-2],"split_indices":[1,10,0,0,10,0,0],"split_type":[0,0,0,0,0,0,0],"sum_hessian":[5.7273855E0,3.9261215E0,1.8012638E0,1.1039762E0,2.8221452E0,1.3149282E0,1.5072172E0],"tree_param":{"num_deleted":"0","num_feature":"12","num_nodes":"7","size_leaf_vector":"1"}},{"base_weights":[-4.972102E-2,3.3886146E-2,-1.9059686E-1,2.8419362E-2,-5.7818092E-2,-3.211685E-2,3.542281E-2],"categories":[],"categories_nodes":[],"categories_segments":[],"categories_sizes":[],"default_left":[0,0,0,0,0,0,0],"id":81,"left_children":[1,-1,3,5,-1,-1,-1],"loss_changes":[4.482063E-1,0E0,5.073524E-1,6.43203E-1,0E0,0E0,0E0],"parents":[2147483647,0,0,2,2,3,3],"right_children":[2,-1,4,6,-1,-1,-1],"split_conditions":[7.3E1,3.3886146E-2,6.818689E-1,1.3435914E-2,-5.7818092E-2,-3.211685E-2,3.542281E-2],"split_indices":[6,0,4,9,0,0,0],"split_type":[0,0,0,0,0,0,0],"sum_hessian":[6.007803E0,1.2245886E0,4.783214E0,3.648304E0,1.1349102E0,1.7667981E0,1.8815057E0],"tree_param":{"num_deleted":"0","num_feature":"12","num_nodes":"7","size_leaf_vector":"1"}},{"base_weights":[8.784336E-2,3.3067948E-1,-1.528139E-1,7.0331404E-3,4.2932957E-2,-2.9229492E-2,4.097508E-3],"categories":[],"categories_nodes":[],"categories_segments":[],"categories_sizes":[],"default_left":[0,0,0,0,0,0,0],"id":82,"left_children":[1,3,5,-1,-1,-1,-1],"loss_changes":[4.3352062E-1,6.170085E-2,1.19432844E-1,0E0,0E0,0E0,0E0],"parents":[2147483647,0,0,1,1,2,2],"right_children":[2,4,6,-1,-1,-1,-1],"split_conditions":[2.4202238E-1,2.9613855E-1,1.825722E-1,7.0331404E-3,4.2932957E-2,-2.9229492E-2,4.097508E-3],"split_indices":[0,1,5,0,0,0,0],"split_type":[0,0,0,0,0,0,0],"sum_hessian":[5.5534973E0,2.5780442E0,2.9754534E0,1.1791308E0,1.3989133E0,1.4345851E0,1.5408683E0],"tree_param":{"num_deleted":"0","num_feature":"12","num_nodes":"7","size_leaf_vector":"1"}},{"base_weights":[-9.794457E-3,2.083047E-1,-2.3471692E-1,-3.9112065E-3,4.089002E-2,-4.3454474E-1,1.8980462E-2,-6.650193E-3,-6.1249197E-2],"categories":[],"categories_nodes":[],"categories_segments":[],"categories_sizes":[],"default_left":[0,0,0,0,0,0,0,0,0],"id":83,"left_children":[1,3,5,-1,-1,7,-1,-1,-1],"loss_changes":[4.3012184E-1,2.3810795E-1,4.469173E-1,0E0,0E0,1.7048478E-1,0E0,0E0,0E0],"parents":[2147483647,0,0,1,1,2,2,5,5],"right_children":[2,4,6,-1,-1,8,-1,-1,-1],"split_conditions":[1.0574841E-2,-6.027265E-3,2.1743586E-2,-3.9112065E-3,4.089002E-2,6.349207E-2,1.8980462E-2,-6.650193E-3,-6.1249197E-2],"split_indices":[11,11,11,0,0,8,0,0,0],"split_type":[0,0,0,0,0,0,0,0,0],"sum_hessian":[6.771401E0,3.4753563E0,3.2960448E0,1.9165194E0,1.5588368E0,2.2250664E0,1.0709784E0,1.1729033E0,1.0521631E0],"tree_param":{"num_deleted":"0","num_feature":"12","num_nodes":"9","size_leaf_vector":"1"}},{"base_weights":[-1.743352E-2,-4.020038E-2,1.5449333E-1,4.443278E-2,-3.308187E-2,-3.1968974E-2,2.3636976E-2],"categories":[],"categories_nodes":[],"categories_segments":[],"categories_sizes":[],"default_left":[0,0,0,0,0,0,0],"id":84,"left_children":[1,-1,3,-1,5,-1,-1],"loss_changes":[5.4494274E-1,0E0,3.2833052E-1,0E0,4.1791213E-1,0E0,0E0],"parents":[2147483647,0,0,2,2,4,4],"right_children":[2,-1,4,-1,6,-1,-1],"split_conditions":[9.0083085E-2,-4.020038E-2,1.1212374E-1,4.443278E-2,1.4632078E-3,-3.1968974E-2,2.3636976E-2],"split_indices":[2,0,2,0,10,0,0],"split_type":[0,0,0,0,0,0,0],"sum_hessian":[6.302643E0,1.5337305E0,4.768912E0,1.3359116E0,3.4330006E0,1.5731941E0,1.8598063E0],"tree_param":{"num_deleted":"0","num_feature":"12","num_nodes":"7","size_leaf_vector":"1"}},{"base_weights":[-5.7074722E-2,4.8459943E-2,-3.383149E-1,-5.3826023E-2,-1.2693849E-3],"categories":[],"categories_nodes":[],"categories_segments":[],"categories_sizes":[],"default_left":[0,0,0,0,0],"id":85,"left_children":[1,-1,3,-1,-1],"loss_changes":[1.1132388E0,0E0,2.9855663E-1,0E0,0E0],"parents":[2147483647,0,0,2,2],"right_children":[2,-1,4,-1,-1],"split_conditions":[1.9178082E-1,4.8459943E-2,1.3792954E-2,-5.3826023E-2,-1.2693849E-3],"split_indices":[7,0,9,0,0],"split_type":[0,0,0,0,0],"sum_hessian":[5.2313786E0,1.5407612E0,3.6906173E0,1.8819766E0,1.8086408E0],"tree_param":{"num_deleted":"0","num_feature":"12","num_nodes":"5","size_leaf_vector":"1"}},{"base_weights":[-1.0287017E-1,1.5298347E-1,-3.1148127E-1,-1.4439197E-2,3.8932297E-2,5.961873E-3,-6.514593E-2],"categories":[],"categories_nodes":[],"categories_segments":[],"categories_sizes":[],"default_left":[0,0,0,0,0,0,0],"id":86,"left_children":[1,3,5,-1,-1,-1,-1],"loss_changes":[4.2189497E-1,3.2468325E-1,5.6770575E-1,0E0,0E0,0E0,0E0],"parents":[2147483647,0,0,1,1,2,2],"right_children":[2,4,6,-1,-1,-1,-1],"split_conditions":[2.7551479E-3,2.3130657E-1,2.0481108E-1,-1.4439197E-2,3.8932297E-2,5.961873E-3,-6.514593E-2],"split_indices":[11,3,3,0,0,0,0],"split_type":[0,0,0,0,0,0,0],"sum_hessian":[6.0117307E0,2.819894E0,3.1918368E0,1.4209831E0,1.398911E0,1.9203429E0,1.2714938E0],"tree_param":{"num_deleted":"0","num_feature":"12","num_nodes":"7","size_leaf_vector":"1"}},{"base_weights":[-3.813992E-2,1.3909774E-1,-2.0374732E-1,-1.6866166E-2,4.0317506E-2,-5.875026E-2,1.2679331E-1,3.733867E-2,-1.7945686E-2],"categories":[],"categories_nodes":[],"categories_segments":[],"categories_sizes":[],"default_left":[0,0,0,0,0,0,0,0,0],"id":87,"left_children":[1,3,5,-1,-1,-1,7,-1,-1],"loss_changes":[2.3941322E-1,3.9860496E-1,5.9751105E-1,0E0,0E0,0E0,2.9641184E-1,0E0,0E0],"parents":[2147483647,0,0,1,1,2,2,6,6],"right_children":[2,4,6,-1,-1,-1,8,-1,-1],"split_conditions":[1.223882E-1,1.16284285E-2,1.520678E-1,-1.6866166E-2,4.0317506E-2,-5.875026E-2,6.7499815E-3,3.733867E-2,-1.7945686E-2],"split_indices":[2,11,2,0,0,0,11,0,0],"split_type":[0,0,0,0,0,0,0,0,0],"sum_hessian":[6.1911077E0,3.0678666E0,3.1232412E0,1.5836158E0,1.4842508E0,1.0855391E0,2.0377023E0,1.0073557E0,1.0303465E0],"tree_param":{"num_deleted":"0","num_feature":"12","num_nodes":"9","size_leaf_vector":"1"}},{"base_weights":[-4.200686E-2,-2.3640725E-1,3.195555E-2,-3.8101918E-1,8.433522E-3,3.15168E-3,-5.9952684E-2],"categories":[],"categories_nodes":[],"categories_segments":[],"categories_sizes":[],"default_left":[0,0,0,0,0,0,0],"id":88,"left_children":[1,3,-1,5,-1,-1,-1],"loss_changes":[5.224306E-1,2.5057808E-1,0E0,3.2783672E-1,0E0,0E0,0E0],"parents":[2147483647,0,0,1,1,3,3],"right_children":[2,4,-1,6,-1,-1,-1],"split_conditions":[1.52E2,1.520678E-1,3.195555E-2,1.3214204E-1,8.433522E-3,3.15168E-3,-5.9952684E-2],"split_indices":[6,2,0,5,0,0,0],"split_type":[0,0,0,0,0,0,0],"sum_hessian":[5.357931E0,3.7095673E0,1.6483637E0,2.4272664E0,1.282301E0,1.1367948E0,1.2904716E0],"tree_param":{"num_deleted":"0","num_feature":"12","num_nodes":"7","size_leaf_vector":"1"}},{"base_weights":[-9.4570816E-2,2.6436254E-2,-2.2309232E-1,-4.3601853E-1,1.8432839E-2,-6.9232695E-2,6.213905E-3],"categories":[],"categories_nodes":[],"categories_segments":[],"categories_sizes":[],"default_left":[0,0,0,0,0,0,0],"id":89,"left_children":[1,-1,3,5,-1,-1,-1],"loss_changes":[3.7021723E-1,0E0,5.583984E-1,5.430415E-1,0E0,0E0,0E0],"parents":[2147483647,0,0,2,2,3,3],"right_children":[2,-1,4,6,-1,-1,-1],"split_conditions":[5.576712E-1,2.6436254E-2,1.52E2,6.558708E-1,1.8432839E-2,-6.9232695E-2,6.213905E-3],"split_indices":[4,0,6,4,0,0,0],"split_type":[0,0,0,0,0,0,0],"sum_hessian":[5.746923E0,1.2365496E0,4.510373E0,2.916145E0,1.594228E0,1.6681077E0,1.2480373E0],"tree_param":{"num_deleted":"0","num_feature":"12","num_nodes":"7","size_leaf_vector":"1"}},{"base_weights":[1.2564369E-1,2.511138E-1,-1.4164748E-2,-1.3769637E-2,4.741374E-2],"categories":[],"categories_nodes":[],"categories_segments":[],"categories_sizes":[],"default_left":[0,0,0,0,0],"id":90,"left_children":[1,3,-1,-1,-1],"loss_changes":[2.542196E-1,4.813013E-1,0E0,0E0,0E0],"parents":[2147483647,0,0,1,1],"right_children":[2,4,-1,-1,-1],"split_conditions":[1.2569686E-2,7.9E1,-1.4164748E-2,-1.3769637E-2,4.741374E-2],"split_indices":[10,6,0,0,0],"split_type":[0,0,0,0,0],"sum_hessian":[5.519654E0,3.7975538E0,1.7221E0,1.5237331E0,2.2738209E0],"tree_param":{"num_deleted":"0","num_feature":"12","num_nodes":"5","size_leaf_vector":"1"}},{"base_weights":[3.691159E-2,-1.5189469E-1,5.2332904E-2,-4.002799E-2,9.894949E-3,-1.7618457E-2,1.8352106E-2],"categories":[],"categories_nodes":[],"categories_segments":[],"categories_sizes":[],"default_left":[0,0,0,0,0,0,0],"id":91,"left_children":[1,3,-1,-1,5,-1,-1],"loss_changes":[6.836285E-1,2.2554246E-1,0E0,0E0,1.7173918E-1,0E0,0E0],"parents":[2147483647,0,0,1,1,4,4],"right_children":[2,4,-1,-1,6,-1,-1],"split_conditions":[1.3768116E-1,-4.292264E-3,5.2332904E-2,-4.002799E-2,4.819277E-2,-1.7618457E-2,1.8352106E-2],"split_indices":[8,11,0,0,8,0,0],"split_type":[0,0,0,0,0,0,0],"sum_hessian":[5.578249E0,4.513882E0,1.0643668E0,1.1990229E0,3.3148592E0,1.592935E0,1.7219243E0],"tree_param":{"num_deleted":"0","num_feature":"12","num_nodes":"7","size_leaf_vector":"1"}},{"base_weights":[-4.1543804E-2,-4.0167917E-2,1.4634115E-1,4.415235E-2,-1.50214E-1,7.115498E-3,-2.9015819E-2],"categories":[],"categories_nodes":[],"categories_segments":[],"categories_sizes":[],"default_left":[0,0,0,0,0,0,0],"id":92,"left_children":[1,-1,3,-1,5,-1,-1],"loss_changes":[4.7146255E-1,0E0,4.8133472E-1,0E0,1.1702649E-1,0E0,0E0],"parents":[2147483647,0,0,2,2,4,4],"right_children":[2,-1,4,-1,6,-1,-1],"split_conditions":[7.9E1,-4.0167917E-2,6.401104E-3,4.415235E-2,9.497134E-2,7.115498E-3,-2.9015819E-2],"split_indices":[6,0,10,0,2,0,0],"split_type":[0,0,0,0,0,0,0],"sum_hessian":[5.0989637E0,1.3580234E0,3.7409406E0,1.629822E0,2.1111186E0,1.0080674E0,1.1030512E0],"tree_param":{"num_deleted":"0","num_feature":"12","num_nodes":"7","size_leaf_vector":"1"}},{"base_weights":[3.0992458E-2,3.737572E-2,-1.20513864E-1,-3.4132656E-1,1.6550882E-2,-8.421405E-3,-4.2490993E-2],"categories":[],"categories_nodes":[],"categories_segments":[],"categories_sizes":[],"default_left":[0,0,0,0,0,0,0],"id":93,"left_children":[1,-1,3,5,-1,-1,-1],"loss_changes":[3.632954E-1,0E0,3.726619E-1,3.1945974E-2,0E0,0E0,0E0],"parents":[2147483647,0,0,2,2,3,3],"right_children":[2,-1,4,6,-1,-1,-1],"split_conditions":[7.3E1,3.737572E-2,1.3792954E-2,2.6757786E-1,1.6550882E-2,-8.421405E-3,-4.2490993E-2],"split_indices":[6,0,9,0,0,0,0],"split_type":[0,0,0,0,0,0,0],"sum_hessian":[5.128369E0,1.1223183E0,4.0060506E0,2.1516204E0,1.85443E0,1.0203735E0,1.1312469E0],"tree_param":{"num_deleted":"0","num_feature":"12","num_nodes":"7","size_leaf_vector":"1"}},{"base_weights":[6.222534E-5,2.3490375E-2,-1.2594211E-1,-3.5745654E-1,1.9638216E-2,-5.8161654E-2,-1.9600129E-4],"categories":[],"categories_nodes":[],"categories_segments":[],"categories_sizes":[],"default_left":[0,0,0,0,0,0,0],"id":94,"left_children":[1,-1,3,5,-1,-1,-1],"loss_changes":[2.3220342E-1,0E0,4.513164E-1,2.6397628E-1,0E0,0E0,0E0],"parents":[2147483647,0,0,2,2,3,3],"right_children":[2,-1,4,6,-1,-1,-1],"split_conditions":[1.9178082E-1,2.3490375E-2,3.4323367E-1,2.3130657E-1,1.9638216E-2,-5.8161654E-2,-1.9600129E-4],"split_indices":[7,0,1,3,0,0,0],"split_type":[0,0,0,0,0,0,0],"sum_hessian":[5.8473125E0,1.7400429E0,4.1072693E0,2.3269236E0,1.7803458E0,1.0369817E0,1.2899419E0],"tree_param":{"num_deleted":"0","num_feature":"12","num_nodes":"7","size_leaf_vector":"1"}},{"base_weights":[-2.4265433E-2,-3.6901798E-2,1.38388E-1,-1.745614E-2,3.1417075E-1,2.1916449E-3,5.2632768E-2],"categories":[],"categories_nodes":[],"categories_segments":[],"categories_sizes":[],"default_left":[0,0,0,0,0,0,0],"id":95,"left_children":[1,-1,3,-1,5,-1,-1],"loss_changes":[4.5408702E-1,0E0,3.6348152E-1,0E0,2.3336312E-1,0E0,0E0],"parents":[2147483647,0,0,2,2,4,4],"right_children":[2,-1,4,-1,6,-1,-1],"split_conditions":[2.973764E-1,-3.6901798E-2,1.4632078E-3,-1.745614E-2,2.3758258E-1,2.1916449E-3,5.2632768E-2],"split_indices":[1,0,10,0,3,0,0],"split_type":[0,0,0,0,0,0,0],"sum_hessian":[6.187126E0,1.5766325E0,4.6104937E0,1.6607596E0,2.949734E0,1.7047199E0,1.2450141E0],"tree_param":{"num_deleted":"0","num_feature":"12","num_nodes":"7","size_leaf_vector":"1"}},{"base_weights":[8.565959E-2,1.8930422E-1,-2.378749E-2,-1.188413E-2,3.865199E-1,-1.01298036E-4,5.384313E-2],"categories":[],"categories_nodes":[],"categories_segments":[],"categories_sizes":[],"default_left":[0,0,0,0,0,0,0],"id":96,"left_children":[1,3,-1,-1,5,-1,-1],"loss_changes":[2.6519135E-1,3.819651E-1,0E0,0E0,2.1287751E-1,0E0,0E0],"parents":[2147483647,0,0,1,1,4,4],"right_children":[2,4,-1,-1,6,-1,-1],"split_conditions":[2.5002161E-2,3.4562824E-3,-2.378749E-2,-1.188413E-2,-4.292264E-3,-1.01298036E-4,5.384313E-2],"split_indices":[9,10,0,0,11,0,0],"split_type":[0,0,0,0,0,0,0],"sum_hessian":[5.5655684E0,4.5294437E0,1.0361251E0,1.9226876E0,2.606756E0,1.0138104E0,1.5929456E0],"tree_param":{"num_deleted":"0","num_feature":"12","num_nodes":"7","size_leaf_vector":"1"}},{"base_weights":[2.2830226E-2,2.9710725E-1,-1.7973784E-1,4.201583E-2,1.871362E-3,1.26308445E-2,-3.8915347E-2],"categories":[],"categories_nodes":[],"categories_segments":[],"categories_sizes":[],"default_left":[0,0,0,0,0,0,0],"id":97,"left_children":[1,3,5,-1,-1,-1,-1],"loss_changes":[4.1960213E-1,1.0096702E-1,3.3206445E-1,0E0,0E0,0E0,0E0],"parents":[2147483647,0,0,1,1,2,2],"right_children":[2,4,6,-1,-1,-1,-1],"split_conditions":[8.4E1,1.3128522E-1,1.0574841E-2,4.201583E-2,1.871362E-3,1.26308445E-2,-3.8915347E-2],"split_indices":[6,2,11,0,0,0,0],"split_type":[0,0,0,0,0,0,0],"sum_hessian":[5.5911136E0,2.1768954E0,3.4142182E0,1.1564959E0,1.0203993E0,1.5483158E0,1.8659025E0],"tree_param":{"num_deleted":"0","num_feature":"12","num_nodes":"7","size_leaf_vector":"1"}},{"base_weights":[-1.14072815E-1,1.825299E-2,-2.3579825E-1,4.7805803E-3,-4.2854118E-1,-5.409527E-3,-5.981588E-2],"categories":[],"categories_nodes":[],"categories_segments":[],"categories_sizes":[],"default_left":[0,0,0,0,0,0,0],"id":98,"left_children":[1,-1,3,-1,5,-1,-1],"loss_changes":[2.7449194E-1,0E0,2.9279575E-1,0E0,1.6239011E-1,0E0,0E0],"parents":[2147483647,0,0,2,2,4,4],"right_children":[2,-1,4,-1,6,-1,-1],"split_conditions":[1.8936884E-1,1.825299E-2,6.7499815E-3,4.7805803E-3,1.8433718E-1,-5.409527E-3,-5.981588E-2],"split_indices":[0,0,11,0,3,0,0],"split_type":[0,0,0,0,0,0,0],"sum_hessian":[5.4106774E0,1.429052E0,3.9816256E0,1.9153419E0,2.0662837E0,1.0553749E0,1.010909E0],"tree_param":{"num_deleted":"0","num_feature":"12","num_nodes":"7","size_leaf_vector":"1"}},{"base_weights":[-1.993826E-2,1.6475855E-1,-3.9946485E-2,3.289261E-1,-1.3995329E-2,5.4271924E-3,4.6321563E-2],"categories":[],"categories_nodes":[],"categories_segments":[],"categories_sizes":[],"default_left":[0,0,0,0,0,0,0],"id":99,"left_children":[1,3,-1,5,-1,-1,-1],"loss_changes":[5.288453E-1,3.0371782E-1,0E0,1.09340936E-1,0E0,0E0,0E0],"parents":[2147483647,0,0,1,1,3,3],"right_children":[2,4,-1,6,-1,-1,-1],"split_conditions":[1.8811086E-2,1.282572E-1,-3.9946485E-2,9.0083085E-2,-1.3995329E-2,5.4271924E-3,4.6321563E-2],"split_indices":[9,2,0,2,0,0,0],"split_type":[0,0,0,0,0,0,0],"sum_hessian":[5.605529E0,4.15122E0,1.4543092E0,2.646121E0,1.5050987E0,1.3300312E0,1.3160899E0],"tree_param":{"num_deleted":"0","num_feature":"12","num_nodes":"7","size_leaf_vector":"1"}}]},"name":"gbtree"},"learner_model_param":{"base_score":"[4.6875E-1]","boost_from_average":"1","num_class":"0","num_feature":"12","num_target":"1"},"objective":{"name":"binary:logistic","reg_loss_param":{"scale_pos_weight":"1"}}},"version":[3,2,0]}