{"learner":{"attributes":{"scikit_learn":"{\"_estimator_type\": \"classifier\"}"},"feature_names":[],"feature_types":[],"gradient_booster":{"model":{"cats":{"enc":[],"feature_segments":[],"sorted_idx":[]},"gbtree_model_param":{"num_parallel_tree":"1","num_trees":"50"},"iteration_indptr":[0,1,2,3,4,5,6,7,8,9,10,11,12,13,14,15,16,17,18,19,20,21,22,23,24,25,26,27,28,29,30,31,32,33,34,35,36,37,38,39,40,41,42,43,44,45,46,47,48,49,50],"tree_info":[0,0,0,0,0,0,0,0,0,0,0,0,0,0,0,0,0,0,0,0,0,0,0,0,0,0,0,0,0,0,0,0,0,0,0,0,0,0,0,0,0,0,0,0,0,0,0,0,0,0],"trees":[{"base_weights":[-5.8309836E-3,8.1986904E-1,-6.6792434E-1,1.2259896E-2,1.2069124E-1,-1.5859619E-1,3.8272366E-3],"categories":[],"categories_nodes":[],"categories_segments":[],"categories_sizes":[],"default_left":[0,0,0,0,0,0,0],"id":0,"left_children":[1,3,5,-1,-1,-1,-1],"loss_changes":[1.0334159E1,1.9753728E0,7.0673127E0,0E0,0E0,0E0,0E0],"parents":[2147483647,0,0,1,1,2,2],"right_children":[2,4,6,-1,-1,-1,-1],"split_conditions":[2.7751331E-3,1.1844144E-1,1.3808514E-2,1.2259896E-2,1.2069124E-1,-1.5859619E-1,3.8272366E-3],"split_indices":[6,1,5,0,0,0,0],"split_type":[0,0,0,0,0,0,0],"sum_hessian":[1.6929235E1,7.360537E0,9.568698E0,3.1895661E0,4.170971E0,3.6802685E0,5.8884296E0],"tree_param":{"num_deleted":"0","num_feature":"7","num_nodes":"7","size_leaf_vector":"1"}},{"base_weights":[2.4557143E-2,-4.869418E-1,6.0768086E-1,-1.01984344E-1,-2.4201742E-3,9.057126E-2,1.9981425E-2],"categories":[],"categories_nodes":[],"categories_segments":[],"categories_sizes":[],"default_left":[0,0,0,0,0,0,0],"id":1,"left_children":[1,3,5,-1,-1,-1,-1],"loss_changes":[5.576037E0,2.3054836E0,7.76896E-1,0E0,0E0,0E0,0E0],"parents":[2147483647,0,0,1,1,2,2],"right_children":[2,4,6,-1,-1,-1,-1],"split_conditions":[1.6430499E-2,6.1971832E-2,1.2962963E-1,-1.01984344E-1,-2.4201742E-3,9.057126E-2,1.9981425E-2],"split_indices":[5,4,4,0,0,0,0],"split_type":[0,0,0,0,0,0,0],"sum_hessian":[1.6662212E1,8.872749E0,7.789463E0,3.4637694E0,5.40898E0,3.653806E0,4.135657E0],"tree_param":{"num_deleted":"0","num_feature":"7","num_nodes":"7","size_leaf_vector":"1"}},{"base_weights":[-1.3402514E-1,-7.842232E-1,3.537179E-1,-1.12055235E-1,-2.3675097E-2,1.0469623E-1,-1.0369104E-2],"categories":[],"categories_nodes":[],"categories_segments":[],"categories_sizes":[],"default_left":[0,0,0,0,0,0,0],"id":2,"left_children":[1,3,5,-1,-1,-1,-1],"loss_changes":[5.534596E0,9.70006E-1,3.3725057E0,0E0,0E0,0E0,0E0],"parents":[2147483647,0,0,1,1,2,2],"right_children":[2,4,6,-1,-1,-1,-1],"split_conditions":[1.1440715E-1,8.6079925E-2,1.4501911E-1,-1.12055235E-1,-2.3675097E-2,1.0469623E-1,-1.0369104E-2],"split_indices":[1,1,1,0,0,0,0],"split_type":[0,0,0,0,0,0,0],"sum_hessian":[1.5441709E1,6.4459453E0,8.995764E0,3.2313774E0,3.2145677E0,3.150549E0,5.845215E0],"tree_param":{"num_deleted":"0","num_feature":"7","num_nodes":"7","size_leaf_vector":"1"}},{"base_weights":[2.416127E-2,-7.482072E-1,5.8158857E-1,1.1487289E-2,-1.285626E-1,8.376465E-2,2.0266706E-2],"categories":[],"categories_nodes":[],"categories_segments":[],"categories_sizes":[],"default_left":[0,0,0,0,0,0,0],"id":3,"left_children":[1,3,5,-1,-1,-1,-1],"loss_changes":[8.933419E0,4.2780843E0,9.026327E-1,0E0,0E0,0E0,0E0],"parents":[2147483647,0,0,1,1,2,2],"right_children":[2,4,6,-1,-1,-1,-1],"split_conditions":[1.366063E-2,5.0358456E-3,3.5575156E-3,1.1487289E-2,-1.285626E-1,8.376465E-2,2.0266706E-2],"split_indices":[5,6,6,0,0,0,0],"split_type":[0,0,0,0,0,0,0],"sum_hessian":[1.8777365E1,7.652479E0,1.1124885E1,3.1668227E0,4.4856567E0,5.758821E0,5.3660636E0],"tree_param":{"num_deleted":"0","num_feature":"7","num_nodes":"7","size_leaf_vector":"1"}},{"base_weights":[-3.689788E-3,6.6169256E-1,-6.581144E-1,9.370323E-2,2.646868E-3,-1.2073862E-1,-0E0],"categories":[],"categories_nodes":[],"categories_segments":[],"categories_sizes":[],"default_left":[0,0,0,0,0,0,0],"id":4,"left_children":[1,3,5,-1,-1,-1,-1],"loss_changes":[8.654603E0,1.5898485E0,3.6168804E0,0E0,0E0,0E0,0E0],"parents":[2147483647,0,0,1,1,2,2],"right_children":[2,4,6,-1,-1,-1,-1],"split_conditions":[3.5575156E-3,2.9323897E-1,1.3808514E-2,9.370323E-2,2.646868E-3,-1.2073862E-1,-0E0],"split_indices":[6,0,5,0,0,0,0],"split_type":[0,0,0,0,0,0,0],"sum_hessian":[1.7876177E1,8.782604E0,9.093573E0,5.6856117E0,3.0969925E0,4.47994E0,4.613633E0],"tree_param":{"num_deleted":"0","num_feature":"7","num_nodes":"7","size_leaf_vector":"1"}},{"base_weights":[7.4218325E-2,6.002804E-1,-3.4564385E-1,8.461263E-2,5.329815E-3,-7.939617E-2,2.6762841E-2],"categories":[],"categories_nodes":[],"categories_segments":[],"categories_sizes":[],"default_left":[0,0,0,0,0,0,0],"id":5,"left_children":[1,3,5,-1,-1,-1,-1],"loss_changes":[4.6951494E0,1.1341603E0,3.4995847E0,0E0,0E0,0E0,0E0],"parents":[2147483647,0,0,1,1,2,2],"right_children":[2,4,6,-1,-1,-1,-1],"split_conditions":[2.7751331E-3,2.962963E-1,2.3641746E-2,8.461263E-2,5.329815E-3,-7.939617E-2,2.6762841E-2],"split_indices":[6,3,6,0,0,0,0],"split_type":[0,0,0,0,0,0,0],"sum_hessian":[1.9202518E1,8.4383E0,1.0764218E1,5.3182483E0,3.1200519E0,6.142396E0,4.6218224E0],"tree_param":{"num_deleted":"0","num_feature":"7","num_nodes":"7","size_leaf_vector":"1"}},{"base_weights":[3.953671E-2,9.064659E-2,-4.4579244E-1,2.0403419E-2,-1.06528535E-1],"categories":[],"categories_nodes":[],"categories_segments":[],"categories_sizes":[],"default_left":[0,0,0,0,0],"id":6,"left_children":[1,-1,3,-1,-1],"loss_changes":[7.914113E0,0E0,5.1218863E0,0E0,0E0],"parents":[2147483647,0,0,2,2],"right_children":[2,-1,4,-1,-1],"split_conditions":[0E0,9.064659E-2,2.2307692E-1,2.0403419E-2,-1.06528535E-1],"split_indices":[6,0,3,0,0],"split_type":[0,0,0,0,0],"sum_hessian":[1.6739801E1,5.7704782E0,1.0969323E1,5.602117E0,5.367206E0],"tree_param":{"num_deleted":"0","num_feature":"7","num_nodes":"5","size_leaf_vector":"1"}},{"base_weights":[7.4779E-2,-3.9439335E-2,2.5499853E-1,5.6250174E-2,-2.0775853E-2],"categories":[],"categories_nodes":[],"categories_segments":[],"categories_sizes":[],"default_left":[0,0,0,0,0],"id":7,"left_children":[1,-1,3,-1,-1],"loss_changes":[1.4851402E0,0E0,1.9611065E0,0E0,0E0],"parents":[2147483647,0,0,2,2],"right_children":[2,-1,4,-1,-1],"split_conditions":[7.562884E-3,-3.9439335E-2,1.4501911E-1,5.6250174E-2,-2.0775853E-2],"split_indices":[5,0,1,0,0],"split_type":[0,0,0,0,0],"sum_hessian":[1.5539837E1,3.828826E0,1.1711011E1,7.0360746E0,4.674937E0],"tree_param":{"num_deleted":"0","num_feature":"7","num_nodes":"5","size_leaf_vector":"1"}},{"base_weights":[9.610859E-2,5.189744E-1,-2.5339773E-1,8.129434E-2,-0E0,-6.410131E-2,2.6595717E-2],"categories":[],"categories_nodes":[],"categories_segments":[],"categories_sizes":[],"default_left":[0,0,0,0,0,0,0],"id":8,"left_children":[1,3,5,-1,-1,-1,-1],"loss_changes":[2.7054877E0,1.2087586E0,2.2168868E0,0E0,0E0,0E0,0E0],"parents":[2147483647,0,0,1,1,2,2],"right_children":[2,4,6,-1,-1,-1,-1],"split_conditions":[2.7751331E-3,2.962963E-1,2.3641746E-2,8.129434E-2,-0E0,-6.410131E-2,2.6595717E-2],"split_indices":[6,3,6,0,0,0,0],"split_type":[0,0,0,0,0,0,0],"sum_hessian":[1.6236277E1,7.2571406E0,8.9791355E0,4.1941447E0,3.0629954E0,5.1178083E0,3.8613272E0],"tree_param":{"num_deleted":"0","num_feature":"7","num_nodes":"7","size_leaf_vector":"1"}},{"base_weights":[8.4699765E-2,6.671144E-1,-4.1058415E-1,-2.2255545E-3,1.0368706E-1,2.3527041E-2,-8.455811E-2],"categories":[],"categories_nodes":[],"categories_segments":[],"categories_sizes":[],"default_left":[0,0,0,0,0,0,0],"id":9,"left_children":[1,3,5,-1,-1,-1,-1],"loss_changes":[5.6037283E0,2.3993502E0,3.199627E0,0E0,0E0,0E0,0E0],"parents":[2147483647,0,0,1,1,2,2],"right_children":[2,4,6,-1,-1,-1,-1],"split_conditions":[3.5575156E-3,1.10073835E-1,2.1014492E-1,-2.2255545E-3,1.0368706E-1,2.3527041E-2,-8.455811E-2],"split_indices":[6,1,3,0,0,0,0],"split_type":[0,0,0,0,0,0,0],"sum_hessian":[1.7387844E1,7.9243765E0,9.463467E0,3.0001981E0,4.9241786E0,3.900911E0,5.5625563E0],"tree_param":{"num_deleted":"0","num_feature":"7","num_nodes":"7","size_leaf_vector":"1"}},{"base_weights":[-9.980786E-3,5.142896E-1,-3.443384E-1,2.1838697E-2,6.4806856E-2,9.903257E-3,-6.965377E-2],"categories":[],"categories_nodes":[],"categories_segments":[],"categories_sizes":[],"default_left":[0,0,0,0,0,0,0],"id":10,"left_children":[1,3,5,-1,-1,-1,-1],"loss_changes":[3.5514917E0,8.1321955E-2,2.0851164E0,0E0,0E0,0E0,0E0],"parents":[2147483647,0,0,1,1,2,2],"right_children":[2,4,6,-1,-1,-1,-1],"split_conditions":[0E0,1.223882E-1,2.3232882E-1,2.1838697E-2,6.4806856E-2,9.903257E-3,-6.965377E-2],"split_indices":[6,1,0,0,0,0,0],"split_type":[0,0,0,0,0,0,0],"sum_hessian":[1.8346931E1,6.8184404E0,1.1528492E1,3.1752105E0,3.6432302E0,5.296193E0,6.2322984E0],"tree_param":{"num_deleted":"0","num_feature":"7","num_nodes":"7","size_leaf_vector":"1"}},{"base_weights":[1.8609671E-1,6.868596E-1,-1.6533604E-1,3.0961735E-2,8.659103E-2,-4.8222277E-2,2.8461888E-2],"categories":[],"categories_nodes":[],"categories_segments":[],"categories_sizes":[],"default_left":[0,0,0,0,0,0,0],"id":11,"left_children":[1,3,5,-1,-1,-1,-1],"loss_changes":[3.1304107E0,1.0462761E-1,1.6666701E0,0E0,0E0,0E0,0E0],"parents":[2147483647,0,0,1,1,2,2],"right_children":[2,4,6,-1,-1,-1,-1],"split_conditions":[0E0,2.7419838E-1,2.3641746E-2,3.0961735E-2,8.659103E-2,-4.8222277E-2,2.8461888E-2],"split_indices":[6,0,6,0,0,0,0],"split_type":[0,0,0,0,0,0,0],"sum_hessian":[1.5846346E1,6.258537E0,9.587809E0,3.0725954E0,3.1859415E0,5.714105E0,3.8737035E0],"tree_param":{"num_deleted":"0","num_feature":"7","num_nodes":"7","size_leaf_vector":"1"}},{"base_weights":[-7.752451E-2,-4.3737566E-1,4.694315E-2,-7.9611324E-2,-5.249815E-3],"categories":[],"categories_nodes":[],"categories_segments":[],"categories_sizes":[],"default_left":[0,0,0,0,0],"id":12,"left_children":[1,3,-1,-1,-1],"loss_changes":[3.4138696E0,1.3189983E0,0E0,0E0,0E0],"parents":[2147483647,0,0,1,1],"right_children":[2,4,-1,-1,-1],"split_conditions":[1.8433703E-2,6.1971832E-2,4.694315E-2,-7.9611324E-2,-5.249815E-3],"split_indices":[5,4,0,0,0],"split_type":[0,0,0,0,0],"sum_hessian":[1.5318019E1,9.47044E0,5.847579E0,4.2141743E0,5.256266E0],"tree_param":{"num_deleted":"0","num_feature":"7","num_nodes":"5","size_leaf_vector":"1"}},{"base_weights":[-3.6129695E-3,4.5485014E-1,-3.374092E-1,1.3865403E-2,6.402897E-2,-6.327943E-2,-0E0],"categories":[],"categories_nodes":[],"categories_segments":[],"categories_sizes":[],"default_left":[0,0,0,0,0,0,0],"id":13,"left_children":[1,3,5,-1,-1,-1,-1],"loss_changes":[2.739652E0,2.7028334E-1,9.898045E-1,0E0,0E0,0E0,0E0],"parents":[2147483647,0,0,1,1,2,2],"right_children":[2,4,6,-1,-1,-1,-1],"split_conditions":[0E0,-1.605389E-2,8.888889E-2,1.3865403E-2,6.402897E-2,-6.327943E-2,-0E0],"split_indices":[6,6,4,0,0,0,0],"split_type":[0,0,0,0,0,0,0],"sum_hessian":[1.5976213E1,6.452112E0,9.524101E0,3.230573E0,3.2215395E0,4.463948E0,5.060154E0],"tree_param":{"num_deleted":"0","num_feature":"7","num_nodes":"7","size_leaf_vector":"1"}},{"base_weights":[-2.6140332E-2,5.5140942E-2,-2.1152516E-1,-1.7442918E-4,-6.987211E-2],"categories":[],"categories_nodes":[],"categories_segments":[],"categories_sizes":[],"default_left":[0,0,0,0,0],"id":14,"left_children":[1,-1,3,-1,-1],"loss_changes":[1.9950477E0,0E0,1.3979306E0,0E0,0E0],"parents":[2147483647,0,0,2,2],"right_children":[2,-1,4,-1,-1],"split_conditions":[3.7952233E-2,5.5140942E-2,1.4501911E-1,-1.7442918E-4,-6.987211E-2],"split_indices":[2,0,1,0,0],"split_type":[0,0,0,0,0],"sum_hessian":[1.6861376E1,3.4862998E0,1.3375076E1,1.0194346E1,3.1807299E0],"tree_param":{"num_deleted":"0","num_feature":"7","num_nodes":"5","size_leaf_vector":"1"}},{"base_weights":[-7.25699E-2,3.38335E-1,-4.158098E-1,5.667574E-2,-1.6743423E-3,-7.1417496E-2,-1.1995628E-2],"categories":[],"categories_nodes":[],"categories_segments":[],"categories_sizes":[],"default_left":[0,0,0,0,0,0,0],"id":15,"left_children":[1,3,5,-1,-1,-1,-1],"loss_changes":[2.6403785E0,7.506936E-1,7.3201346E-1,0E0,0E0,0E0,0E0],"parents":[2147483647,0,0,1,1,2,2],"right_children":[2,4,6,-1,-1,-1,-1],"split_conditions":[2.7751331E-3,1.6733019E-1,1.3579437E-2,5.667574E-2,-1.6743423E-3,-7.1417496E-2,-1.1995628E-2],"split_indices":[6,2,6,0,0,0,0],"split_type":[0,0,0,0,0,0,0],"sum_hessian":[1.6668509E1,7.460374E0,9.208135E0,4.348475E0,3.1118987E0,3.7123334E0,5.495801E0],"tree_param":{"num_deleted":"0","num_feature":"7","num_nodes":"7","size_leaf_vector":"1"}},{"base_weights":[1.605125E-1,3.788449E-1,-3.4109812E-2,-4.9193776E-3,1.0244896E-1],"categories":[],"categories_nodes":[],"categories_segments":[],"categories_sizes":[],"default_left":[0,0,0,0,0],"id":16,"left_children":[1,3,-1,-1,-1],"loss_changes":[1.8899691E0,3.4063005E0,0E0,0E0,0E0],"parents":[2147483647,0,0,1,1],"right_children":[2,4,-1,-1,-1],"split_conditions":[1.2962963E-1,8.888889E-2,-3.4109812E-2,-4.9193776E-3,1.0244896E-1],"split_indices":[4,4,0,0,0],"split_type":[0,0,0,0,0],"sum_hessian":[1.5042785E1,1.0790279E1,4.2525053E0,6.9509673E0,3.839312E0],"tree_param":{"num_deleted":"0","num_feature":"7","num_nodes":"5","size_leaf_vector":"1"}},{"base_weights":[-7.6648794E-2,-5.52621E-2,1.6359475E-1,4.6613265E-2,-3.8654387E-2],"categories":[],"categories_nodes":[],"categories_segments":[],"categories_sizes":[],"default_left":[0,0,0,0,0],"id":17,"left_children":[1,-1,3,-1,-1],"loss_changes":[1.989479E0,0E0,2.0926442E0,0E0,0E0],"parents":[2147483647,0,0,2,2],"right_children":[2,-1,4,-1,-1],"split_conditions":[6.1971832E-2,-5.52621E-2,2.768575E-1,4.6613265E-2,-3.8654387E-2],"split_indices":[4,0,0,0,0],"split_type":[0,0,0,0,0],"sum_hessian":[1.5267445E1,4.824702E0,1.0442743E1,6.953355E0,3.4893885E0],"tree_param":{"num_deleted":"0","num_feature":"7","num_nodes":"5","size_leaf_vector":"1"}},{"base_weights":[-1.579811E-2,3.6386453E-2,-2.9671264E-1,1.3668458E-2,-6.70263E-2],"categories":[],"categories_nodes":[],"categories_segments":[],"categories_sizes":[],"default_left":[0,0,0,0,0],"id":18,"left_children":[1,-1,3,-1,-1],"loss_changes":[1.7795181E0,0E0,1.7228544E0,0E0,0E0],"parents":[2147483647,0,0,2,2],"right_children":[2,-1,4,-1,-1],"split_conditions":[0E0,3.6386453E-2,2.2307692E-1,1.3668458E-2,-6.70263E-2],"split_indices":[6,0,3,0,0],"split_type":[0,0,0,0,0],"sum_hessian":[1.4735837E1,5.989551E0,8.746286E0,4.2184205E0,4.5278654E0],"tree_param":{"num_deleted":"0","num_feature":"7","num_nodes":"5","size_leaf_vector":"1"}},{"base_weights":[-7.1232215E-2,-5.006521E-1,2.866316E-1,-1.080714E-1,1.2638572E-2,6.420553E-2,-2.1671154E-2],"categories":[],"categories_nodes":[],"categories_segments":[],"categories_sizes":[],"default_left":[0,0,0,0,0,0,0],"id":19,"left_children":[1,3,5,-1,-1,-1,-1],"loss_changes":[2.5592463E0,2.986611E0,1.793082E0,0E0,0E0,0E0,0E0],"parents":[2147483647,0,0,1,1,2,2],"right_children":[2,4,6,-1,-1,-1,-1],"split_conditions":[1.3808514E-2,1.1431495E-1,2.0477105E-2,-1.080714E-1,1.2638572E-2,6.420553E-2,-2.1671154E-2],"split_indices":[5,1,6,0,0,0,0],"split_type":[0,0,0,0,0,0,0],"sum_hessian":[1.458067E1,6.5733685E0,8.007301E0,3.1215935E0,3.451775E0,4.648186E0,3.3591154E0],"tree_param":{"num_deleted":"0","num_feature":"7","num_nodes":"7","size_leaf_vector":"1"}},{"base_weights":[-3.6568187E-2,4.5300722E-2,-3.3401003E-1,2.109516E-3,-6.8609595E-2],"categories":[],"categories_nodes":[],"categories_segments":[],"categories_sizes":[],"default_left":[0,0,0,0,0],"id":20,"left_children":[1,-1,3,-1,-1],"loss_changes":[2.6165366E0,0E0,1.4918495E0,0E0,0E0],"parents":[2147483647,0,0,2,2],"right_children":[2,-1,4,-1,-1],"split_conditions":[0E0,4.5300722E-2,2.2307692E-1,2.109516E-3,-6.8609595E-2],"split_indices":[6,0,3,0,0],"split_type":[0,0,0,0,0],"sum_hessian":[1.6010876E1,5.7263536E0,1.0284523E1,5.4469385E0,4.837584E0],"tree_param":{"num_deleted":"0","num_feature":"7","num_nodes":"5","size_leaf_vector":"1"}},{"base_weights":[-1.7283296E-2,-2.7152416E-1,2.4734797E-1,-0E0,-4.1678246E-2,-9.504762E-3,5.4522064E-2],"categories":[],"categories_nodes":[],"categories_segments":[],"categories_sizes":[],"default_left":[0,0,0,0,0,0,0],"id":21,"left_children":[1,3,5,-1,-1,-1,-1],"loss_changes":[1.1381248E0,3.447786E-1,9.242438E-1,0E0,0E0,0E0,0E0],"parents":[2147483647,0,0,1,1,2,2],"right_children":[2,4,6,-1,-1,-1,-1],"split_conditions":[1.4105144E-2,3.4562824E-3,2.504143E-1,-0E0,-4.1678246E-2,-9.504762E-3,5.4522064E-2],"split_indices":[5,6,0,0,0,0,0],"split_type":[0,0,0,0,0,0,0],"sum_hessian":[1.488206E1,7.7694774E0,7.112582E0,3.0626955E0,4.706782E0,3.469591E0,3.6429913E0],"tree_param":{"num_deleted":"0","num_feature":"7","num_nodes":"7","size_leaf_vector":"1"}},{"base_weights":[1.2626365E-1,-9.5940225E-2,4.5865566E-2,-4.152347E-2,2.4143772E-2],"categories":[],"categories_nodes":[],"categories_segments":[],"categories_sizes":[],"default_left":[0,0,0,0,0],"id":22,"left_children":[1,3,-1,-1,-1],"loss_changes":[1.2719543E0,1.2289889E0,0E0,0E0,0E0],"parents":[2147483647,0,0,1,1],"right_children":[2,4,-1,-1,-1],"split_conditions":[1.8433703E-2,1.1440715E-1,4.5865566E-2,-4.152347E-2,2.4143772E-2],"split_indices":[5,1,0,0,0],"split_type":[0,0,0,0,0],"sum_hessian":[1.5134562E1,9.3168E0,5.8177614E0,4.820403E0,4.4963965E0],"tree_param":{"num_deleted":"0","num_feature":"7","num_nodes":"5","size_leaf_vector":"1"}},{"base_weights":[-4.915193E-2,-3.6399028E-1,3.9718053E-1,-5.6915708E-2,3.5189313E-3,7.025905E-2,-0E0],"categories":[],"categories_nodes":[],"categories_segments":[],"categories_sizes":[],"default_left":[0,0,0,0,0,0,0],"id":23,"left_children":[1,3,5,-1,-1,-1,-1],"loss_changes":[2.4891846E0,9.2932045E-1,8.8004327E-1,0E0,0E0,0E0,0E0],"parents":[2147483647,0,0,1,1,2,2],"right_children":[2,4,6,-1,-1,-1,-1],"split_conditions":[1.8433703E-2,1.3579437E-2,2.5220314E-2,-5.6915708E-2,3.5189313E-3,7.025905E-2,-0E0],"split_indices":[5,6,5,0,0,0,0],"split_type":[0,0,0,0,0,0,0],"sum_hessian":[1.5708588E1,9.450697E0,6.25789E0,6.1265326E0,3.3241644E0,3.1022203E0,3.15567E0],"tree_param":{"num_deleted":"0","num_feature":"7","num_nodes":"7","size_leaf_vector":"1"}},{"base_weights":[-1.6861726E-2,-6.375541E-2,1.898157E-1,-3.119249E-2,5.028078E-2],"categories":[],"categories_nodes":[],"categories_segments":[],"categories_sizes":[],"default_left":[0,0,0,0,0],"id":24,"left_children":[1,-1,3,-1,-1],"loss_changes":[2.1236043E0,0E0,2.075964E0,0E0,0E0],"parents":[2147483647,0,0,2,2],"right_children":[2,-1,4,-1,-1],"split_conditions":[7.68675E-3,-6.375541E-2,2.0512821E-1,-3.119249E-2,5.028078E-2],"split_indices":[5,0,3,0,0],"split_type":[0,0,0,0,0],"sum_hessian":[1.4261658E1,3.162656E0,1.1099001E1,4.142422E0,6.956579E0],"tree_param":{"num_deleted":"0","num_feature":"7","num_nodes":"5","size_leaf_vector":"1"}},{"base_weights":[-1.23313144E-1,1.03972696E-1,-3.8174272E-1,-2.8960386E-2,4.6742164E-2,-5.192001E-3,-5.833563E-2],"categories":[],"categories_nodes":[],"categories_segments":[],"categories_sizes":[],"default_left":[0,0,0,0,0,0,0],"id":25,"left_children":[1,3,5,-1,-1,-1,-1],"loss_changes":[9.923868E-1,1.434579E0,4.2409098E-1,0E0,0E0,0E0,0E0],"parents":[2147483647,0,0,1,1,2,2],"right_children":[2,4,6,-1,-1,-1,-1],"split_conditions":[2.607221E-1,1E-1,1.1904488E-2,-2.8960386E-2,4.6742164E-2,-5.192001E-3,-5.833563E-2],"split_indices":[0,4,5,0,0,0,0],"split_type":[0,0,0,0,0,0,0],"sum_hessian":[1.4746684E1,7.9582324E0,6.7884517E0,3.786208E0,4.1720243E0,3.2406094E0,3.5478423E0],"tree_param":{"num_deleted":"0","num_feature":"7","num_nodes":"7","size_leaf_vector":"1"}},{"base_weights":[-4.575932E-2,7.8581564E-2,-4.0306073E-2,5.946051E-2,-1.9609394E-2],"categories":[],"categories_nodes":[],"categories_segments":[],"categories_sizes":[],"default_left":[0,0,0,0,0],"id":26,"left_children":[1,3,-1,-1,-1],"loss_changes":[7.44669E-1,1.8563163E0,0E0,0E0,0E0],"parents":[2147483647,0,0,1,1],"right_children":[2,4,-1,-1,-1],"split_conditions":[3.3333334E-1,3.5575156E-3,-4.0306073E-2,5.946051E-2,-1.9609394E-2],"split_indices":[3,6,0,0,0],"split_type":[0,0,0,0,0],"sum_hessian":[1.4318282E1,1.0992934E1,3.3253474E0,3.5406144E0,7.45232E0],"tree_param":{"num_deleted":"0","num_feature":"7","num_nodes":"5","size_leaf_vector":"1"}},{"base_weights":[7.24582E-2,4.196081E-2,-1.4657843E-1,-4.7142293E-2,3.9200317E-2],"categories":[],"categories_nodes":[],"categories_segments":[],"categories_sizes":[],"default_left":[0,0,0,0,0],"id":27,"left_children":[1,-1,3,-1,-1],"loss_changes":[1.3085104E0,0E0,2.0121996E0,0E0,0E0],"parents":[2147483647,0,0,2,2],"right_children":[2,-1,4,-1,-1],"split_conditions":[1.0400434E-1,4.196081E-2,1.5730519E-2,-4.7142293E-2,3.9200317E-2],"split_indices":[2,0,6,0,0],"split_type":[0,0,0,0,0],"sum_hessian":[1.5040575E1,5.6410127E0,9.399563E0,6.0567894E0,3.3427732E0],"tree_param":{"num_deleted":"0","num_feature":"7","num_nodes":"5","size_leaf_vector":"1"}},{"base_weights":[-1.5456848E-1,1.8216072E-2,-4.0221646E-1,-8.147585E-2,1.9124342E-2],"categories":[],"categories_nodes":[],"categories_segments":[],"categories_sizes":[],"default_left":[0,0,0,0,0],"id":28,"left_children":[1,-1,3,-1,-1],"loss_changes":[1.3296323E0,0E0,2.424585E0,0E0,0E0],"parents":[2147483647,0,0,2,2],"right_children":[2,-1,4,-1,-1],"split_conditions":[2.7751331E-3,1.8216072E-2,2.3641746E-2,-8.147585E-2,1.9124342E-2],"split_indices":[6,0,6,0,0],"split_type":[0,0,0,0,0],"sum_hessian":[1.3802186E1,5.790046E0,8.01214E0,4.605941E0,3.4061992E0],"tree_param":{"num_deleted":"0","num_feature":"7","num_nodes":"5","size_leaf_vector":"1"}},{"base_weights":[9.428219E-3,2.1100026E-1,-4.2930383E-2,-1.0419748E-2,6.3293114E-2],"categories":[],"categories_nodes":[],"categories_segments":[],"categories_sizes":[],"default_left":[0,0,0,0,0],"id":29,"left_children":[1,3,-1,-1,-1],"loss_changes":[1.5088112E0,1.7126029E0,0E0,0E0,0E0],"parents":[2147483647,0,0,1,1],"right_children":[2,4,-1,-1,-1],"split_conditions":[1.2820514E-1,2.742616E-1,-4.2930383E-2,-1.0419748E-2,6.3293114E-2],"split_indices":[4,3,0,0,0],"split_type":[0,0,0,0,0],"sum_hessian":[1.5283602E1,1.0984058E1,4.2995434E0,6.582632E0,4.4014263E0],"tree_param":{"num_deleted":"0","num_feature":"7","num_nodes":"5","size_leaf_vector":"1"}},{"base_weights":[-0E0,2.56799E-1,-4.385001E-2,-1.7831959E-2,5.6945898E-2],"categories":[],"categories_nodes":[],"categories_segments":[],"categories_sizes":[],"default_left":[0,0,0,0,0],"id":30,"left_children":[1,3,-1,-1,-1],"loss_changes":[1.8506927E0,1.5539484E0,0E0,0E0,0E0],"parents":[2147483647,0,0,1,1],"right_children":[2,4,-1,-1,-1],"split_conditions":[1.2820514E-1,4.819277E-2,-4.385001E-2,-1.7831959E-2,5.6945898E-2],"split_indices":[4,4,0,0,0],"split_type":[0,0,0,0,0],"sum_hessian":[1.4450472E1,9.388456E0,5.0620155E0,3.9714088E0,5.4170475E0],"tree_param":{"num_deleted":"0","num_feature":"7","num_nodes":"5","size_leaf_vector":"1"}},{"base_weights":[-1.2396725E-2,2.781449E-2,-2.0503718E-1,-4.282571E-2,1.3382145E-3],"categories":[],"categories_nodes":[],"categories_segments":[],"categories_sizes":[],"default_left":[0,0,0,0,0],"id":31,"left_children":[1,-1,3,-1,-1],"loss_changes":[9.53952E-1,0E0,5.590126E-1,0E0,0E0],"parents":[2147483647,0,0,2,2],"right_children":[2,-1,4,-1,-1],"split_conditions":[2.7751331E-3,2.781449E-2,1.9432183E-2,-4.282571E-2,1.3382145E-3],"split_indices":[6,0,6,0,0],"split_type":[0,0,0,0,0],"sum_hessian":[1.5155648E1,5.6585016E0,9.497147E0,4.4482517E0,5.048895E0],"tree_param":{"num_deleted":"0","num_feature":"7","num_nodes":"5","size_leaf_vector":"1"}},{"base_weights":[-6.298429E-2,3.6718047E-1,-4.0177324E-1,2.4670078E-3,6.0032457E-2,-7.9045795E-2,1.53448E-2],"categories":[],"categories_nodes":[],"categories_segments":[],"categories_sizes":[],"default_left":[0,0,0,0,0,0,0],"id":32,"left_children":[1,3,5,-1,-1,-1,-1],"loss_changes":[2.3803673E0,4.922347E-1,2.1629057E0,0E0,0E0,0E0,0E0],"parents":[2147483647,0,0,1,1,2,2],"right_children":[2,4,6,-1,-1,-1,-1],"split_conditions":[2.7751331E-3,-1.4334325E-2,3.1987276E-2,2.4670078E-3,6.0032457E-2,-7.9045795E-2,1.53448E-2],"split_indices":[6,6,6,0,0,0,0],"split_type":[0,0,0,0,0,0,0],"sum_hessian":[1.4297516E1,6.1322923E0,8.165223E0,3.1051993E0,3.027093E0,4.659647E0,3.5055761E0],"tree_param":{"num_deleted":"0","num_feature":"7","num_nodes":"7","size_leaf_vector":"1"}},{"base_weights":[-1.1225156E-1,-3.436084E-1,2.0034675E-1,-5.8453806E-2,-0E0,4.9633887E-2,-1.4249879E-2],"categories":[],"categories_nodes":[],"categories_segments":[],"categories_sizes":[],"default_left":[0,0,0,0,0,0,0],"id":33,"left_children":[1,3,5,-1,-1,-1,-1],"loss_changes":[1.2593496E0,7.617352E-1,8.535049E-1,0E0,0E0,0E0,0E0],"parents":[2147483647,0,0,1,1,2,2],"right_children":[2,4,6,-1,-1,-1,-1],"split_conditions":[1.8433703E-2,1.039098E-2,1.4456622E-2,-5.8453806E-2,-0E0,4.9633887E-2,-1.4249879E-2],"split_indices":[5,6,6,0,0,0,0],"split_type":[0,0,0,0,0,0,0],"sum_hessian":[1.5263191E1,8.89823E0,6.364962E0,4.6496134E0,4.248616E0,3.3321545E0,3.0328076E0],"tree_param":{"num_deleted":"0","num_feature":"7","num_nodes":"7","size_leaf_vector":"1"}},{"base_weights":[-1.4157163E-1,2.6659817E-2,-2.9930425E-1,-5.640903E-2,2.0862846E-2],"categories":[],"categories_nodes":[],"categories_segments":[],"categories_sizes":[],"default_left":[0,0,0,0,0],"id":34,"left_children":[1,-1,3,-1,-1],"loss_changes":[1.0023938E0,0E0,1.6255481E0,0E0,0E0],"parents":[2147483647,0,0,2,2],"right_children":[2,-1,4,-1,-1],"split_conditions":[6.1129928E-2,2.6659817E-2,1.9109331E-1,-5.640903E-2,2.0862846E-2],"split_indices":[2,0,2,0,0],"split_type":[0,0,0,0,0],"sum_hessian":[1.3279361E1,3.3322399E0,9.947121E0,6.5952973E0,3.351823E0],"tree_param":{"num_deleted":"0","num_feature":"7","num_nodes":"5","size_leaf_vector":"1"}},{"base_weights":[6.0646582E-2,3.2718638E-1,-4.4472236E-2,2.440214E-3,5.3570706E-2],"categories":[],"categories_nodes":[],"categories_segments":[],"categories_sizes":[],"default_left":[0,0,0,0,0],"id":35,"left_children":[1,3,-1,-1,-1],"loss_changes":[2.1323707E0,5.887867E-1,0E0,0E0,0E0],"parents":[2147483647,0,0,1,1],"right_children":[2,4,-1,-1,-1],"split_conditions":[1.2328767E-1,2.7413177E-1,-4.4472236E-2,2.440214E-3,5.3570706E-2],"split_indices":[4,0,0,0,0],"split_type":[0,0,0,0,0],"sum_hessian":[1.3837441E1,9.419761E0,4.4176807E0,4.4926963E0,4.927065E0],"tree_param":{"num_deleted":"0","num_feature":"7","num_nodes":"5","size_leaf_vector":"1"}},{"base_weights":[2.238249E-1,-2.2004912E-2,4.7536102E-1,3.100583E-2,-3.8842548E-2,7.020386E-2,9.2563955E-3],"categories":[],"categories_nodes":[],"categories_segments":[],"categories_sizes":[],"default_left":[0,0,0,0,0,0,0],"id":36,"left_children":[1,3,5,-1,-1,-1,-1],"loss_changes":[9.4479847E-1,1.1047928E0,4.9344182E-1,0E0,0E0,0E0,0E0],"parents":[2147483647,0,0,1,1,2,2],"right_children":[2,4,6,-1,-1,-1,-1],"split_conditions":[1.243296E-1,9.555933E-2,1.5977168E-1,3.100583E-2,-3.8842548E-2,7.020386E-2,9.2563955E-3],"split_indices":[1,1,1,0,0,0,0],"split_type":[0,0,0,0,0,0,0],"sum_hessian":[1.3376994E1,7.025669E0,6.3513246E0,3.6231506E0,3.4025185E0,3.3012478E0,3.0500767E0],"tree_param":{"num_deleted":"0","num_feature":"7","num_nodes":"7","size_leaf_vector":"1"}},{"base_weights":[-3.3049975E-2,1.2649679E-1,-3.9122783E-2,3.6553647E-2,-2.1756198E-2],"categories":[],"categories_nodes":[],"categories_segments":[],"categories_sizes":[],"default_left":[0,0,0,0,0],"id":37,"left_children":[1,3,-1,-1,-1],"loss_changes":[9.4767493E-1,1.0085266E0,0E0,0E0,0E0],"parents":[2147483647,0,0,1,1],"right_children":[2,4,-1,-1,-1],"split_conditions":[1.707173E-1,1.2962963E-1,-3.9122783E-2,3.6553647E-2,-2.1756198E-2],"split_indices":[2,4,0,0,0],"split_type":[0,0,0,0,0],"sum_hessian":[1.4254104E1,1.0115774E1,4.1383295E0,6.103503E0,4.012271E0],"tree_param":{"num_deleted":"0","num_feature":"7","num_nodes":"5","size_leaf_vector":"1"}},{"base_weights":[-2.5271863E-2,-3.2877743E-1,2.0783998E-1,-6.138691E-2,2.8097227E-3,5.8934372E-2,-2.3995494E-2],"categories":[],"categories_nodes":[],"categories_segments":[],"categories_sizes":[],"default_left":[0,0,0,0,0,0,0],"id":38,"left_children":[1,3,5,-1,-1,-1,-1],"loss_changes":[1.1628495E0,8.103766E-1,1.7274301E0,0E0,0E0,0E0,0E0],"parents":[2147483647,0,0,1,1,2,2],"right_children":[2,4,6,-1,-1,-1,-1],"split_conditions":[1.3808514E-2,1.1440715E-1,1.3885936E-1,-6.138691E-2,2.8097227E-3,5.8934372E-2,-2.3995494E-2],"split_indices":[5,1,1,0,0,0,0],"split_type":[0,0,0,0,0,0,0],"sum_hessian":[1.4299098E1,6.219745E0,8.079353E0,3.213058E0,3.0066872E0,4.312493E0,3.7668605E0],"tree_param":{"num_deleted":"0","num_feature":"7","num_nodes":"7","size_leaf_vector":"1"}},{"base_weights":[6.2781155E-2,3.0375496E-1,-3.67068E-2,-1.21330125E-2,5.3487558E-2],"categories":[],"categories_nodes":[],"categories_segments":[],"categories_sizes":[],"default_left":[0,0,0,0,0],"id":39,"left_children":[1,3,-1,-1,-1],"loss_changes":[1.5943339E0,1.0797215E0,0E0,0E0,0E0],"parents":[2147483647,0,0,1,1],"right_children":[2,4,-1,-1,-1],"split_conditions":[1.4501911E-1,8.207205E-3,-3.67068E-2,-1.21330125E-2,5.3487558E-2],"split_indices":[1,5,0,0,0],"split_type":[0,0,0,0,0],"sum_hessian":[1.3376637E1,8.908506E0,4.4681306E0,3.1525636E0,5.7559433E0],"tree_param":{"num_deleted":"0","num_feature":"7","num_nodes":"5","size_leaf_vector":"1"}},{"base_weights":[1.2825221E-2,5.5837598E-2,-1.966648E-1,-4.118314E-2,3.3456038E-3],"categories":[],"categories_nodes":[],"categories_segments":[],"categories_sizes":[],"default_left":[0,0,0,0,0],"id":40,"left_children":[1,-1,3,-1,-1],"loss_changes":[1.8457726E0,0E0,6.137738E-1,0E0,0E0],"parents":[2147483647,0,0,2,2],"right_children":[2,-1,4,-1,-1],"split_conditions":[5.0685138E-2,5.5837598E-2,1.4105144E-2,-4.118314E-2,3.3456038E-3],"split_indices":[2,0,5,0,0],"split_type":[0,0,0,0,0],"sum_hessian":[1.3872927E1,3.5194838E0,1.0353443E1,5.167072E0,5.186371E0],"tree_param":{"num_deleted":"0","num_feature":"7","num_nodes":"5","size_leaf_vector":"1"}},{"base_weights":[7.706541E-2,4.608669E-2,-1.8006565E-1,1.2950358E-2,-3.722516E-2],"categories":[],"categories_nodes":[],"categories_segments":[],"categories_sizes":[],"default_left":[0,0,0,0,0],"id":41,"left_children":[1,-1,3,-1,-1],"loss_changes":[1.5100193E0,0E0,6.110085E-1,0E0,0E0],"parents":[2147483647,0,0,2,2],"right_children":[2,-1,4,-1,-1],"split_conditions":[2.7751331E-3,4.608669E-2,1.014893E-1,1.2950358E-2,-3.722516E-2],"split_indices":[6,0,1,0,0],"split_type":[0,0,0,0,0],"sum_hessian":[1.3175613E1,5.1239767E0,8.051637E0,3.0096228E0,5.042014E0],"tree_param":{"num_deleted":"0","num_feature":"7","num_nodes":"5","size_leaf_vector":"1"}},{"base_weights":[2.1054396E-2,2.2783081E-1,-3.5910793E-2,-2.3702076E-2,4.8302785E-2],"categories":[],"categories_nodes":[],"categories_segments":[],"categories_sizes":[],"default_left":[0,0,0,0,0],"id":42,"left_children":[1,3,-1,-1,-1],"loss_changes":[1.2512628E0,1.3877925E0,0E0,0E0,0E0],"parents":[2147483647,0,0,1,1],"right_children":[2,4,-1,-1,-1],"split_conditions":[1.2820514E-1,2.504143E-1,-3.5910793E-2,-2.3702076E-2,4.8302785E-2],"split_indices":[4,0,0,0,0],"split_type":[0,0,0,0,0],"sum_hessian":[1.4043833E1,9.526152E0,4.517681E0,3.262588E0,6.2635636E0],"tree_param":{"num_deleted":"0","num_feature":"7","num_nodes":"5","size_leaf_vector":"1"}},{"base_weights":[-1.8467993E-1,-5.7171952E-2,-1.9312343E-2,1.8181948E-2,-4.2868942E-2],"categories":[],"categories_nodes":[],"categories_segments":[],"categories_sizes":[],"default_left":[0,0,0,0,0],"id":43,"left_children":[1,-1,3,-1,-1],"loss_changes":[8.4830976E-1,0E0,1.0306046E0,0E0,0E0],"parents":[2147483647,0,0,2,2],"right_children":[2,-1,4,-1,-1],"split_conditions":[7.562884E-3,-5.7171952E-2,1.3768116E-1,1.8181948E-2,-4.2868942E-2],"split_indices":[5,0,4,0,0],"split_type":[0,0,0,0,0],"sum_hessian":[1.3349993E1,3.0798008E0,1.0270192E1,7.095619E0,3.174573E0],"tree_param":{"num_deleted":"0","num_feature":"7","num_nodes":"5","size_leaf_vector":"1"}},{"base_weights":[8.067348E-3,-7.298412E-2,3.8829434E-1,7.353131E-2,7.7454164E-3],"categories":[],"categories_nodes":[],"categories_segments":[],"categories_sizes":[],"default_left":[0,0,0,0,0],"id":44,"left_children":[1,-1,3,-1,-1],"loss_changes":[3.9520118E0,0E0,8.81289E-1,0E0,0E0],"parents":[2147483647,0,0,2,2],"right_children":[2,-1,4,-1,-1],"split_conditions":[6.1971832E-2,-7.298412E-2,3.5575156E-3,7.353131E-2,7.7454164E-3],"split_indices":[4,0,6,0,0],"split_type":[0,0,0,0,0],"sum_hessian":[1.2197194E1,3.7456E0,8.451594E0,3.1961598E0,5.2554345E0],"tree_param":{"num_deleted":"0","num_feature":"7","num_nodes":"5","size_leaf_vector":"1"}},{"base_weights":[-1.5757474E-1,-5.1366293E-1,1.8583694E-1,-9.530115E-3,-7.689112E-2,5.7834636E-2,-2.246562E-2],"categories":[],"categories_nodes":[],"categories_segments":[],"categories_sizes":[],"default_left":[0,0,0,0,0,0,0],"id":45,"left_children":[1,3,5,-1,-1,-1,-1],"loss_changes":[1.8121513E0,6.0585594E-1,1.3900452E0,0E0,0E0,0E0,0E0],"parents":[2147483647,0,0,1,1,2,2],"right_children":[2,4,6,-1,-1,-1,-1],"split_conditions":[1.243296E-1,9.26653E-2,1.3768116E-1,-9.530115E-3,-7.689112E-2,5.7834636E-2,-2.246562E-2],"split_indices":[1,1,4,0,0,0,0],"split_type":[0,0,0,0,0,0,0],"sum_hessian":[1.2770397E1,6.1690536E0,6.6013436E0,3.0064716E0,3.162582E0,3.290093E0,3.311251E0],"tree_param":{"num_deleted":"0","num_feature":"7","num_nodes":"7","size_leaf_vector":"1"}},{"base_weights":[-3.9507974E-2,-3.562129E-1,2.4746759E-1,-0E0,-6.508914E-2,6.0213458E-2,-1.49436565E-2],"categories":[],"categories_nodes":[],"categories_segments":[],"categories_sizes":[],"default_left":[0,0,0,0,0,0,0],"id":46,"left_children":[1,3,5,-1,-1,-1,-1],"loss_changes":[1.3916434E0,8.1785214E-1,1.2453222E0,0E0,0E0,0E0,0E0],"parents":[2147483647,0,0,1,1,2,2],"right_children":[2,4,6,-1,-1,-1,-1],"split_conditions":[1.282572E-1,9.555933E-2,1.6492504E-1,-0E0,-6.508914E-2,6.0213458E-2,-1.49436565E-2],"split_indices":[1,1,1,0,0,0,0],"split_type":[0,0,0,0,0,0,0],"sum_hessian":[1.3222316E1,6.3365374E0,6.885778E0,3.2087703E0,3.127767E0,3.4963603E0,3.3894176E0],"tree_param":{"num_deleted":"0","num_feature":"7","num_nodes":"7","size_leaf_vector":"1"}},{"base_weights":[1.2330296E-1,4.5808427E-2,-7.047994E-2,4.7631964E-2,-4.0692765E-2],"categories":[],"categories_nodes":[],"categories_segments":[],"categories_sizes":[],"default_left":[0,0,0,0,0],"id":47,"left_children":[1,-1,3,-1,-1],"loss_changes":[1.0265229E0,0E0,2.0276613E0,0E0,0E0],"parents":[2147483647,0,0,2,2],"right_children":[2,-1,4,-1,-1],"split_conditions":[1.014893E-1,4.5808427E-2,3.7952233E-2,4.7631964E-2,-4.0692765E-2],"split_indices":[1,0,2,0,0],"split_type":[0,0,0,0,0],"sum_hessian":[1.372799E1,4.722129E0,9.005861E0,3.1589448E0,5.846916E0],"tree_param":{"num_deleted":"0","num_feature":"7","num_nodes":"5","size_leaf_vector":"1"}},{"base_weights":[-7.94776E-2,1.04846306E-1,-4.4922262E-2,-1.7697176E-2,5.3811397E-2],"categories":[],"categories_nodes":[],"categories_segments":[],"categories_sizes":[],"default_left":[0,0,0,0,0],"id":48,"left_children":[1,3,-1,-1,-1],"loss_changes":[1.0378978E0,1.3517137E0,0E0,0E0,0E0],"parents":[2147483647,0,0,1,1],"right_children":[2,4,-1,-1,-1],"split_conditions":[1.2820514E-1,1.22440495E-1,-4.4922262E-2,-1.7697176E-2,5.3811397E-2],"split_indices":[4,1,0,0,0],"split_type":[0,0,0,0,0],"sum_hessian":[1.3032591E1,8.994611E0,4.03798E0,5.6683693E0,3.3262415E0],"tree_param":{"num_deleted":"0","num_feature":"7","num_nodes":"5","size_leaf_vector":"1"}},{"base_weights":[1.4083983E-1,2.6819918E-1,-2.3788735E-2,5.0342083E-2,-1.5182748E-2],"categories":[],"categories_nodes":[],"categories_segments":[],"categories_sizes":[],"default_left":[0,0,0,0,0],"id":49,"left_children":[1,3,-1,-1,-1],"loss_changes":[7.8143317E-1,1.2729287E0,0E0,0E0,0E0],"parents":[2147483647,0,0,1,1],"right_children":[2,4,-1,-1,-1],"split_conditions":[3.611111E-1,2.0477105E-2,-2.3788735E-2,5.0342083E-2,-1.5182748E-2],"split_indices":[3,6,0,0,0],"split_type":[0,0,0,0,0],"sum_hessian":[1.3815157E1,1.0754492E1,3.0606647E0,6.919177E0,3.8353152E0],"tree_param":{"num_deleted":"0","num_feature":"7","num_nodes":"5","size_leaf_vector":"1"}}]},"name":"gbtree"},"learner_model_param":{"base_score":"[5.681818E-1]","boost_from_average":"1","num_class":"0","num_feature":"7","num_target":"1"},"objective":{"name":"binary:logistic","reg_loss_param":{"scale_pos_weight":"1"}}},"version":[3,2,0]}