{"learner":{"attributes":{"scikit_learn":"{\"_estimator_type\": \"classifier\"}"},"feature_names":[],"feature_types":[],"gradient_booster":{"model":{"cats":{"enc":[],"feature_segments":[],"sorted_idx":[]},"gbtree_model_param":{"num_parallel_tree":"1","num_trees":"50"},"iteration_indptr":[0,1,2,3,4,5,6,7,8,9,10,11,12,13,14,15,16,17,18,19,20,21,22,23,24,25,26,27,28,29,30,31,32,33,34,35,36,37,38,39,40,41,42,43,44,45,46,47,48,49,50],"tree_info":[0,0,0,0,0,0,0,0,0,0,0,0,0,0,0,0,0,0,0,0,0,0,0,0,0,0,0,0,0,0,0,0,0,0,0,0,0,0,0,0,0,0,0,0,0,0,0,0,0,0],"trees":[{"base_weights":[-5.7662982E-2,-7.633661E-2,1.549087E-1,3.8924843E-2,-3.990722E-2],"categories":[],"categories_nodes":[],"categories_segments":[],"categories_sizes":[],"default_left":[0,0,0,0,0],"id":0,"left_children":[1,-1,3,-1,-1],"loss_changes":[2.9047961E0,0E0,2.0608988E0,0E0,0E0],"parents":[2147483647,0,0,2,2],"right_children":[2,-1,4,-1,-1],"split_conditions":[8.895458E-2,-7.633661E-2,1.6887896E-1,3.8924843E-2,-3.990722E-2],"split_indices":[1,0,1,0,0],"split_type":[0,0,0,0,0],"sum_hessian":[1.716981E1,3.4837294E0,1.368608E1,9.953512E0,3.7325673E0],"tree_param":{"num_deleted":"0","num_feature":"7","num_nodes":"5","size_leaf_vector":"1"}},{"base_weights":[1.5861938E-2,-3.8250756E-2,1.8389745E-1,6.732321E-2,-1.4823809E-2],"categories":[],"categories_nodes":[],"categories_segments":[],"categories_sizes":[],"default_left":[0,0,0,0,0],"id":1,"left_children":[1,-1,3,-1,-1],"loss_changes":[1.2491511E0,0E0,2.3376312E0,0E0,0E0],"parents":[2147483647,0,0,2,2],"right_children":[2,-1,4,-1,-1],"split_conditions":[6.1971832E-2,-3.8250756E-2,1.1111111E-1,6.732321E-2,-1.4823809E-2],"split_indices":[4,0,4,0,0],"split_type":[0,0,0,0,0],"sum_hessian":[1.690657E1,4.4604692E0,1.24461E1,4.738694E0,7.7074065E0],"tree_param":{"num_deleted":"0","num_feature":"7","num_nodes":"5","size_leaf_vector":"1"}},{"base_weights":[9.6456766E-2,-1.130505E-1,5.098933E-1,8.284852E-2,-2.7583132E-2],"categories":[],"categories_nodes":[],"categories_segments":[],"categories_sizes":[],"default_left":[0,0,0,0,0],"id":2,"left_children":[1,-1,3,-1,-1],"loss_changes":[8.958692E0,0E0,3.5883799E0,0E0,0E0],"parents":[2147483647,0,0,2,2],"right_children":[2,-1,4,-1,-1],"split_conditions":[8.895458E-2,-1.130505E-1,1.6887896E-1,8.284852E-2,-2.7583132E-2],"split_indices":[1,0,1,0,0],"split_type":[0,0,0,0,0],"sum_hessian":[1.5646561E1,3.4453776E0,1.2201183E1,8.733012E0,3.468171E0],"tree_param":{"num_deleted":"0","num_feature":"7","num_nodes":"5","size_leaf_vector":"1"}},{"base_weights":[-0E0,-7.991998E-2,2.702031E-1,8.673432E-2,1.9710336E-3],"categories":[],"categories_nodes":[],"categories_segments":[],"categories_sizes":[],"default_left":[0,0,0,0,0],"id":3,"left_children":[1,-1,3,-1,-1],"loss_changes":[4.5657473E0,0E0,2.2421494E0,0E0,0E0],"parents":[2147483647,0,0,2,2],"right_children":[2,-1,4,-1,-1],"split_conditions":[8.895458E-2,-7.991998E-2,8.3333336E-2,8.673432E-2,1.9710336E-3],"split_indices":[1,0,4,0,0],"split_type":[0,0,0,0,0],"sum_hessian":[1.9051035E1,4.3540053E0,1.4697029E1,3.497563E0,1.1199467E1],"tree_param":{"num_deleted":"0","num_feature":"7","num_nodes":"5","size_leaf_vector":"1"}},{"base_weights":[9.8907426E-2,-5.4711133E-2,2.74627E-1,5.0599653E-2,-4.060133E-2],"categories":[],"categories_nodes":[],"categories_segments":[],"categories_sizes":[],"default_left":[0,0,0,0,0],"id":4,"left_children":[1,-1,3,-1,-1],"loss_changes":[2.3103588E0,0E0,2.7250085E0,0E0,0E0],"parents":[2147483647,0,0,2,2],"right_children":[2,-1,4,-1,-1],"split_conditions":[8.895458E-2,-5.4711133E-2,3.3425134E-2,5.0599653E-2,-4.060133E-2],"split_indices":[1,0,6,0,0],"split_type":[0,0,0,0,0],"sum_hessian":[1.8268776E1,3.332922E0,1.4935854E1,1.144789E1,3.4879637E0],"tree_param":{"num_deleted":"0","num_feature":"7","num_nodes":"5","size_leaf_vector":"1"}},{"base_weights":[4.8265897E-2,-7.13947E-2,3.9505303E-1,3.2106966E-3,9.165408E-2],"categories":[],"categories_nodes":[],"categories_segments":[],"categories_sizes":[],"default_left":[0,0,0,0,0],"id":5,"left_children":[1,-1,3,-1,-1],"loss_changes":[5.713283E0,0E0,2.7032652E0,0E0,0E0],"parents":[2147483647,0,0,2,2],"right_children":[2,-1,4,-1,-1],"split_conditions":[6.1971832E-2,-7.13947E-2,1.284224E-1,3.2106966E-3,9.165408E-2],"split_indices":[4,0,2,0,0],"split_type":[0,0,0,0,0],"sum_hessian":[1.9668169E1,5.7290425E0,1.3939126E1,8.95791E0,4.9812164E0],"tree_param":{"num_deleted":"0","num_feature":"7","num_nodes":"5","size_leaf_vector":"1"}},{"base_weights":[3.2062512E-2,5.5325966E-2,-2.402049E-1,-7.410415E-2,8.368397E-3],"categories":[],"categories_nodes":[],"categories_segments":[],"categories_sizes":[],"default_left":[0,0,0,0,0],"id":6,"left_children":[1,-1,3,-1,-1],"loss_changes":[2.742955E0,0E0,2.1567407E0,0E0,0E0],"parents":[2147483647,0,0,2,2],"right_children":[2,-1,4,-1,-1],"split_conditions":[-4.21454E-3,5.5325966E-2,1.2569951E-2,-7.410415E-2,8.368397E-3],"split_indices":[6,0,6,0,0],"split_type":[0,0,0,0,0],"sum_hessian":[1.7172396E1,5.6643887E0,1.1508008E1,4.134907E0,7.373101E0],"tree_param":{"num_deleted":"0","num_feature":"7","num_nodes":"5","size_leaf_vector":"1"}},{"base_weights":[-6.553221E-2,-3.226376E-1,3.352509E-2,2.644791E-2,-1.0024553E-1],"categories":[],"categories_nodes":[],"categories_segments":[],"categories_sizes":[],"default_left":[0,0,0,0,0],"id":7,"left_children":[1,3,-1,-1,-1],"loss_changes":[1.8735013E0,4.771595E0,0E0,0E0,0E0],"parents":[2147483647,0,0,1,1],"right_children":[2,4,-1,-1,-1],"split_conditions":[2.8402036E-1,2.2349714E-1,3.352509E-2,2.644791E-2,-1.0024553E-1],"split_indices":[0,0,0,0,0],"split_type":[0,0,0,0,0],"sum_hessian":[1.6144196E1,1.0105765E1,6.0384307E0,5.671499E0,4.434267E0],"tree_param":{"num_deleted":"0","num_feature":"7","num_nodes":"5","size_leaf_vector":"1"}},{"base_weights":[-6.680635E-2,-6.5040566E-2,2.4887097E-1,6.8350635E-2,-1.8988835E-2],"categories":[],"categories_nodes":[],"categories_segments":[],"categories_sizes":[],"default_left":[0,0,0,0,0],"id":8,"left_children":[1,-1,3,-1,-1],"loss_changes":[3.4798293E0,0E0,2.4977746E0,0E0,0E0],"parents":[2147483647,0,0,2,2],"right_children":[2,-1,4,-1,-1],"split_conditions":[6.1971832E-2,-6.5040566E-2,2.7751331E-3,6.8350635E-2,-1.8988835E-2],"split_indices":[4,0,6,0,0],"split_type":[0,0,0,0,0],"sum_hessian":[1.679203E1,5.6335664E0,1.11584635E1,5.439846E0,5.7186174E0],"tree_param":{"num_deleted":"0","num_feature":"7","num_nodes":"5","size_leaf_vector":"1"}},{"base_weights":[1.3512506E-2,-7.479151E-2,2.4477656E-1,6.5652825E-2,-3.4698203E-2],"categories":[],"categories_nodes":[],"categories_segments":[],"categories_sizes":[],"default_left":[0,0,0,0,0],"id":9,"left_children":[1,-1,3,-1,-1],"loss_changes":[3.5175536E0,0E0,4.0593233E0,0E0,0E0],"parents":[2147483647,0,0,2,2],"right_children":[2,-1,4,-1,-1],"split_conditions":[8.3739944E-2,-7.479151E-2,1.520678E-1,6.5652825E-2,-3.4698203E-2],"split_indices":[1,0,1,0,0],"split_type":[0,0,0,0,0],"sum_hessian":[1.8221872E1,3.6238978E0,1.4597975E1,8.643367E0,5.954608E0],"tree_param":{"num_deleted":"0","num_feature":"7","num_nodes":"5","size_leaf_vector":"1"}},{"base_weights":[2.0010203E-2,-6.686823E-2,1.9955434E-1,4.2765193E-2,-2.7955843E-2],"categories":[],"categories_nodes":[],"categories_segments":[],"categories_sizes":[],"default_left":[0,0,0,0,0],"id":10,"left_children":[1,-1,3,-1,-1],"loss_changes":[2.6050487E0,0E0,1.9967272E0,0E0,0E0],"parents":[2147483647,0,0,2,2],"right_children":[2,-1,4,-1,-1],"split_conditions":[8.895458E-2,-6.686823E-2,1.9803565E-2,4.2765193E-2,-2.7955843E-2],"split_indices":[1,0,6,0,0],"split_type":[0,0,0,0,0],"sum_hessian":[1.9368046E1,3.3266056E0,1.604144E1,1.10817375E1,4.959702E0],"tree_param":{"num_deleted":"0","num_feature":"7","num_nodes":"5","size_leaf_vector":"1"}},{"base_weights":[1.4268175E-1,5.279308E-1,-2.1379799E-1,8.5509446E-4,9.6366666E-2,1.5036081E-2,-4.424536E-2],"categories":[],"categories_nodes":[],"categories_segments":[],"categories_sizes":[],"default_left":[0,0,0,0,0,0,0],"id":11,"left_children":[1,3,5,-1,-1,-1,-1],"loss_changes":[2.5853906E0,1.9236233E0,9.125165E-1,0E0,0E0,0E0,0E0],"parents":[2147483647,0,0,1,1,2,2],"right_children":[2,4,6,-1,-1,-1,-1],"split_conditions":[2.7751331E-3,1.5589552E-1,2.3232882E-1,8.5509446E-4,9.6366666E-2,1.5036081E-2,-4.424536E-2],"split_indices":[6,2,0,0,0,0,0],"split_type":[0,0,0,0,0,0,0],"sum_hessian":[1.677503E1,7.9658594E0,8.809171E0,4.20399E0,3.7618692E0,3.3611882E0,5.4479823E0],"tree_param":{"num_deleted":"0","num_feature":"7","num_nodes":"7","size_leaf_vector":"1"}},{"base_weights":[-1.5712589E-1,-5.729751E-2,6.871644E-3,2.6622823E-2,-6.106163E-2],"categories":[],"categories_nodes":[],"categories_segments":[],"categories_sizes":[],"default_left":[0,0,0,0,0],"id":12,"left_children":[1,-1,3,-1,-1],"loss_changes":[1.2399924E0,0E0,2.2450933E0,0E0,0E0],"parents":[2147483647,0,0,2,2],"right_children":[2,-1,4,-1,-1],"split_conditions":[1.920293E-1,-5.729751E-2,1.9803565E-2,2.6622823E-2,-6.106163E-2],"split_indices":[0,0,6,0,0],"split_type":[0,0,0,0,0],"sum_hessian":[1.6294357E1,4.0756574E0,1.22186985E1,9.119244E0,3.0994554E0],"tree_param":{"num_deleted":"0","num_feature":"7","num_nodes":"5","size_leaf_vector":"1"}},{"base_weights":[-1.058206E-1,-4.6161145E-1,2.5396055E-1,2.5777934E-2,-1.0353618E-1,-1.77599E-2,6.3876115E-2],"categories":[],"categories_nodes":[],"categories_segments":[],"categories_sizes":[],"default_left":[0,0,0,0,0,0,0],"id":13,"left_children":[1,3,5,-1,-1,-1,-1],"loss_changes":[2.4336889E0,4.2706256E0,1.7242862E0,0E0,0E0,0E0,0E0],"parents":[2147483647,0,0,1,1,2,2],"right_children":[2,4,6,-1,-1,-1,-1],"split_conditions":[1.284224E-1,5.0685138E-2,5.925926E-2,2.5777934E-2,-1.0353618E-1,-1.77599E-2,6.3876115E-2],"split_indices":[2,2,4,0,0,0,0],"split_type":[0,0,0,0,0,0,0],"sum_hessian":[1.6934141E1,8.511728E0,8.422412E0,3.9435587E0,4.5681696E0,4.1013155E0,4.321097E0],"tree_param":{"num_deleted":"0","num_feature":"7","num_nodes":"7","size_leaf_vector":"1"}},{"base_weights":[1.3870783E-1,-3.86803E-2,2.7615845E-1,5.367598E-2,-2.7027545E-2],"categories":[],"categories_nodes":[],"categories_segments":[],"categories_sizes":[],"default_left":[0,0,0,0,0],"id":14,"left_children":[1,-1,3,-1,-1],"loss_changes":[1.4757985E0,0E0,2.4328976E0,0E0,0E0],"parents":[2147483647,0,0,2,2],"right_children":[2,-1,4,-1,-1],"split_conditions":[8.6079925E-2,-3.86803E-2,1.6887896E-1,5.367598E-2,-2.7027545E-2],"split_indices":[1,0,1,0,0],"split_type":[0,0,0,0,0],"sum_hessian":[1.8105768E1,3.2268798E0,1.4878888E1,1.0210215E1,4.6686735E0],"tree_param":{"num_deleted":"0","num_feature":"7","num_nodes":"5","size_leaf_vector":"1"}},{"base_weights":[-1.4514644E-1,3.0678848E-2,-3.2491207E-1,-8.252865E-2,5.9473695E-4],"categories":[],"categories_nodes":[],"categories_segments":[],"categories_sizes":[],"default_left":[0,0,0,0,0],"id":15,"left_children":[1,-1,3,-1,-1],"loss_changes":[1.6224799E0,0E0,2.4108653E0,0E0,0E0],"parents":[2147483647,0,0,2,2],"right_children":[2,-1,4,-1,-1],"split_conditions":[5.697874E-2,3.0678848E-2,1.284224E-1,-8.252865E-2,5.9473695E-4],"split_indices":[2,0,2,0,0],"split_type":[0,0,0,0,0],"sum_hessian":[1.7721619E1,4.68373E0,1.3037888E1,4.715016E0,8.322871E0],"tree_param":{"num_deleted":"0","num_feature":"7","num_nodes":"5","size_leaf_vector":"1"}},{"base_weights":[5.1637556E-2,3.349608E-1,-1.8668298E-1,6.312121E-2,-6.1933785E-3,-4.042703E-2,9.224343E-3],"categories":[],"categories_nodes":[],"categories_segments":[],"categories_sizes":[],"default_left":[0,0,0,0,0,0,0],"id":16,"left_children":[1,3,5,-1,-1,-1,-1],"loss_changes":[1.2371832E0,1.0833632E0,6.6204345E-1,0E0,0E0,0E0,0E0],"parents":[2147483647,0,0,1,1,2,2],"right_children":[2,4,6,-1,-1,-1,-1],"split_conditions":[2.7751331E-3,1.6541578E-2,1.3270512E-1,6.312121E-2,-6.1933785E-3,-4.042703E-2,9.224343E-3],"split_indices":[6,5,1,0,0,0,0],"split_type":[0,0,0,0,0,0,0],"sum_hessian":[1.6177042E1,7.3971577E0,8.779885E0,4.0418253E0,3.3553326E0,4.881231E0,3.8986545E0],"tree_param":{"num_deleted":"0","num_feature":"7","num_nodes":"7","size_leaf_vector":"1"}},{"base_weights":[1.6657659E-4,-3.6256157E-2,1.714654E-1,-2.5916079E-3,5.819724E-2],"categories":[],"categories_nodes":[],"categories_segments":[],"categories_sizes":[],"default_left":[0,0,0,0,0],"id":17,"left_children":[1,-1,3,-1,-1],"loss_changes":[1.1207137E0,0E0,1.0954018E0,0E0,0E0],"parents":[2147483647,0,0,2,2],"right_children":[2,-1,4,-1,-1],"split_conditions":[6.1971832E-2,-3.6256157E-2,1.2716001E-1,-2.5916079E-3,5.819724E-2],"split_indices":[4,0,2,0,0],"split_type":[0,0,0,0,0],"sum_hessian":[1.634382E1,4.6971684E0,1.1646652E1,8.333146E0,3.3135066E0],"tree_param":{"num_deleted":"0","num_feature":"7","num_nodes":"5","size_leaf_vector":"1"}},{"base_weights":[1.1363681E-1,4.0763885E-2,-6.1742634E-2,-5.694547E-2,1.962591E-2],"categories":[],"categories_nodes":[],"categories_segments":[],"categories_sizes":[],"default_left":[0,0,0,0,0],"id":18,"left_children":[1,-1,3,-1,-1],"loss_changes":[9.3071985E-1,0E0,1.6208415E0,0E0,0E0],"parents":[2147483647,0,0,2,2],"right_children":[2,-1,4,-1,-1],"split_conditions":[9.221192E-2,4.0763885E-2,1.3117707E-1,-5.694547E-2,1.962591E-2],"split_indices":[2,0,2,0,0],"split_type":[0,0,0,0,0],"sum_hessian":[1.5891569E1,5.6559434E0,1.0235625E1,3.1726685E0,7.062957E0],"tree_param":{"num_deleted":"0","num_feature":"7","num_nodes":"5","size_leaf_vector":"1"}},{"base_weights":[-1.5194753E-1,-2.9188544E-1,1.960936E-2,-5.8442373E-2,-1.4256674E-4],"categories":[],"categories_nodes":[],"categories_segments":[],"categories_sizes":[],"default_left":[0,0,0,0,0],"id":19,"left_children":[1,3,-1,-1,-1],"loss_changes":[8.754008E-1,9.982784E-1,0E0,0E0,0E0],"parents":[2147483647,0,0,1,1],"right_children":[2,4,-1,-1,-1],"split_conditions":[1.5743649E-1,2.4637681E-1,1.960936E-2,-5.8442373E-2,-1.4256674E-4],"split_indices":[1,3,0,0,0],"split_type":[0,0,0,0,0],"sum_hessian":[1.560197E1,1.1447793E1,4.154177E0,5.0277343E0,6.4200583E0],"tree_param":{"num_deleted":"0","num_feature":"7","num_nodes":"5","size_leaf_vector":"1"}},{"base_weights":[-1.1052337E-1,-5.682188E-2,1.567692E-2,2.4006825E-2,-4.188016E-2],"categories":[],"categories_nodes":[],"categories_segments":[],"categories_sizes":[],"default_left":[0,0,0,0,0],"id":20,"left_children":[1,-1,3,-1,-1],"loss_changes":[1.1319041E0,0E0,1.5735304E0,0E0,0E0],"parents":[2147483647,0,0,2,2],"right_children":[2,-1,4,-1,-1],"split_conditions":[8.6079925E-2,-5.682188E-2,1.6887896E-1,2.4006825E-2,-4.188016E-2],"split_indices":[1,0,1,0,0],"split_type":[0,0,0,0,0],"sum_hessian":[1.7485426E1,3.1934595E0,1.42919655E1,9.871392E0,4.4205737E0],"tree_param":{"num_deleted":"0","num_feature":"7","num_nodes":"5","size_leaf_vector":"1"}},{"base_weights":[-2.277227E-1,2.7014223E-1,-6.408221E-1,6.5102495E-2,-9.848674E-3,-2.1340678E-2,-1.04065314E-1],"categories":[],"categories_nodes":[],"categories_segments":[],"categories_sizes":[],"default_left":[0,0,0,0,0,0,0],"id":21,"left_children":[1,3,5,-1,-1,-1,-1],"loss_changes":[3.721075E0,1.2896163E0,1.3163168E0,0E0,0E0,0E0,0E0],"parents":[2147483647,0,0,1,1,2,2],"right_children":[2,4,6,-1,-1,-1,-1],"split_conditions":[1.3748742E-2,2.758647E-1,1.1320755E-1,6.5102495E-2,-9.848674E-3,-2.1340678E-2,-1.04065314E-1],"split_indices":[5,0,4,0,0,0,0],"split_type":[0,0,0,0,0,0,0],"sum_hessian":[1.6070713E1,7.3348193E0,8.735893E0,3.3640983E0,3.970721E0,5.084482E0,3.6514115E0],"tree_param":{"num_deleted":"0","num_feature":"7","num_nodes":"7","size_leaf_vector":"1"}},{"base_weights":[-6.90871E-2,-4.5537326E-2,9.780544E-2,5.910511E-2,-1.7524619E-2],"categories":[],"categories_nodes":[],"categories_segments":[],"categories_sizes":[],"default_left":[0,0,0,0,0],"id":22,"left_children":[1,-1,3,-1,-1],"loss_changes":[1.214323E0,0E0,1.8860402E0,0E0,0E0],"parents":[2147483647,0,0,2,2],"right_children":[2,-1,4,-1,-1],"split_conditions":[6.1971832E-2,-4.5537326E-2,1.282572E-1,5.910511E-2,-1.7524619E-2],"split_indices":[4,0,1,0,0],"split_type":[0,0,0,0,0],"sum_hessian":[1.6590487E1,4.6645827E0,1.1925903E1,3.965025E0,7.9608784E0],"tree_param":{"num_deleted":"0","num_feature":"7","num_nodes":"5","size_leaf_vector":"1"}},{"base_weights":[-8.218408E-3,1.575165E-1,-4.0348165E-2,-4.0126434E-3,5.4511327E-2],"categories":[],"categories_nodes":[],"categories_segments":[],"categories_sizes":[],"default_left":[0,0,0,0,0],"id":23,"left_children":[1,3,-1,-1,-1],"loss_changes":[1.2827736E0,1.0980886E0,0E0,0E0,0E0],"parents":[2147483647,0,0,1,1],"right_children":[2,4,-1,-1,-1],"split_conditions":[3.018868E-1,2.4637681E-1,-4.0348165E-2,-4.0126434E-3,5.4511327E-2],"split_indices":[3,3,0,0,0],"split_type":[0,0,0,0,0],"sum_hessian":[1.7236023E1,1.2389547E1,4.8464756E0,8.628292E0,3.7612555E0],"tree_param":{"num_deleted":"0","num_feature":"7","num_nodes":"5","size_leaf_vector":"1"}},{"base_weights":[7.01569E-2,4.224163E-1,-2.0146048E-1,-1.3769867E-2,8.485334E-2,-3.8238786E-2,1.1405017E-2],"categories":[],"categories_nodes":[],"categories_segments":[],"categories_sizes":[],"default_left":[0,0,0,0,0,0,0],"id":24,"left_children":[1,3,5,-1,-1,-1,-1],"loss_changes":[1.6925398E0,2.024997E0,6.340003E-1,0E0,0E0,0E0,0E0],"parents":[2147483647,0,0,1,1,2,2],"right_children":[2,4,6,-1,-1,-1,-1],"split_conditions":[2.7751331E-3,-2.9366896E-2,1.5980085E-2,-1.3769867E-2,8.485334E-2,-3.8238786E-2,1.1405017E-2],"split_indices":[6,6,5,0,0,0,0],"split_type":[0,0,0,0,0,0,0],"sum_hessian":[1.556927E1,6.6969724E0,8.872297E0,3.0845811E0,3.612391E0,5.7055006E0,3.1667972E0],"tree_param":{"num_deleted":"0","num_feature":"7","num_nodes":"7","size_leaf_vector":"1"}},{"base_weights":[-1.4033154E-1,2.7630832E-2,-5.92687E-2,-5.2021127E-2,3.3839576E-2],"categories":[],"categories_nodes":[],"categories_segments":[],"categories_sizes":[],"default_left":[0,0,0,0,0],"id":25,"left_children":[1,3,-1,-1,-1],"loss_changes":[1.3837006E0,2.4349995E0,0E0,0E0,0E0],"parents":[2147483647,0,0,1,1],"right_children":[2,4,-1,-1,-1],"split_conditions":[1.4666666E-1,9.666318E-2,-5.92687E-2,-5.2021127E-2,3.3839576E-2],"split_indices":[4,1,0,0,0],"split_type":[0,0,0,0,0],"sum_hessian":[1.6252449E1,1.2375283E1,3.877166E0,4.118715E0,8.256568E0],"tree_param":{"num_deleted":"0","num_feature":"7","num_nodes":"5","size_leaf_vector":"1"}},{"base_weights":[-0E0,1.11980245E-1,-3.0252669E-2,3.2241337E-2,-1.7263992E-2],"categories":[],"categories_nodes":[],"categories_segments":[],"categories_sizes":[],"default_left":[0,0,0,0,0],"id":26,"left_children":[1,3,-1,-1,-1],"loss_changes":[5.895283E-1,8.536021E-1,0E0,0E0,0E0],"parents":[2147483647,0,0,1,1],"right_children":[2,4,-1,-1,-1],"split_conditions":[1.6887896E-1,1.6336986E-1,-3.0252669E-2,3.2241337E-2,-1.7263992E-2],"split_indices":[1,2,0,0,0],"split_type":[0,0,0,0,0],"sum_hessian":[1.5722858E1,1.2072592E1,3.6502674E0,7.0665317E0,5.0060596E0],"tree_param":{"num_deleted":"0","num_feature":"7","num_nodes":"5","size_leaf_vector":"1"}},{"base_weights":[-3.771538E-2,-3.176379E-1,3.1648755E-1,-7.165306E-2,-4.0068617E-3,5.8520164E-2,-7.2749825E-3],"categories":[],"categories_nodes":[],"categories_segments":[],"categories_sizes":[],"default_left":[0,0,0,0,0,0,0],"id":27,"left_children":[1,3,5,-1,-1,-1,-1],"loss_changes":[1.832055E0,1.0483272E0,9.359811E-1,0E0,0E0,0E0,0E0],"parents":[2147483647,0,0,1,1,2,2],"right_children":[2,4,6,-1,-1,-1,-1],"split_conditions":[1.2569951E-2,6.1971832E-2,3.7861735E-2,-7.165306E-2,-4.0068617E-3,5.8520164E-2,-7.2749825E-3],"split_indices":[6,4,6,0,0,0,0],"split_type":[0,0,0,0,0,0,0],"sum_hessian":[1.6462656E1,9.410892E0,7.0517635E0,3.0647888E0,6.3461027E0,4.0258985E0,3.025865E0],"tree_param":{"num_deleted":"0","num_feature":"7","num_nodes":"7","size_leaf_vector":"1"}},{"base_weights":[3.0848483E-2,3.3241606E-1,-2.3910962E-1,5.702324E-2,-0E0,-5.6245387E-2,2.1305544E-2],"categories":[],"categories_nodes":[],"categories_segments":[],"categories_sizes":[],"default_left":[0,0,0,0,0,0,0],"id":28,"left_children":[1,3,5,-1,-1,-1,-1],"loss_changes":[1.4359977E0,6.986426E-1,1.4908345E0,0E0,0E0,0E0,0E0],"parents":[2147483647,0,0,1,1,2,2],"right_children":[2,4,6,-1,-1,-1,-1],"split_conditions":[2.7751331E-3,1.4205635E-1,2.3641746E-2,5.702324E-2,-0E0,-5.6245387E-2,2.1305544E-2],"split_indices":[6,1,6,0,0,0,0],"split_type":[0,0,0,0,0,0,0],"sum_hessian":[1.5548005E1,7.4097323E0,8.138273E0,4.0064483E0,3.4032836E0,4.731799E0,3.4064744E0],"tree_param":{"num_deleted":"0","num_feature":"7","num_nodes":"7","size_leaf_vector":"1"}},{"base_weights":[-7.392587E-2,2.9474577E-1,-4.1074216E-1,-9.237585E-4,4.7572E-2,2.7165858E-3,-6.294867E-2],"categories":[],"categories_nodes":[],"categories_segments":[],"categories_sizes":[],"default_left":[0,0,0,0,0,0,0],"id":29,"left_children":[1,3,5,-1,-1,-1,-1],"loss_changes":[2.3449051E0,5.431919E-1,1.0227355E0,0E0,0E0,0E0,0E0],"parents":[2147483647,0,0,1,1,2,2],"right_children":[2,4,6,-1,-1,-1,-1],"split_conditions":[2.7751331E-3,8E-2,6.666667E-2,-9.237585E-4,4.7572E-2,2.7165858E-3,-6.294867E-2],"split_indices":[6,4,4,0,0,0,0],"split_type":[0,0,0,0,0,0,0],"sum_hessian":[1.6815565E1,7.9460278E0,8.869537E0,3.1131854E0,4.8328424E0,3.0940888E0,5.775449E0],"tree_param":{"num_deleted":"0","num_feature":"7","num_nodes":"7","size_leaf_vector":"1"}},{"base_weights":[-6.32095E-2,-3.495485E-1,2.544068E-1,-1.0636024E-3,-7.49965E-2,6.7068346E-2,-1.0320703E-2],"categories":[],"categories_nodes":[],"categories_segments":[],"categories_sizes":[],"default_left":[0,0,0,0,0,0,0],"id":30,"left_children":[1,3,5,-1,-1,-1,-1],"loss_changes":[1.6382611E0,1.2039226E0,1.3824515E0,0E0,0E0,0E0,0E0],"parents":[2147483647,0,0,1,1,2,2],"right_children":[2,4,6,-1,-1,-1,-1],"split_conditions":[1.039098E-2,-4.394735E-3,2.3232882E-1,-1.0636024E-3,-7.49965E-2,6.7068346E-2,-1.0320703E-2],"split_indices":[6,6,0,0,0,0,0],"split_type":[0,0,0,0,0,0,0],"sum_hessian":[1.5931154E1,8.490797E0,7.4403567E0,5.289808E0,3.2009897E0,3.1628566E0,4.2775E0],"tree_param":{"num_deleted":"0","num_feature":"7","num_nodes":"7","size_leaf_vector":"1"}},{"base_weights":[-2.6103936E-2,1.2104579E-1,-3.7969295E-2,-2.0042604E-2,3.156805E-2],"categories":[],"categories_nodes":[],"categories_segments":[],"categories_sizes":[],"default_left":[0,0,0,0,0],"id":31,"left_children":[1,3,-1,-1,-1],"loss_changes":[1.0039501E0,9.012739E-1,0E0,0E0,0E0],"parents":[2147483647,0,0,1,1],"right_children":[2,4,-1,-1,-1],"split_conditions":[1.9803565E-2,2.4202238E-1,-3.7969295E-2,-2.0042604E-2,3.156805E-2],"split_indices":[6,0,0,0,0],"split_type":[0,0,0,0,0],"sum_hessian":[1.6914967E1,1.22089405E1,4.706026E0,4.399271E0,7.80967E0],"tree_param":{"num_deleted":"0","num_feature":"7","num_nodes":"5","size_leaf_vector":"1"}},{"base_weights":[6.627633E-2,-2.2345066E-1,5.156985E-1,1.2230552E-2,-8.049143E-2,2.1277733E-2,6.652602E-2],"categories":[],"categories_nodes":[],"categories_segments":[],"categories_sizes":[],"default_left":[0,0,0,0,0,0,0],"id":32,"left_children":[1,3,5,-1,-1,-1,-1],"loss_changes":[2.3677907E0,2.3670316E0,9.3696594E-2,0E0,0E0,0E0,0E0],"parents":[2147483647,0,0,1,1,2,2],"right_children":[2,4,6,-1,-1,-1,-1],"split_conditions":[1.8433703E-2,1.3436066E-2,-7.7988436E-3,1.2230552E-2,-8.049143E-2,2.1277733E-2,6.652602E-2],"split_indices":[5,5,6,0,0,0,0],"split_type":[0,0,0,0,0,0,0],"sum_hessian":[1.6075014E1,9.94446E0,6.130554E0,6.623564E0,3.3208957E0,3.0481484E0,3.0824058E0],"tree_param":{"num_deleted":"0","num_feature":"7","num_nodes":"7","size_leaf_vector":"1"}},{"base_weights":[-1.0925842E-1,-3.5835856E-1,2.1302477E-1,1.0502856E-4,-6.9701985E-2,6.9975644E-2,-1.9984296E-2],"categories":[],"categories_nodes":[],"categories_segments":[],"categories_sizes":[],"default_left":[0,0,0,0,0,0,0],"id":33,"left_children":[1,3,5,-1,-1,-1,-1],"loss_changes":[1.5448214E0,1.3803844E0,1.8673593E0,0E0,0E0,0E0,0E0],"parents":[2147483647,0,0,1,1,2,2],"right_children":[2,4,6,-1,-1,-1,-1],"split_conditions":[1.8433703E-2,2.685185E-1,2.5002109E-2,1.0502856E-4,-6.9701985E-2,6.9975644E-2,-1.9984296E-2],"split_indices":[5,3,5,0,0,0,0],"split_type":[0,0,0,0,0,0,0],"sum_hessian":[1.711079E1,9.763051E0,7.3477397E0,5.0768223E0,4.6862288E0,3.1644704E0,4.183269E0],"tree_param":{"num_deleted":"0","num_feature":"7","num_nodes":"7","size_leaf_vector":"1"}},{"base_weights":[-9.7693704E-2,1.2601571E-1,-5.4799076E-2,-2.7258102E-2,3.866751E-2],"categories":[],"categories_nodes":[],"categories_segments":[],"categories_sizes":[],"default_left":[0,0,0,0,0],"id":34,"left_children":[1,3,-1,-1,-1],"loss_changes":[1.7498356E0,1.3149538E0,0E0,0E0,0E0],"parents":[2147483647,0,0,1,1],"right_children":[2,4,-1,-1,-1],"split_conditions":[1.9803565E-2,2.4695408E-1,-5.4799076E-2,-2.7258102E-2,3.866751E-2],"split_indices":[6,0,0,0,0],"split_type":[0,0,0,0,0],"sum_hessian":[1.5266156E1,1.0531926E1,4.7342296E0,3.9943871E0,6.537539E0],"tree_param":{"num_deleted":"0","num_feature":"7","num_nodes":"5","size_leaf_vector":"1"}},{"base_weights":[-7.00441E-2,-5.6269493E-2,9.221879E-2,3.343823E-2,-2.6402554E-2],"categories":[],"categories_nodes":[],"categories_segments":[],"categories_sizes":[],"default_left":[0,0,0,0,0],"id":35,"left_children":[1,-1,3,-1,-1],"loss_changes":[1.4241161E0,0E0,1.2320598E0,0E0,0E0],"parents":[2147483647,0,0,2,2],"right_children":[2,-1,4,-1,-1],"split_conditions":[2E-1,-5.6269493E-2,3.018868E-1,3.343823E-2,-2.6402554E-2],"split_indices":[3,0,3,0,0],"split_type":[0,0,0,0,0],"sum_hessian":[1.557737E1,3.4007487E0,1.21766205E1,7.4526334E0,4.723987E0],"tree_param":{"num_deleted":"0","num_feature":"7","num_nodes":"5","size_leaf_vector":"1"}},{"base_weights":[2.3950395E-1,-1.4340279E-2,4.356562E-1,8.54092E-2,1.3823858E-2],"categories":[],"categories_nodes":[],"categories_segments":[],"categories_sizes":[],"default_left":[0,0,0,0,0],"id":36,"left_children":[1,-1,3,-1,-1],"loss_changes":[1.3058119E0,0E0,1.1652753E0,0E0,0E0],"parents":[2147483647,0,0,2,2],"right_children":[2,-1,4,-1,-1],"split_conditions":[-7.6431553E-3,-1.4340279E-2,1.07329234E-1,8.54092E-2,1.3823858E-2],"split_indices":[6,0,1,0,0],"split_type":[0,0,0,0,0],"sum_hessian":[1.5164882E1,5.0554004E0,1.0109481E1,3.2828836E0,6.826597E0],"tree_param":{"num_deleted":"0","num_feature":"7","num_nodes":"5","size_leaf_vector":"1"}},{"base_weights":[-6.579038E-2,3.7650432E-2,-2.1092378E-1,1.1751357E-3,-6.674949E-2],"categories":[],"categories_nodes":[],"categories_segments":[],"categories_sizes":[],"default_left":[0,0,0,0,0],"id":37,"left_children":[1,-1,3,-1,-1],"loss_changes":[1.1473165E0,0E0,1.449106E0,0E0,0E0],"parents":[2147483647,0,0,2,2],"right_children":[2,-1,4,-1,-1],"split_conditions":[5.697874E-2,3.7650432E-2,1.9803565E-2,1.1751357E-3,-6.674949E-2],"split_indices":[2,0,6,0,0],"split_type":[0,0,0,0,0],"sum_hessian":[1.5894087E1,3.3627806E0,1.2531306E1,8.930859E0,3.6004474E0],"tree_param":{"num_deleted":"0","num_feature":"7","num_nodes":"5","size_leaf_vector":"1"}},{"base_weights":[-5.7297826E-2,3.229147E-2,-2.5095904E-1,-5.0784674E-2,1.7928572E-2],"categories":[],"categories_nodes":[],"categories_segments":[],"categories_sizes":[],"default_left":[0,0,0,0,0],"id":38,"left_children":[1,-1,3,-1,-1],"loss_changes":[1.3329613E0,0E0,1.4575357E0,0E0,0E0],"parents":[2147483647,0,0,2,2],"right_children":[2,-1,4,-1,-1],"split_conditions":[8.548103E-3,3.229147E-2,1.5589552E-1,-5.0784674E-2,1.7928572E-2],"split_indices":[5,0,2,0,0],"split_type":[0,0,0,0,0],"sum_hessian":[1.6100058E1,5.033692E0,1.1066366E1,6.96175E0,4.104616E0],"tree_param":{"num_deleted":"0","num_feature":"7","num_nodes":"5","size_leaf_vector":"1"}},{"base_weights":[6.5349706E-2,2.7509975E-1,-3.533734E-2,-0E0,5.559222E-2],"categories":[],"categories_nodes":[],"categories_segments":[],"categories_sizes":[],"default_left":[0,0,0,0,0],"id":39,"left_children":[1,3,-1,-1,-1],"loss_changes":[1.5100039E0,8.5623306E-1,0E0,0E0,0E0],"parents":[2147483647,0,0,1,1],"right_children":[2,4,-1,-1,-1],"split_conditions":[1.9803565E-2,2.78307E-1,-3.533734E-2,-0E0,5.559222E-2],"split_indices":[6,0,0,0,0],"split_type":[0,0,0,0,0],"sum_hessian":[1.5175155E1,1.0498159E1,4.6769953E0,5.91196E0,4.5861993E0],"tree_param":{"num_deleted":"0","num_feature":"7","num_nodes":"5","size_leaf_vector":"1"}},{"base_weights":[5.4556843E-2,4.0259264E-2,-9.813538E-2,-3.1971194E-2,2.6949078E-2],"categories":[],"categories_nodes":[],"categories_segments":[],"categories_sizes":[],"default_left":[0,0,0,0,0],"id":40,"left_children":[1,-1,3,-1,-1],"loss_changes":[9.6772444E-1,0E0,1.0968881E0,0E0,0E0],"parents":[2147483647,0,0,2,2],"right_children":[2,-1,4,-1,-1],"split_conditions":[5.697874E-2,4.0259264E-2,1.6430499E-2,-3.1971194E-2,2.6949078E-2],"split_indices":[2,0,5,0,0],"split_type":[0,0,0,0,0],"sum_hessian":[1.58936825E1,4.5472617E0,1.134642E1,7.330508E0,4.015912E0],"tree_param":{"num_deleted":"0","num_feature":"7","num_nodes":"5","size_leaf_vector":"1"}},{"base_weights":[7.2637506E-2,-2.4396385E-1,6.262054E-2,1.4177983E-2,-4.4244938E-2],"categories":[],"categories_nodes":[],"categories_segments":[],"categories_sizes":[],"default_left":[0,0,0,0,0],"id":41,"left_children":[1,3,-1,-1,-1],"loss_changes":[3.0239332E0,9.2641133E-1,0E0,0E0,0E0],"parents":[2147483647,0,0,1,1],"right_children":[2,4,-1,-1,-1],"split_conditions":[2.742616E-1,1.366063E-2,6.262054E-2,1.4177983E-2,-4.4244938E-2],"split_indices":[3,5,0,0,0],"split_type":[0,0,0,0,0],"sum_hessian":[1.5164167E1,9.887732E0,5.276436E0,3.285144E0,6.6025877E0],"tree_param":{"num_deleted":"0","num_feature":"7","num_nodes":"5","size_leaf_vector":"1"}},{"base_weights":[-1.4011464E-1,-3.9074102E-1,2.0740613E-1,-8.50853E-3,-8.211319E-2,5.5012662E-2,-1.2010395E-2],"categories":[],"categories_nodes":[],"categories_segments":[],"categories_sizes":[],"default_left":[0,0,0,0,0,0,0],"id":42,"left_children":[1,3,5,-1,-1,-1,-1],"loss_changes":[1.5708959E0,1.1984199E0,9.5822155E-1,0E0,0E0,0E0,0E0],"parents":[2147483647,0,0,1,1,2,2],"right_children":[2,4,6,-1,-1,-1,-1],"split_conditions":[1.8433703E-2,1.3748742E-2,1.520678E-1,-8.50853E-3,-8.211319E-2,5.5012662E-2,-1.2010395E-2],"split_indices":[5,5,1,0,0,0,0],"split_type":[0,0,0,0,0,0,0],"sum_hessian":[1.58950205E1,9.329861E0,6.56516E0,6.2916713E0,3.0381894E0,3.0251374E0,3.5400224E0],"tree_param":{"num_deleted":"0","num_feature":"7","num_nodes":"7","size_leaf_vector":"1"}},{"base_weights":[-2.7100548E-2,1.2256708E-1,-3.5692904E-2,3.506845E-2,-2.7570808E-2],"categories":[],"categories_nodes":[],"categories_segments":[],"categories_sizes":[],"default_left":[0,0,0,0,0],"id":43,"left_children":[1,3,-1,-1,-1],"loss_changes":[8.929226E-1,1.1982391E0,0E0,0E0,0E0],"parents":[2147483647,0,0,1,1],"right_children":[2,4,-1,-1,-1],"split_conditions":[3.018868E-1,2.35364E-2,-3.5692904E-2,3.506845E-2,-2.7570808E-2],"split_indices":[3,5,0,0,0],"split_type":[0,0,0,0,0],"sum_hessian":[1.5727326E1,1.104197E1,4.6853566E0,7.2563653E0,3.7856047E0],"tree_param":{"num_deleted":"0","num_feature":"7","num_nodes":"5","size_leaf_vector":"1"}},{"base_weights":[1.4552532E-1,-5.1265478E-2,4.123693E-1,6.241342E-2,1.6997121E-2],"categories":[],"categories_nodes":[],"categories_segments":[],"categories_sizes":[],"default_left":[0,0,0,0,0],"id":44,"left_children":[1,-1,3,-1,-1],"loss_changes":[2.8357365E0,0E0,3.9633512E-1,0E0,0E0],"parents":[2147483647,0,0,2,2],"right_children":[2,-1,4,-1,-1],"split_conditions":[6.1971832E-2,-5.1265478E-2,2.7751331E-3,6.241342E-2,1.6997121E-2],"split_indices":[4,0,6,0,0],"split_type":[0,0,0,0,0],"sum_hessian":[1.3999381E1,3.6645963E0,1.03347845E1,4.4552197E0,5.8795643E0],"tree_param":{"num_deleted":"0","num_feature":"7","num_nodes":"5","size_leaf_vector":"1"}},{"base_weights":[-2.4279012E-1,-1.0708638E-2,-5.257448E-2,4.324547E-2,-3.0948872E-2],"categories":[],"categories_nodes":[],"categories_segments":[],"categories_sizes":[],"default_left":[0,0,0,0,0],"id":45,"left_children":[1,3,-1,-1,-1],"loss_changes":[9.9330837E-1,1.4484005E0,0E0,0E0,0E0],"parents":[2147483647,0,0,1,1],"right_children":[2,4,-1,-1,-1],"split_conditions":[2.758647E-1,8.461539E-2,-5.257448E-2,4.324547E-2,-3.0948872E-2],"split_indices":[0,4,0,0,0],"split_type":[0,0,0,0,0],"sum_hessian":[1.5028736E1,9.020949E0,6.0077877E0,3.3177803E0,5.703169E0],"tree_param":{"num_deleted":"0","num_feature":"7","num_nodes":"5","size_leaf_vector":"1"}},{"base_weights":[1.4204675E-2,-1.6462682E-1,3.7771683E-2,1.9670693E-2,-5.5805653E-2],"categories":[],"categories_nodes":[],"categories_segments":[],"categories_sizes":[],"default_left":[0,0,0,0,0],"id":46,"left_children":[1,3,-1,-1,-1],"loss_changes":[1.1537683E0,1.7874521E0,0E0,0E0,0E0],"parents":[2147483647,0,0,1,1],"right_children":[2,4,-1,-1,-1],"split_conditions":[2.8402036E-1,2.3232882E-1,3.7771683E-2,1.9670693E-2,-5.5805653E-2],"split_indices":[0,0,0,0,0],"split_type":[0,0,0,0,0],"sum_hessian":[1.5463921E1,1.0547203E1,4.916718E0,5.6260085E0,4.921194E0],"tree_param":{"num_deleted":"0","num_feature":"7","num_nodes":"5","size_leaf_vector":"1"}},{"base_weights":[1.763721E-2,2.4413492E-1,-2.5686014E-1,-9.912904E-3,4.323221E-2,-6.7252874E-2,2.1279592E-2],"categories":[],"categories_nodes":[],"categories_segments":[],"categories_sizes":[],"default_left":[0,0,0,0,0,0,0],"id":47,"left_children":[1,3,5,-1,-1,-1,-1],"loss_changes":[1.1008383E0,7.1389246E-1,1.7207494E0,0E0,0E0,0E0,0E0],"parents":[2147483647,0,0,1,1,2,2],"right_children":[2,4,6,-1,-1,-1,-1],"split_conditions":[1.4501911E-1,9.0083085E-2,2.0508488E-1,-9.912904E-3,4.323221E-2,-6.7252874E-2,2.1279592E-2],"split_indices":[1,1,1,0,0,0,0],"split_type":[0,0,0,0,0,0,0],"sum_hessian":[1.5717899E1,8.872111E0,6.845788E0,3.1210313E0,5.75108E0,3.5154257E0,3.3303626E0],"tree_param":{"num_deleted":"0","num_feature":"7","num_nodes":"7","size_leaf_vector":"1"}},{"base_weights":[-1.6859533E-1,7.129375E-2,-4.41035E-1,-4.865044E-2,4.5850847E-2,-8.769747E-2,-0E0],"categories":[],"categories_nodes":[],"categories_segments":[],"categories_sizes":[],"default_left":[0,0,0,0,0,0,0],"id":48,"left_children":[1,3,5,-1,-1,-1,-1],"loss_changes":[1.1351877E0,2.238779E0,1.5338851E0,0E0,0E0,0E0,0E0],"parents":[2147483647,0,0,1,1,2,2],"right_children":[2,4,6,-1,-1,-1,-1],"split_conditions":[2.6757786E-1,1.920293E-1,1.1212374E-1,-4.865044E-2,4.5850847E-2,-8.769747E-2,-0E0],"split_indices":[0,0,1,0,0,0,0],"split_type":[0,0,0,0,0,0,0],"sum_hessian":[1.5322631E1,8.345498E0,6.977133E0,3.2086442E0,5.1368537E0,3.011954E0,3.965179E0],"tree_param":{"num_deleted":"0","num_feature":"7","num_nodes":"7","size_leaf_vector":"1"}},{"base_weights":[-5.7110947E-2,2.7374549E-2,-1.9558394E-1,1.953496E-2,-4.72757E-2],"categories":[],"categories_nodes":[],"categories_segments":[],"categories_sizes":[],"default_left":[0,0,0,0,0],"id":49,"left_children":[1,-1,3,-1,-1],"loss_changes":[8.287926E-1,0E0,1.5119841E0,0E0,0E0],"parents":[2147483647,0,0,2,2],"right_children":[2,-1,4,-1,-1],"split_conditions":[5.0685138E-2,2.7374549E-2,1.0584944E-1,1.953496E-2,-4.72757E-2],"split_indices":[2,0,1,0,0],"split_type":[0,0,0,0,0],"sum_hessian":[1.6092089E1,4.246585E0,1.1845503E1,4.8870606E0,6.958442E0],"tree_param":{"num_deleted":"0","num_feature":"7","num_nodes":"5","size_leaf_vector":"1"}}]},"name":"gbtree"},"learner_model_param":{"base_score":"[4.659091E-1]","boost_from_average":"1","num_class":"0","num_feature":"7","num_target":"1"},"objective":{"name":"binary:logistic","reg_loss_param":{"scale_pos_weight":"1"}}},"version":[3,2,0]}